[[0.18671936912340326, 0.3255487914632077, -0.3134457594621658, -0.29765923102499936, -0.20956236448967214, -0.3021630528963525, -0.37714742337836304, 0.21815976174585094, -0.09045082914816949, 0.22601555176799412, 0.6907570168119239, -0.5076153497538921, 0.5087360451083744, 0.13107512791419598, -0.43924198305173573, -0.22200490033292897, 0.12208512909269975, -0.1531781974296035, -0.21605238175285743, -0.3644528146968109, -0.27159222836742614, -0.0152871899180993, 0.24105326504287294, 0.45052954302742, 0.3830729701171518, 0.03177337636181913, 0.2761532141761729, -0.21088045805099107, -0.511407508817909, -0.45771897537576545, -0.2849197282629934, 0.31512451487327875, -0.2926661966697808, 0.25545834983602184, -0.10516910862858087, -0.2617725110684753, -0.0637879538896418, 0.0036896431330087306, 0.27770464140854567, 0.14746965086913122, 0.36742103179614694, 0.22399281787975245, -0.1895705750447435, 0.030802366966437233, 0.7089739362296507, 0.226380795634972, -0.6411454915820869, 0.4838859755123598, 0.4219397203879003, -0.1311371474686746, -0.14041358496826575, -0.17503709315020324, 0.004573697100456577, -1.2078017548094202, 0.4933834628076285, 0.9695682451588525, -0.19639182431320545, 0.43465866898353434, -0.4208441534377385, 0.3865671169381335, 0.039935941042861245, 0.3106637404696674, -0.3515491132117874, -0.4747068152891585, 0.4971206624601699], [0.34586277910537677, -0.44747901314371674, 0.0982163465250071, -0.19263564578072911, 0.06791741825864006, 0.21552545584324767, -0.46548879056541526, 0.09061643949574105, -0.052215501720784485, 0.23994958320385842, -0.4156537111693187, 0.19596542455761432, 0.8318021392427384, 0.41868721755040167, 0.1819239110161831, 0.3023309933437852, -0.2526227011294758, 0.2159253286248833, 1.1063769330312678, -0.058590580245044384, -0.03298780330646751, 0.010276662189536677, 0.5542059492787306, 0.3727835819922789, 0.377446435289446, -0.3745884590675898, -0.4011093861942924, -0.17009678454001456, -0.025193646146366218, -0.5829291567754454, 0.18946772914558477, -0.0946275413027362, -0.06850316580036964, 0.308743622623817, -0.15520084369130088, -0.3135872554595925, 0.29141830836998217, -0.9991283378485794, -0.323309076877546, -0.2418586410942125, 0.16201816212949371, -0.32503338165951107, 0.0793269958534347, -0.3349367526099086, 0.2059452925429908, -0.06767720412100214, -0.24053257710948597, -0.28215618930993425, -0.27469071712861826, 0.2935247405605734, 0.5424638253738336, -0.6773605486601362, -0.9847830839140395, 0.6916225738763415, -0.13962176789346398, -0.4386437615002707, -0.027169241489249707, -0.26169958628571377, 0.11619816976104436, -0.10725783448361204, 0.3299620013019743, 0.13865992959883788, 0.20865433802890287, 0.46446422242575247, -0.13523974355220356], [0.048618603112020486, -0.13958937777146085, -0.08397706165832175, 0.12723497017193985, -0.14544585800525645, -0.09658137370095365, 0.18977233344345823, -0.4687667760547053, 0.19131199802823473, 0.4289863032137916, 0.05599767061845653, 0.35902425839467644, 0.6791339696061813, -0.26790368023817573, -0.08360765328296672, 0.2692431110819937, -0.17640004948988808, -0.03372337048814001, -0.30196437182407626, -0.13949251044466282, 0.24409068138565138, 0.18016294684293024, -0.4931795466932779, -0.0904420010483975, 0.010350019568493574, 0.24252752955294507, -1.1273386943849792, -0.43958628779263936, -0.9775970929896866, -0.9333968458180543, 0.4286392455332454, 0.41082529592103667, -0.4649224323936675, -0.27027911794119713, 0.8643079380249644, -0.3846945020631961, -0.2732666495029065, -1.1133360114453084, -0.042884316317817237, -0.05263680977853824, 0.30136626340131, 0.4738143733588968, -0.12809575962062134, 0.4396055121196741, 0.13868185385254275, -0.3269967109497895, -0.3474657775494623, -0.22853573586337428, -0.4577218320161811, 0.44823574663223764, 0.19425189454710295, -0.15655095229781738, 0.027919904055597387, 0.13318956924148592, 0.058571045912675423, -0.1138140495287304, -0.17542445872516077, 0.4231925986490618, 0.2393152542797825, 0.35473279222761256, 0.21830448347936415, -0.2859002647713601, -0.05030631211817049, -0.22913772334459193, -0.275302852781788], [-0.31987149424039685, 0.38172052212950947, 0.25796699623073804, -0.4596933687404069, -0.11331150071781848, 0.3794168397714711, -0.21029125215345368, -0.1373916871031321, -0.12387391386450719, 0.2585299225555921, 0.8669859333203203, 0.7405005190433563, 0.45444049290780975, 0.4025050905036134, -0.09605013339201586, -0.2740177803309828, 0.004252357802281614, -0.018147107654270654, 0.22348327282570915, 0.2636790139671486, -0.4314491526208215, 0.5589619739530052, 0.09472906464300515, 0.25739636167006974, -0.2838562372572806, 0.12614578277092606, -0.8082348375064818, 0.5604384701115579, 0.7272761628460686, -0.8845591487135415, -0.1960756773480484, 0.11889824894510148, 0.13320662095548808, 0.3657978406788176, -0.8287490393213313, 0.4907885163790258, -0.5767461586419684, -1.2986102581483927, -0.20492794936481282, 0.21621407105449775, 0.3904426581309879, -0.23956779035747214, -0.7064099274067325, -0.5653939290953414, -0.4071828988432464, -0.7856226391814217, 0.1024489260278755, 0.20106237306555141, -0.12030544441943491, 0.481630403390275, 0.1764473138741872, -0.5716041051115632, -0.024635828629297557, 0.8978211561331129, 0.1165761247850351, 0.2716378058364367, 0.4072424833437861, 0.4309372591563513, -0.013322901388343578, -0.17026561708991428, -0.09608017014520154, 0.06063767990375657, -0.4866770488868487, -0.1736601082627457, 0.7047403910431633], [-0.453579851365588, -0.02775008746936991, -0.361698677494935, -0.43436669474211176, 0.28617816162616827, -0.42400227470672036, -0.39255830532463176, -0.29750282401236383, 0.0655829887135051, 0.10812892240940411, -0.1482394244092742, 0.4622762118942538, -0.1760127813551845, -0.10334628876853076, 0.644336050376221, -0.43738558342284706, 0.14753066706582108, -0.2990534033008546, -0.028219336215362687, 0.37484061445078015, -0.5074423644537085, 0.8690952125106691, 0.47450146045254704, 0.15185608841653375, -0.1789303265638249, -0.3581337799000754, 0.5933080551721986, 0.7735841464628348, 0.643708138912956, 0.2632775868368199, -0.3198736037183484, 0.006148677231571975, 0.3686892952125399, -0.5359293011735129, -0.07191492955392494, 0.20376378471848347, 0.09253698165340403, 0.6379437450302666, 0.13433297174705405, -0.17423860449635165, -0.12957262847901652, -0.2530934184164129, 0.29515493766938505, -0.4577001703750117, 0.15671713767870063, 0.9143536563677276, 0.30062249790141027, 0.3262222402278062, -0.17045515936596156, -0.22992636767125305, 0.5098524089131884, -0.5165474613072315, -0.4098344897296578, -0.6333470458962595, 0.10261241797704325, 0.33102488263290075, 0.07883185464651155, -0.4202173075238217, -0.17374664636319614, -0.3676053448221809, -0.4595688409929696, -0.36479228582354317, -0.2021739205700156, 0.0983770214494255, -0.2253951726043979], [-0.13869054503125178, -0.1808106370458371, -0.11862141245730795, -0.43136225649974824, -0.3951715012517498, 0.13925209828509422, -0.14526888665219406, 0.1727751165902076, -0.4022944391199924, -0.16259445251683752, -0.2164147705075655, 0.2303290880903223, 0.2530280673437923, 0.6146750218720004, -0.19628100051049222, 0.03467058442393567, -0.09236650848385164, 0.3124567136141374, -0.04194028900051641, -0.25890983468179607, -0.7663520690321959, 1.3364448383440237, 0.37740245436270997, 0.02696314341700423, 0.2708181182307188, 0.42160951736724006, 0.22163059318887873, 0.9167938189416902, 0.9193130919096971, 1.232983685509928, 0.16385193883761373, 0.11339713530829132, 0.06767049443555218, -0.2585178453373789, 0.3211237463417398, -0.3816875770267673, 0.3783549420929168, 1.5059834980539013, 0.0748533206731683, -0.008944784516536575, 0.46386855262468163, 0.5273647721629157, -0.2963555635268077, -0.5044446833472822, -0.3836367583744749, 0.4249883272835717, 0.11048856961358902, -0.22567323139320083, 0.11488406091075842, -0.195857798677753, -0.4213669552298652, -0.37146666488328883, -0.451776862161423, -0.7609557430399786, -1.2363912530670629, -0.40838456644776777, -0.07345369877764263, 0.30542492045561476, -0.0062597643585377005, -0.1689389024462915, -0.3767390089498355, 0.13536074561307498, 0.2874528084503475, 0.49716736491678637, -0.04340618835787522], [-0.04457436195343689, 0.09284218393922272, 0.2501180881762486, -0.12224868999460414, -0.18107478816755418, -0.08091390359597994, -0.11875660707187552, -0.10703009400784924, 0.3503541257302948, -0.027248880985495903, -0.09711734275079807, 0.02845764612689998, 0.1597241435709127, -0.1711572215590577, 0.6004553427861075, -0.22781533515785646, -0.04690142148071286, 0.11740081170915889, -0.36339247998748037, 0.6093283302519931, 0.28707532480438636, 0.37349586105773164, -0.07226177238471918, -0.3264139871320598, 0.14909918388138488, -0.45207295172892353, -0.35907634791927207, -0.0956987471153192, -0.4176305887849719, -0.7789977599317521, -0.08998583822928291, 0.2939767104033969, 0.3841438601081918, 0.11454016231015651, 0.1550370458171505, 0.18068354507636974, 0.5797545652507994, 0.8167256417799307, 0.0910007373064316, 0.1759430237295616, -0.40553490513915513, 0.3071189534126179, -0.5290266250762407, -0.5240417919550993, -0.6818490577473948, 1.2743984463067604, -0.31650430391095297, 0.16208056130517468, 0.13565324614121455, 0.16558776719647308, -0.27449040120835894, 1.2531324740208192, 1.5698230516825875, -0.558243547747797, 0.04356340713585217, 0.17687472824988043, -0.4989720436825309, 0.32684806809390454, -0.20569102336538936, 0.3716542488099519, -0.36172561719858, 0.310735929968329, 0.42808719981359244, -0.32551689192166977, -0.7625743524245714], [-0.091597368703483, 0.34218960912110163, 0.19572886973370252, -0.4155933149215256, -0.2190718896354582, 0.36106463144088463, -0.07409455872032855, -0.06827396513277473, -0.2532416438542664, 0.28482599141514514, 0.5890963541794085, 1.6498306922522368, 1.960497675605917, 0.8816489158679061, -0.5094091370176161, 0.20446522772037956, -0.1751481253599092, 0.3734766022319589, 0.17790091005657147, 0.10356810829809449, 0.7189326095271905, 0.7199620800019455, -0.6079357402972613, 0.2039202553380377, 0.2451074550880329, 0.34924456196431874, -1.277498404306494, 0.15658510875284382, 0.1259910135523231, -0.33282671403515957, -0.07729191179851735, -0.38269800500657125, -0.11667568571919362, -0.09477534703904038, -1.7118359417069768, 0.11503704439679197, -0.41745063989095166, 0.07565193781737178, 0.16559819286507757, 0.10759726041981954, 0.17270772832638348, -0.45528318119953437, -2.194905415983869, 0.37643993316404295, -0.3058533124717552, 1.2706737308330092, -0.36358711438172864, -0.28376398424472005, -0.36426157786862046, 0.4353367554287648, 0.01489393678326577, -1.531134124157906, -1.9714907672990836, -0.022492586694179577, 1.350540174845043, 0.5936426896220095, -0.3506979997131787, -0.06953562970620109, 0.36988625954526144, 0.4876711788468774, 0.226483924513863, -0.03402223114656011, 0.005258629698411288, 0.28199058678801614, -0.35948200370035294], [-0.4354886513147208, -0.1537545753948153, 0.2325365985297696, 0.30750429079738417, -0.2947702051696536, 0.07781864400928573, -0.23349384927217265, -0.06386171986281253, -0.12239948363892839, -0.3557188273588013, -0.5050798439670061, -0.3339529563416621, -0.8765645557237962, 0.22117601800768052, -0.22480373282007649, -0.03150953009009172, -0.48329553499558187, -0.23384041896093163, -0.27470923530123526, -0.06513060552727772, -0.5192150995264576, -0.5229203385387637, 0.547835909513138, 0.40709163139116333, 0.353342488225172, 0.3169803913265541, 1.0003925255491122, 0.16300268506363638, -0.9185102364509324, 0.12022546082828255, -0.269538479443435, 0.3484717294357731, 0.022683811833086542, 0.15574096657272032, 1.2573911667687103, -0.14799318669355857, 0.5571099468087436, -0.09565177997013706, -0.07272621004429748, 0.04339372580690082, 0.4886907559824162, -0.13624326020595168, 0.5582933909153684, -0.07401811469881278, -0.5831322880011652, -0.6806163805140911, -0.06369656162730873, 0.2749430436580119, 0.042323535970743564, -0.4285029244495228, 0.5689480878992731, 0.43062975021373145, -0.01648097070860071, -0.15612828807321275, -0.9885168929253229, -1.2927388348461322, -0.12074340667435923, -0.3583104025300551, 0.0744662844760533, 0.3063530244293071, 0.03582079486753309, -0.3201027629230888, -0.44706612192638473, 0.2179143805409055, 0.2775650379718602], [0.2596648061391178, 0.3629455388836381, -0.01584044508359339, -0.10446019508334281, -0.27207376122941906, -0.4088223529883591, -0.37558153075474043, -0.03977176432819429, 0.035666095751465954, -0.04030027334146768, -0.17275766451516553, 0.46757986217564296, 0.374977193182486, 0.8020796031462968, 0.5907621768159901, -0.3575623991622081, 0.38973324167757883, -0.3741383232330379, -0.4058626832095166, 0.45487037788294926, 0.30617892282804116, -0.2525430311991709, -0.1496807023705722, 0.37160441092955965, 0.07421092711031052, -0.1803368823845421, 0.1601678859199498, 0.7802187509442242, -0.06594842023614751, 0.3453433966638974, -0.18550454772586825, -0.021993833646090977, 0.38775004185851114, -0.18625923636941294, -0.498605147605045, 0.16657419479633928, 0.36883742259259383, 0.28898547409081876, -0.044640564347443276, -0.4069415693131706, -0.14152959926251962, 0.08786486680920379, -0.06801008081879187, 0.1799448109439904, 0.2670217851642976, 1.042509623227852, 0.4747166880699509, -0.24754862297680236, -0.12716746848255556, -0.01651719122263381, 0.17075929508410512, 0.9701563013705307, 0.9062055907222172, 0.8961328593225878, 0.06652358011145999, -0.45124930925139173, -0.02947829327123619, -0.3852396968966263, -0.2858470378101521, 0.28199480416244094, 0.16166512803907507, 0.33226706095760494, -0.2441892997516153, 0.3821387389496731, 0.02540499334293263], [0.33151299570932335, -0.17722746820080337, -0.29702719722992454, 0.22704873661023628, -0.4563342544817569, 0.17732479015163571, 0.422385724415858, 0.20465614402903165, -0.25601513005669796, -0.4176664579991172, -0.41672323967263086, -0.23968000092298217, 0.09453999289562692, 0.011407377819070256, 0.7232218831492105, -0.09840288621538307, 0.475317061432161, 0.2867778097465654, 0.5237706010507448, -0.07822805810646935, 0.2533921865103228, 0.14267126750951803, -0.12260002087782233, 0.35143712499608126, -0.29337758706012007, -0.047635115761558045, 1.0306848415673804, 1.1931022047042859, 0.420523033996325, 0.6125296892552061, 0.7854958506639889, -0.01675884613877432, -0.2770422218800035, -0.1407926763952279, -0.31867230131198415, 0.2911137866067791, 0.470482157585857, 0.38177403637091034, 0.04535002716303597, 0.3298717113492473, 0.3576602390557221, 0.43191523532140885, -0.2170162870969709, -0.9089007918499552, -0.865941895625766, -0.3054493131718286, 0.0857592396223788, -0.4419668220168891, -0.22689618823798574, 0.15162669470261111, 0.678358824762218, -0.4112699548247293, 0.3000102390314067, 0.30201976574219347, -0.7470802429675084, -0.9420583535467826, -0.10058651114039807, -0.3057427102919509, -0.4043444140696888, -0.026890334810644734, -0.019785631836237827, -0.4297329564758482, -0.18916443997820664, 0.1799835568511141, 0.2708297117425637], [0.3271335871650636, 0.038641655676804776, -0.25551013760338204, 0.4554436295697708, -0.03851610869303823, -0.3950076115854986, 0.23007272205250784, 0.010522717891329525, -0.26250092510365186, -0.5938899535306614, 1.1643944346950441, 1.0310001001385793, 1.374925331442011, 1.0782906398785206, -0.5623525664372981, 0.20344690813491673, -0.4695268195276153, -0.11328592696099768, 0.4305948830165261, -0.6930153554097566, -0.3966150071950264, 0.5549876877485329, 0.09803740882839455, 0.19008340997782647, -0.21710169673242297, 0.22717661147738255, -0.7497844585008507, 0.31471614273740867, -0.6721442709475274, -1.1833883959605447, -0.6416475245523775, -0.3841686296201683, -0.1364790879943658, -0.25765717216456696, 0.07871844988481148, 0.033930654729239354, -0.6458767159679805, -0.7491957873912568, -0.2705556610078008, 0.36641354463842857, 0.1943330541843069, 0.07641049676763058, -1.7106369205918004, 0.9198824069887712, 0.3869259936450711, 0.6360078704862099, -0.13508247362918208, -0.1534381451475647, 0.2339986781250425, -0.5232301592084571, -0.27020029418166935, -0.5449557605697527, -1.4255810696719922, -0.47703570425664754, 1.0464159811234508, 1.1207912749397886, -0.010871341075867735, -0.16371774334087852, -0.005584287664655019, 0.07137367859233079, 0.37956868275995737, -0.2244623577686664, -0.08844437775157654, 0.012570730762021087, -0.11451336010301665], [0.11697302261897669, -0.33108802851061037, -0.15243849481936678, -0.3155850124946358, -0.23391728855844485, 0.3893204073718204, -0.053199681624244266, 0.1152869228321407, -0.46821398854537466, -0.4076529748904457, 0.33848732443566565, -0.15301449448332605, -0.08500518170586267, 0.6059364441438976, -0.19101751191726168, 0.198536817800666, -0.24220372881465746, -0.18535270135897394, -0.6287579444044527, 0.3314348480785005, -0.5744943970011086, 0.20619345498449765, 0.465127326656303, -0.40709797509766854, 0.33325549460342063, 0.12222186698440278, 0.12846766864128506, 0.7680817313968856, 0.6108226211859391, 0.8314877111457261, -0.36869987591582826, 0.20661038110326368, -0.14870853420729713, -0.2894150807883741, 0.49596443914863353, -0.09552247529111198, 0.06412696174772319, 0.5996993731846075, -0.09010145291688618, 0.3495287228748106, -0.2910649906636067, 0.2821945265913638, -0.3763453885161116, 0.42373427657065327, -0.021443112802462118, 0.5383055949378145, -0.0810672651266445, 0.2751691506960776, 0.47925554158146155, 0.3224769434385043, 0.3989246707493132, -0.16250894672729008, -0.6141827074228605, -0.707903917310115, 0.2739813697366367, -0.17644286211911797, 0.4928983548426952, -0.2866467656601438, -0.2937344335937526, 0.1448464363331119, 0.2005078013464623, 0.23119684268406904, 0.15450796829398827, -0.03410686933512086, 0.4279888377967153], [0.22521882713759778, 0.0456774474281858, -0.36560802262254766, -0.1720613113760927, 0.3634750338020193, -0.4726715892871417, -0.06588677333988391, 0.12888210208307216, 0.4470485169226066, 0.44585860758819956, -0.55393063361082, 0.8547555519820735, 0.7932677860140773, -0.4091546376671495, -0.4747463827463549, -0.08468871789762744, 0.20210618369907452, 0.5428501635103354, 0.7947607139057191, -0.03872362305338884, -0.5604670460161261, 0.6610798106459492, 0.029033809869046658, 0.45659220283783575, -0.2965950422093683, 0.18444416613071865, 0.31067867989715564, -1.1163151947081764, -0.38378809837090216, -0.2941979665951341, -0.36353607259717896, 0.3421214409836565, 0.04013935011069103, 0.4334212409150099, 0.409335569708746, -0.19220161640123024, -0.8311745226310314, 0.09016196063978496, 0.1984329973270495, -0.3718165307725253, 0.3381618857167946, 0.25569269966864505, -0.03982381340446409, 0.2926909628523386, 0.15511748198201583, -0.21506595130849174, 0.18984249934385505, -0.2026039916865131, -0.362500271499273, -0.3414444720217659, 0.3235696379838044, 0.2636984922473563, 0.09039129243082168, 0.2968595101283763, -0.7320757663212766, -0.23479591912810913, -0.36852764771976665, 0.36572522985531186, 0.20223795418556878, -0.2030622838954349, -0.08523596110831322, -0.3373006421813328, 0.32570415039538725, -0.02515855730642058, 0.5098574441681659], [-0.24430391387962225, 0.2833859144967732, 0.2367014394364778, -0.19387243995926617, 0.22393951387800626, -0.13662038283300226, -0.36091471264678365, -0.2876192662963396, 0.2509392045388924, 0.2821824549064292, -0.13404750552031147, 0.23049170907668998, 0.9700686562355472, -0.2672814347433641, -0.2518213236359888, -0.4838998638666966, 0.3709126001935522, -0.2980030380443515, 0.004431226471179937, -0.4663329194814642, 0.42215893813045957, 0.891971260604616, -0.10539397462655054, -0.49934918164278186, -0.35915060302987234, -0.17481004621615764, -1.1625744501364406, 0.12003759079159916, 0.05635714358222128, 0.2717530167762498, 0.09739783058040576, -0.17116689190804346, -0.06131710093890452, 0.2318657145700978, -0.1442995144906138, -0.004035728939764592, 0.06783013732817952, -0.9052365655056889, -0.10627805940677623, 0.283356870473947, -0.34694794837895104, 0.0450927077508651, 0.21971430234624756, -0.42683836413977494, -0.38529079278898765, 0.5748509931950315, -0.34873905228539703, -0.1627894508926062, 0.21287783047305953, -0.12522100035447958, 0.17767928093306545, -0.9041788334243169, -1.0241428230349603, 0.011810275529224631, 0.13160951597283532, 0.8942295428639829, -0.17022913387871186, 0.01579894058257647, 0.369806140623656, -0.18979365123000247, 0.12676789566756874, -0.030408999575093132, 0.10909659181081088, 0.27377466112942017, -0.015617560857799175], [0.23133645170076023, 0.342563314011442, 0.49558814110774996, -0.29494892175301324, 0.4110430647723763, -0.23646919828435042, 0.4187924715293747, -0.3982743990413995, -0.24044434067899545, -0.37958534535480065, 0.3902906308184178, -0.2594197982093696, 0.20039696012670588, -0.1948415130545759, 0.026469756050513084, -0.23435070688370718, 0.21850168423726923, -0.0946461835920259, 0.8324443523752622, 0.5667960738926435, -0.05023707034846113, -1.1468077636062224, 0.44516018315316813, 0.10594437035163029, -0.21114715974171605, 0.2038934102137364, 0.7657508946200448, -0.030804397268295605, -0.1285553202951428, -0.22783823331910388, 0.4528939389554259, 0.05543689234832416, -0.2788653717344478, 0.020666472784107017, -0.43980900520802296, -0.11607003149793393, 1.074617288626044, 0.1049316701087734, 0.41947600371220145, -0.34623756512977555, -0.47086964703141654, 0.2784981785175217, -0.11211964908409355, -0.6240720875222074, -0.48063225943591054, 0.01334953506799075, -0.29443661954573014, 0.47351927622017, 0.13231498995275082, -0.08099696089805458, 0.08250142628963324, 0.5659927974011045, 0.6566539531922498, -0.1092271391665613, -0.3346783999356041, -0.021455359266027024, 0.4059189772199754, -0.0941496925459353, 0.25664433026457634, 0.42918838687799443, -0.3056722390708323, -0.1270283016523327, 0.4552826460707845, 0.4811515119515626, 0.03775144875460208], [-0.41379555062870743, -0.053165840202898496, 0.1358860951903369, 0.42528980186757837, 0.008080368141575645, -0.3815601007987923, 0.46497144324636597, 0.40063888059636044, -0.4281465214840817, -0.1792004541390685, -0.6129873898643312, 0.6884494318255141, 0.6622598147812591, 0.38884108252120286, 0.02895366360237704, -0.2640872010956087, 0.19596107268643603, -0.17248614741206633, 0.952732640440648, -0.14694980761850351, 0.6238400576197166, -0.2785682227856648, -0.25477918128880767, -0.23633935699974185, -0.33294967189830615, 0.3558736297225736, 0.7418245968221967, -0.21019047225833765, 0.509850014427468, 0.05110304239286374, 0.5068757364645402, 0.05607565584896157, 0.23103436257774745, -0.2822376154856053, -0.03315053762453423, 0.3393141942547668, 0.8069370912172302, 0.8064950452400885, 0.5004430202164633, -0.01269286904682898, -0.047676849054074655, -0.15475389884074245, 0.4605187641259051, -0.19422858676889249, -0.49595095611342616, 0.32106580597117745, 0.19636435220639276, 0.07000233590275795, 0.1519954068751863, -0.08513265749761259, -0.244088381897973, -0.6124140720796445, -0.09768696091475275, -0.20373847415813065, -0.5138421052466249, -0.47974236128819975, 0.4747065154179432, 0.09768459699705123, 0.11404201783354129, 0.3188328411509953, 0.2374441640567947, -0.3880882112431876, 0.24338074413552735, 0.22046962940759773, -0.692278454344401], [-0.36754592770913785, 0.3923860623065577, -0.2186955405820783, -0.2204294406823557, 0.3782647113212694, 0.0026301600566125405, 0.4871268807200473, -0.2156397869885831, 0.43621666962287997, 0.11788456464068857, 0.26815773790923714, 0.055069592686653276, 0.1169327927908349, 0.7468238860397634, 0.3040077452970912, 0.21090533464863637, 0.24195092095888693, -0.5234845772201693, 0.1587342764061267, -0.30939937185211763, -0.20230349598893313, 0.2758757441406237, 0.23950964490749246, 0.214555811153611, 0.18328269360612837, -0.22175633039329276, 0.01719710571849227, -0.020049399822031338, -0.022315936846047744, -0.415122507935545, -0.343964972023672, 0.48144769511614693, 0.1495165217087775, 0.1412172788740437, -0.14601270235401181, 0.4122689759024256, 0.17280321500680107, 0.121181803228156, -0.34363768549712753, -0.3584108920828991, -0.4349398656789072, 0.37883329094738905, 0.6353604692832501, 0.2921051516460546, 0.5514984133337861, 0.1632872259127567, -0.28612699370541456, -0.35846295046822996, -0.10328167184498116, -0.26082080148950293, 0.5841866042934583, 0.021441208217624446, 0.43161316856651105, 0.8005240050809675, 0.30676263159645667, -0.4054443512463499, -0.2825713625459335, 0.011069195801544418, 0.2806289916446505, -0.39896846053331225, -0.06606994446258208, 0.050000136719622224, 0.13288039264664298, -0.2518968838900896, -0.2398706868979953], [0.4305094125205573, 0.36464463075013376, -0.4355301860009765, -0.32911162464624877, -0.3971549175971576, -0.10122306023613925, -0.12388640187427435, 0.2044930499711919, -0.013395260048470692, 0.3876857009310677, 0.26788449571546913, 0.8740391774103387, 0.17160187629076903, -0.14710199134393026, 0.10379647307261095, 0.019851843189089724, -0.2913709187543335, -0.14127054098549488, 0.3195357878901154, -0.27549368506797145, -0.026559211603473416, -0.024171498017890685, 0.24660699425597582, 0.18195843524004107, -0.31876520955515386, -0.18938347491048055, 0.47558264747675566, -0.4080101122648951, -0.11171190169808125, 0.17431517499357266, -0.4618680207833659, 0.4090557377380415, -0.06997482968007318, 0.17576441124181932, 0.17627089456638995, 0.3525815659034046, -0.3583655871346578, 0.6415064384211461, 0.43172272017585617, 0.08832109652645359, -0.44057779774849626, -0.0831410675271038, 0.7876710072702208, -0.44359668501072036, -0.6606395997136719, 0.11472940824846838, -0.14016616252723513, 0.20909494062717937, -0.3764839955678244, -0.0761673943872542, -0.14166861816849255, 0.2637429435481415, 0.544167242996676, 0.7140330176810563, 0.3473599136258973, -0.052908500808262655, 0.10837840121421438, 0.37866913946763414, 0.3871594949600329, -0.41264869425331274, -0.20416088439732616, -0.18620041740484716, 0.16270175464671777, -0.1068823683065826, -0.4122787213890636], [-0.45681672155067254, 0.43363610045223144, -0.34281907472487494, 0.04198487658589867, -0.4965151316576122, 0.20569935230955094, -0.06671852995856742, 0.3437424134809389, -0.2422613733736283, 0.1443501004594986, 0.06131889487245298, 0.6447284107932436, 0.7393615699023206, -0.0507374654965824, 0.22240480962301845, -0.07396592127008228, -0.27094922717286574, 0.45753517403048793, 0.2339665282044667, -0.3514050178250511, 0.3395016571582635, -0.7273886019736953, -0.09454332086357446, -0.036672120672996966, -0.2922075343134528, 0.5760620087930559, -0.3964103426432037, 0.28637160070615736, 1.0601259442970012, -0.2552153714673893, -0.14888154521285044, -0.06460160796510994, -0.31926214000320363, 0.5038894967328855, -0.2552569806845008, -0.12343308553827784, -0.3464231428105044, -1.0023352115560369, 0.27570493228104737, -0.16963243587659738, -0.3913738791707798, 0.22381704394622434, -0.20811859653849943, -0.306969840010111, 0.24593712496815087, -0.25044537282946655, 0.00461673002513109, 0.417096706805267, 0.4523440345596196, 0.6073722327202927, 0.6587435681147035, 0.08092518541757557, 0.05400034088773469, 0.3735347925638831, 0.8584702484016111, 0.6598756769275138, 0.4187657134151537, -0.35838641473297317, -0.004127706663081043, 0.4005128683695688, -0.031087343864483086, -0.10329434114129443, -0.13025275776883738, -0.418033227369652, 0.29985355317199297], [-0.45569022291192285, 0.4194507652924142, -0.23518089618947613, 0.34080025502412103, 0.06727181407755467, -0.35355516675609544, 0.24221815509492672, -0.012859212275907805, -0.13894706976715943, 0.1515101763008094, -0.53200713773347, 1.0904459593503355, 1.3647512273465816, 0.18505705082054097, -0.5842849030731656, 0.4932184215344745, 0.20824202383379564, -0.18874054814500302, 0.35060895253274804, -0.3895315391788438, 0.0017355658161126413, 1.9918242393650407, -0.4380910537860588, 0.051663456089037774, 0.12761772074443578, -0.343211831860193, -1.2356785133389367, 0.685730120577653, 0.6730934592267767, 0.07496110832214523, -0.5783929594793243, 0.12920089557432302, -0.3610168767393106, 0.4463168510006762, -1.2805300756965003, -0.04068482474713907, -0.2743181639389572, 0.6795291628188131, -0.4551330240642523, 0.1552376110110092, -0.4309969260303551, -0.22266518943663507, -1.7764499611949156, 0.1248898961627328, -0.0974276080476584, 0.8778902136499346, 0.27017838746699646, -0.06975489356597209, 0.43072277618949906, 0.18050298300758966, -1.0181693062629449, -0.49770549853346197, -0.3932851600650973, -0.5352086464999509, 0.7625701893329453, 1.0505632853630527, 0.35379666036997015, 0.46758791489650275, -0.15340020588699743, 0.23595944528096902, -0.3341107271358834, 0.18643395482739167, -0.05172979381067899, -0.48238674354879063, -0.4188551304896175], [0.46883931326134254, 0.32175699638572797, 0.3045579878723671, -0.23751740313466685, 0.40167631516230073, -0.1670562434131342, 0.36500616104573913, 0.3146099704959139, -0.07291179404749937, -0.4410174574367595, 0.4110928033410242, 0.19828055091062685, 0.3861935254584946, 0.03259692743941156, -0.5225509031000019, 0.00954283752831353, -0.13468997513168546, -0.11358388273657839, 0.29504337692264676, -0.8060064996637399, 0.2548558407748126, 1.4150583132659507, -0.06341990617082906, 0.36079517985030507, 0.02237046278242627, 0.19670077115054466, -0.03218797734094232, -0.8757725842120397, -0.6496056366184625, -0.386650853579784, 0.3395611215291883, 0.014059637192082475, -0.36453595479208634, 0.2548780374234645, -0.0492150598087558, -0.05819539475702784, 0.01849440407328755, 0.5066010643978813, -0.3889628194465142, 0.46456302950924155, -0.3799780139651693, -0.5562501304131133, -0.3547549992582667, 0.5389566802836926, 0.034299915418864506, 0.22579973671112838, -0.030422176700781033, 0.368181738651422, -0.49734684899565285, -0.26317963024946506, 0.43092689845873083, 0.2104005802947947, -0.8752622023970363, -0.07426806572264194, 0.33131769782959747, 0.4629587309519047, -0.22542687618012802, -0.22370029300440764, 0.41481030040590927, 0.400235726909001, 0.39835040658105914, -0.4692182407699864, -0.4561259335754959, 0.12073839445056667, 0.12040152424194261], [0.1325498750232621, -0.45669936707643843, 0.013176706535180882, 0.2088659969063864, -0.3814684954533275, 0.4611545766462528, -0.18721614968880718, 0.20131254679259447, 0.11056574121758089, -0.5844654370356221, 0.43602193210729295, -0.04224344292015967, -0.2129696904602689, 0.5516682388004073, 0.30107883497828014, -0.438172957397329, -0.15159627102131423, 0.10018064120481153, -0.12994474600388908, 0.22678061389370208, 0.052722444014480264, -0.46885440047944704, -0.2554669412555407, -0.40142401423657037, 0.48543020340990994, -0.4473127425934795, 0.8681985206373977, 0.06349320137430571, -0.4363140523840095, 0.24703194591332592, 0.4090408451567055, -0.03142213249167225, -0.3989346503589791, -0.011644351303910123, -0.02557759674996925, -0.18402725485668694, 0.5847953964689515, -0.14123161615878219, -0.3582614561954331, 0.35165319303107356, 0.40951888772267453, 0.36305133294105313, 0.2399856210798619, -0.4477616445541772, 0.060612094420361744, 0.0004617000993297046, 0.3458022352388252, 0.44818417003541056, -0.16770153273981447, -0.5706213303760934, -0.2357152482136847, 0.4085555308836561, 0.48445280472359714, -0.4657129829992607, -0.2747469787159032, 0.36968775397533327, -0.2008633425252604, -0.27150095289337584, 0.0379457174901312, 0.4572401796564056, -0.10329453602428351, 0.0669478412992619, -0.1169826823047575, -0.33162376176781916, -0.25497528830371213], [-0.18533405663102542, 0.21395343659569277, 0.23771369673316833, 0.04161042857689101, 0.1436637970114143, -0.1348533184236953, -0.40975852585534933, 0.0740159033227652, -0.037656180910125125, 0.2308294777574436, 0.0827978097210995, 0.9544604103758054, 0.8358782589948666, -0.4504493141004093, -0.43102658244122116, 0.32704946446874217, 0.48884479699087935, -0.1586225031333846, 0.9842657563548013, -0.05242030559165916, -0.3322333338937849, -0.030333699149209532, 0.26777824394225314, -0.04686991844790689, 0.06595442148182096, -0.06443990137415401, 0.31595184535329496, -0.8106073224797965, 0.16307525624311503, 0.18820330463284637, 0.2698589330302109, -0.31709017670221407, 0.20039372856518145, 0.13669897855836766, -0.10743319285547988, 0.6149678325560857, -0.47955516603146764, 0.4638970035577634, -0.531955496261896, 0.38596810827017203, -0.26727411790019906, -0.47014365541984293, 0.2462007658943526, 0.537975588061039, 0.4275238024434894, -0.42867764764028105, 0.3036628711844531, 0.1949160690158911, -0.03647946060453089, 0.35271646779640803, 0.2521379252386521, -0.6228681145021159, -0.00043527045316195655, -0.10038284424300599, 0.3667806489602549, 0.0959694389287498, 0.1537187131590414, 0.21888320558249474, 0.3766291293754723, 0.45265176642366467, -0.24374627005536098, 0.2963357031276893, -0.12349649425492282, -0.027289425445919946, -0.14726271502203522], [-0.30913330908630776, -0.2533242378547321, 0.33901849701371467, 0.4342712141036916, -0.09628733764841324, 0.361453458302771, 0.2942065291112972, -0.07740762573720383, -0.2947834576712659, -0.43459339489198334, 0.10959657838652512, -0.42252988682991466, 0.06930570670382484, 0.09222578027826066, -0.3564267841248569, 0.16418313762122372, 0.13543792466984517, -0.08893920386823935, 0.6301448532276345, -0.15027778737856978, -0.2280447588975044, 0.23042152069977298, 0.023471104091998776, 0.2916408201673245, -0.011551736718896977, -0.0023124370443361056, 0.4144308588338161, 0.25346157896114496, -0.17609494997293865, 0.6436356911691002, -0.1291557646331006, 0.1613410043353548, 0.40223558444534147, 0.06640688171973913, 0.3529733613452581, 0.23981307341793873, -0.10545959011158973, -0.3958160957200438, -0.3706655200351593, -0.1515934827237484, 0.41412275799719844, 0.29388684703998713, 0.48576458812341705, 0.28968607223498527, -0.017633041578740686, 0.5249226004715642, 0.2812725215655405, 0.37640484467933677, -0.4510107342123135, 0.4328503095139207, 0.3014497059573789, 0.6241672175971119, 0.06035479613724149, -0.022786661401321136, 0.12207277574853251, 0.3012878870369046, -0.14199096471487538, -0.28639782282842496, -0.016510708574484667, 0.0869038810071282, -0.34643033763411024, 0.23314020296289983, 0.3378171444768392, 0.18423158094918202, 0.6132733940174916], [-0.1376828907323836, -0.4115067966916436, 0.31339640171132044, 0.22274394559917, 0.33003054596544135, 0.4121398710603902, 0.3131897472018602, -0.32322874298864923, -0.23639914105122917, -0.12207387896140154, 1.1497121766269234, -0.7249130173546326, 0.09153370182635648, 0.9032997121535872, 0.13016653697149796, 0.04179437502616479, 0.1398217014953902, -0.17822888707434645, -0.2869207624905945, 0.04527880932449748, -0.08611916455367712, 0.5423359785022736, -0.21958366436271243, 0.07825724091416741, -0.11169070589206553, 0.1726828897005273, -0.3266844301090268, 0.257373812943194, -0.1663983939915072, -0.42023858192822516, 0.24679834636756523, 0.24667995496183304, 0.18027275253424435, 0.21072030666015676, -0.34920325533270835, -0.46718760815089566, -0.7775577722437843, 0.3377204842691076, -0.4272966243484071, -0.16721121521680038, 0.25689778104318983, -0.3093347714453319, -0.31405012698562546, 0.04681746839104249, -0.14990576638430075, 1.1925814045756407, -0.2962902862594342, 0.2954298064339387, -0.06751264535230928, -0.1589370410501306, -0.33416214067590844, 0.7523775004784482, 0.7386852579573462, 0.5437732285532113, 0.08337715387571124, -0.005522216428068034, -0.001487739639273955, -0.22050797999822813, -0.43767409158437276, 0.20133166275026648, 0.448618885687867, 0.458144711834383, -0.40956184125834794, 0.24447841919338054, 0.11862745188972502], [0.02285828924441069, 0.050993161320981306, -0.42884319310581354, 0.41398409934671676, 0.26581073657156196, -0.2712937988075712, -0.18971794301241918, -0.4612640940994277, 0.3477011662259828, -0.3061768620496793, -0.05653720434181071, 0.7644976413895963, 0.3931681205413446, 0.08665015404419055, -0.14197619570309994, 0.2101302375321813, 0.11202552481609929, 0.16917052765294976, 0.423386817649575, -0.2852747578658764, -0.2387947471087362, 0.18487829194479138, -0.3965331043906656, 0.013984649987731301, 0.35530488612139, -0.41313763348935184, 0.2685921924430807, 0.3856028177600483, 0.12964990182019004, 0.7024118223132669, -0.04023640722005762, -0.3859443640990403, -0.13632277427667905, 0.1941895249932556, 0.1606569425474645, -0.4578627637324637, 0.1757066972510518, 0.4067374130916104, 0.22069323844108943, 0.4665101208910212, 0.09061032726886464, -0.08166727619839471, 0.05251054949671563, -0.6738853532993874, -1.0268909565731783, 0.6905603108318646, 0.2317062041618638, -0.07899808453945323, 0.07385631655784453, -0.08268180866273288, 0.8071483815227292, 0.014439046046544796, 0.2685787305955261, -0.04005888888431163, -0.06530986287600613, -0.3515503787870887, 0.27682242701773163, -0.17960181816529297, 0.1773073102268411, 0.12345057213078547, 0.12796636410668782, 0.22820912151083372, 0.02589444561050558, -0.3848191444777618, -0.4821258854692552], [0.15942592182865145, 0.1931116281057823, 0.32163802293898236, -0.0394418595010978, -0.3717692060717229, -0.26720763865947417, -0.32606207535933684, 0.19382494960815622, -0.48484287953388716, 0.6909999129193054, 0.5069538371794944, 0.17496421210863805, 0.02155916015979843, -0.48280821764820975, 0.5136547503915363, 0.3074968495724457, 0.13016825489547457, 0.25325090880449463, 0.8482931518066978, -0.21473819225378998, -0.2216902009565475, -0.4977190084867178, -0.27366915386882357, -0.12331034436819499, -0.15984369839535417, -0.3685042067065025, 0.1497749032358311, 0.5181005213275222, 0.0017539583430887934, -1.2013625878970302, -0.036675215547512276, -0.09970611989637812, 0.41753840751486293, -0.13286400123468012, -0.6914655875227346, 0.3245692959424228, -0.46846195226429355, -0.356317296719831, -0.009705007782657102, -0.4742571157533473, -0.47097699905006607, -0.333255781286963, -0.9270863049132616, -0.41628497415587695, -0.5786372198816854, 0.1501037752420552, -0.427059908699104, -0.13030504947220478, -0.03993753305446124, -0.06058491321813098, 0.09113405994970662, -0.6136152857852238, -0.6716705752310661, 0.760972299710277, -0.16990968529207623, -0.19910958241010834, 0.3445517136956837, -0.2913479536143596, -0.0011695312726436313, 0.011465586894698232, 0.1465873135364525, -0.16178785986269173, 0.3731562922724614, -0.17064027999727915, 0.230285241450569], [-0.28946348807579836, 0.30722451430185427, -0.08157001988226265, 0.1977538866357753, -0.40070849880290904, 0.10671225638594561, 0.016888091265418792, 0.10950000277709815, -0.32182620129136885, 0.1922691366836859, -0.591230122859355, 0.18109343357896956, 0.8378154742952989, 1.1713978074019058, 0.5792451122361071, -0.22797678352483985, 0.024820506335266224, -0.587706849698911, -0.6815815880631312, -0.12967834745591136, -0.19481877316248455, 0.6643488538564771, 0.42608264342577523, 0.4502851729297356, 0.04016671966362495, -0.4391066079540961, -0.44840499459511873, 1.0563648949870295, 0.5126352339742056, 0.5403622616063437, 0.6021370539588584, 0.4097864818889805, -0.48685174372128104, 0.31376261365398667, -0.050772548409927946, -0.5262079251693148, 0.10636337519896472, 0.2357948368338005, 0.36929273903239096, -0.28596486052623726, -0.45669885048035797, 0.09523928793443699, 0.5116925942438215, -0.8250895327907123, -0.48820059375348224, 0.281084591828153, 0.2758942033806728, 0.2578731343098385, 0.07958137128211662, -0.21573738647682125, 0.6557636335295247, -0.02281708589116703, 0.4310267017214534, -0.03300442888021933, -0.43677474497285695, -1.1098189575280215, 0.20509900422632898, 0.08402406488628278, -0.22190630781769782, -0.31189152706895584, -0.22841112373686845, 0.07232802183188702, 0.2995213147047532, 0.4527094817159547, -0.6074400722952243], [0.34070905366334214, 0.45198124987463184, -0.3718550534312336, -0.05475574590108956, -0.18829830729050656, 0.2840054475439129, -0.12205716470931549, -0.035566177081461814, 0.01954665179982351, -0.029045355768018175, 0.40845155341389755, 0.38617172125478344, -0.025070797084232953, 0.2599983244380319, -0.5251200817169718, 0.32481825524836205, 0.45673032022933446, -0.36134292300051374, 0.02010892139627944, 0.00421435309158547, 0.08564002222909128, 1.208257128377341, -0.21722637018409469, -0.4108146561693362, -0.11988837654849238, -0.439897066076233, -0.23837097745335944, -0.725766913022467, -0.34873899426538757, -0.7989472815779785, 0.3327340164139666, 0.1036493162288582, 0.49152144925647634, 0.1053376558927054, 0.8169468511132849, 0.13195866847981574, 0.4092426239049263, 0.09906714240425205, -0.6062146459013948, 0.3257017937049078, -0.1774623866519467, -0.40310149954757235, 0.19404576952522534, 0.4012859809951765, 0.728266488687647, 1.1341429173583744, -0.4095885981716624, 0.3842633763718575, -0.3404740367411533, 0.2781122164606424, -0.4956074530129047, 0.4750245143682051, 0.3439586590132143, 1.479939082778697, 0.45503975840856203, -0.10503412874879527, 0.18650163188608437, 0.007281276621971533, -0.30856120494423533, 0.39320915870887774, -0.1741144110228543, -0.46879400469221066, -0.2856987509700939, 0.32298388542292344, -0.31811185157553123], [0.1937579052938836, -0.3418196528042815, -0.23979309315790798, 0.2688357737352677, -0.28239476042391165, -0.1709521643694656, 0.41688882122942417, -0.2734701911730171, -0.22774801784560705, -0.41617160647282164, 0.15448211979065718, 0.9360111195623756, 0.9420120202438419, 0.7178093255315015, -0.39683365069492266, -0.3016212309328751, -0.2426418743352624, -0.0839954220568202, 0.35418040308293514, 0.11890323360666398, 0.3387189220632034, 0.11852695348580025, 0.4258150479131477, 0.3382219081718455, 0.4846554622834979, 0.3653440527843698, -0.005411138282290956, -0.3836908633086109, -0.24177747225284096, 0.11753471013488251, 0.08875942329669084, -0.06210669123509638, 0.2746738101517866, -0.5389647279525528, 0.3274902628240484, -0.48931783516093713, -0.1105674395896736, 1.2185053048136099, -0.36177793966488125, -0.39109665905209745, -0.3970963436599735, -0.5476274699041758, 0.3558234580656781, 0.5227448689649858, -0.615722630122705, 1.1405633647735416, 0.07944550917908666, -0.45088203905058766, -0.4250448240679021, -0.41008946602949786, 0.41526179059080465, -1.166569759421779, -1.3380353336209543, -0.9744452810054547, -0.7494692375500692, -0.5014915581916095, -0.4549299253356235, -0.12464158105379475, -0.11184425778280749, 0.2530987174153978, -0.008396513297751818, 0.32942859814755165, 0.41070836607987926, -0.29102464783877224, -0.22528661153201426], [0.26627160495421476, 0.36099765573576337, 0.4845982535279759, 0.3697817785917433, 0.025617102399628888, 0.3370106097580323, -0.12034055309598712, -0.1688901174518489, 0.13917801459420842, -0.3041006864595638, 0.6574347119965863, 0.7111007223750235, -0.012533330341887522, 0.2962971321522375, -0.5487228101867757, 0.20108554049128646, 0.052608177791524935, 0.33520445909893365, -0.05627796498281572, 0.2925753435655014, 0.334105619055608, 0.111091735291778, -0.613282349560972, 0.20452445097910166, 0.3669001743484167, -0.480270635879477, 0.05816727969745458, 0.2780517679997044, -0.2793227667561792, 0.0024977240600747757, 0.2999387189622188, 0.2446578811118365, -0.12546534010537957, -0.04847314836219315, -0.05177452824267154, -0.40289537703381495, 0.09052592935181027, 0.3528489262098639, -0.5356113748368806, 0.37628593593240434, -0.00402924080307876, 0.22521337575849365, 0.31126522572664156, 0.46875388961230596, 0.03657100266442168, 0.5027253278419809, -0.6600216233811156, -0.15399833162384868, 0.13066794261397408, 0.49610556031900166, -0.03505556117462575, 0.22866421100969864, -0.11553677324764833, 0.6386227853791857, 0.4146059752285531, -0.18451004354440761, 0.24298049790298692, 0.13711864744247915, 0.4656929671659792, 0.06701710692786034, 0.03264236545875965, 0.45828026647112086, -0.48941159675639323, -0.08744931720374105, -0.15859009555462816], [0.21778365338237704, 0.06285686420076853, 0.4904252839865627, -0.1871274909171704, 0.3293433622117098, -0.2775076423348847, 0.4049517717859201, -0.3552194509442336, 0.38864660425321607, 0.14319145894895577, -0.09405790303733623, -0.517422626643812, 0.2896164692832731, -0.968483572218651, -0.1635345868270454, 0.30951791891196156, -0.39787995891307415, 0.16558938805721976, 0.2654598216534431, 0.6342530359792481, 0.100341381247778, -0.38000726399031104, 0.2056892180643747, -0.08034406746727007, -0.4047686165490715, 0.27367773585539584, -0.11108654431172653, -0.4245151652419037, -0.234647965806106, 0.5307642198050495, -0.13701311711583716, 0.13762057642924497, 0.3927888855772198, -0.003239007677773051, 1.1619288105501375, 0.3415350139882115, 0.23180917142640048, 0.3399443254789372, -0.229284708789434, -0.1415660667454437, -0.08200693975715934, -0.056211978523969815, -0.3565973794568268, -0.4848155576614026, -0.21047530802756204, 0.2758445881781157, 0.4689273659420287, -0.31554516203051974, 0.2694267770415123, 0.15353693652528463, 0.16297801496745237, 1.2319059144931366, 0.5620384344909247, -0.7957608888534073, -0.7706432914567392, -0.4143674981498057, 0.15873397213286877, 0.0059673400496995654, -0.2544164234456917, -0.20849265860962785, -0.22188766365393997, 0.07146639393582588, -0.13462934449999042, -0.4431042525854456, -0.1397849365417008], [-0.4433609095198804, 0.2655396897228002, -0.2143766835342391, 0.0867564020333399, -0.24644257227916444, 0.19739458276532595, 0.42589701644425193, 0.4821724139170993, -0.23536834985713928, 0.1152030495402485, -0.005898566434011031, -0.36338367278332245, -0.6422508307029732, 0.14885561018590895, -0.5218419145656482, 0.42802757004114333, 0.4872104252268298, -0.2849896805603943, 1.327480553108819, 0.20836929518126954, 0.15584290433684664, 0.25133632997424593, -0.056936269000927714, 0.3388540604100433, -0.15494122189642956, -0.13545397246805502, -0.7260481671629844, -0.9808151982076243, -1.5620433647462746, -1.0753700027289632, -0.4424064059205302, 0.4557893936208425, -0.03693668175017384, 0.08275130836717175, 1.1217586668275832, -0.3053306890636681, -0.43755359228313756, 0.9701913670094381, 0.12194501498429468, -0.487917077193479, -0.20199990692962688, 0.009183875909657227, 1.0927462058236441, 0.16634132793974413, 0.10952598159508475, 1.3615563502907186, -0.1700088064284976, 0.15452390378281233, 0.2494442805465492, 0.0325659993288059, -0.12153786889058336, 0.6232166804543117, 0.3058603898798171, 1.0118079935266253, -0.37297967707770613, 0.17796969513375976, 0.4706989257518738, -0.1479090255985851, -0.06891321794308736, -0.30684872339831315, 0.4621185721313249, -0.09039527713861573, 0.41776739047817135, -0.3371823286422936, -0.6713376685894212], [0.31054564111748917, -0.47157515928768123, -0.1629922101433664, -0.40675519765019397, -0.21512109266823998, -0.3900122063383784, -0.3824402538522794, 0.06129193016436196, 0.3437287070138141, -0.10182578404959852, 0.06161907366042598, -0.24921241043630152, -0.7969447347518074, -1.005492893549139, 0.9454687309571909, -0.10170529710354714, -0.06575864223905081, -0.31510695636771513, -0.13349427241430395, 0.7162462267583771, -0.31802128517860934, -1.569981304777179, 0.581986866540405, 0.399696599282522, -0.16635279239202638, -0.18229661160912583, 0.6613042806665536, 0.2967811678920797, 0.7878257843115813, 0.7087478573664978, 0.7786011693977334, -0.028907454707182145, -0.28986620718291123, 0.33889564491063967, -0.6234341718228886, -0.3667784045170207, -0.0374983672810498, 0.8431731323583689, 0.6218154679286597, -0.1038233305236076, -0.29670431582796497, 0.19344524424963502, 1.2471847582062794, -1.0816145735051732, -0.4297723813226624, -0.5177072133017926, 0.47608356826347453, -0.3686816596385214, -0.4701115461383102, -0.26259905883574414, 0.2706563297570106, 0.2960921178882123, 1.0467675746662093, 0.8473252762299129, -1.2101005134537313, -0.5249973860482904, 0.19548856664319914, -0.09584036881033142, -0.10110365413329025, -0.3855515233889294, 0.44503739706439205, 0.12218899830482766, 0.46261893935513076, 0.3374680669467288, 0.5551775231227466], [0.12704863002083888, 0.2810495520700018, 0.20927072452538065, 0.02550133476898131, 0.46654432396011036, 0.09668992227658135, -0.3252354822625122, 0.10575171334931943, 0.30586887440606525, -0.24764462094825027, -0.4985338958999669, 0.16508365926858323, -0.5714469305407525, -0.5915892424100883, -0.16511299074326946, -0.14534190697663463, 0.015273548296139028, -0.415500912328984, 0.07750086496517505, 0.43669117478846065, -0.6986616962051433, 1.0579331829513323, 0.022694848284843184, 0.06416399107503834, -0.468810889074773, 0.3078306722712656, 0.5599510595453046, 0.595083009826232, 0.537940611956588, -0.36974208706211836, 0.11359108116434978, 0.13101497510829696, 0.3197886611184615, 0.3433660709160775, 0.11572095421131, 0.4265691031234758, -0.18520463362805756, -0.09771720166096334, 0.025401561841827146, 0.4225006453713187, -0.0996593063690423, 0.4239783917375922, -0.5013847701415922, 0.08585106055411734, -0.1127764429453375, 0.03006060140698257, 0.1556452758998604, -0.04268741415171318, -0.4145976560159784, -0.297012622171495, 0.6591523356067847, -0.016609432650180066, 0.051980026192606776, -0.8796210740609238, -0.7165616003636108, 0.3601702914174317, -0.4501970654713986, 0.05126924205018013, 0.1396183101726869, -0.0010854761528874546, -0.05863702073238519, 0.3034423515011029, -0.10713841803886226, -0.06507186863605519, 0.3677812723751495], [0.4319117941571714, -0.09243875945791968, -0.3279458466060634, 0.3762152083640464, 0.15937061124965968, 0.333685899081809, -0.22726003206029677, 0.04639166923679583, 0.3490779911780383, 0.33746421081014794, 0.3472741423162065, 0.46831111204395914, 0.24327862019936577, -1.315922001613814, -0.22958588319288067, -0.2353407351835617, 0.08513031962090933, 0.27538290809547156, 0.2023609083902794, -0.019365564321337455, -0.2069874014135944, -0.2562076730802483, -0.3608413857889663, 0.2501587697960873, 0.1891317655890007, 0.48405467084895143, -0.5407262678034396, -0.13753423527384606, 1.5797209865225215, 0.7720893589508113, 0.05311923725951386, 0.45694972571331427, 0.062363797701907586, 0.3631668254590095, 0.5927826281918419, 0.5872736466826417, 0.2518523226406636, -0.20780760338433413, 0.20969577697957467, -0.35883730978210393, 0.4103193061053433, 0.19072128422538343, -0.7450759113361675, -0.17288625533021285, 0.563097091490491, -0.3302811134706676, 0.05535482472558819, 0.37819247783965015, -0.48083340061702806, 0.5075072397628074, 0.39599070368280476, -0.2113786707070579, -0.13168425555411037, 0.4794794827352376, 0.47618952171423146, 0.24808033539301114, -0.035111786029026204, 0.3318613170550878, -0.47624064049660664, 0.1713685013513221, 0.48508899544997264, 0.06971735495415354, 0.32643057515305696, -0.11449944065198003, -0.12410849474343907], [-0.026726241338300594, 0.4230278351512997, 0.48969559423475517, -0.14237976052053714, 0.1740764104294319, -0.3066010524461227, -0.02647222294432139, -0.41577807001655953, 0.2948448603977806, 0.35585499585756764, 0.02149205074584633, 1.08290235016933, 0.7121786731011277, -0.5849626155344353, -0.24851343173995125, -0.05890110998592146, 0.34838025521993954, 0.18520312160336844, 0.31331815963761156, -0.40264322505931144, -0.10599236106494624, -0.059920245372624345, 0.05719238215495954, -0.04651832482195506, 0.21483277159010927, -0.24407186158482938, -0.23412902340827632, -0.3427102554435258, -0.1999469693020044, -0.12251283420382436, 0.09105765883579138, -0.26433034762313223, 0.28353448198848075, 0.22114616437564422, 0.32839837893251267, -0.10955693937236609, 0.433133780726442, 0.22472036789040423, -0.03273094751988861, 0.4192748394709104, -0.23810301935677824, 0.470642383483202, 0.11939482837278112, -0.06322542494760928, 0.22523903542463908, 0.6421187335039826, -0.2281844682615781, 0.3773940653361143, -0.1834417226508377, 0.24852276102239507, -0.6150990758929776, 0.0883499679456746, 0.623214489964506, -0.25124792333408635, 0.6868350450849928, 0.06483039382546416, -0.46469281026320375, 0.4411520874700602, 0.20203450921911326, 0.49655460354775127, 0.2225327489829142, 0.2715699951802665, -0.2734751652043015, 0.34392828844462964, -0.0724360692000133], [0.042077154567444985, 0.46162670548171425, 0.21392511436842043, 0.24063608776968526, 0.015357969340781041, 0.4077171080696782, -0.39541887815591215, -0.24801776498909756, -0.3527353032128523, 0.4061593000613541, 0.2265189617620908, 0.5962326549207542, 0.2328275725731393, 0.08507277292458071, -0.03784800852209051, 0.005310972918229795, -0.17265657123109812, 0.1424633776278216, 0.7034150204623401, 0.2491249491886137, 0.23476142833405936, 0.24706045589265255, -0.5620268245914699, -0.09738924925203063, -0.10028495039022223, 0.03897875393275172, -0.36461017729408, -0.21349782863070826, -0.08581059592567068, -0.4764570651569206, -0.08035254726206048, 0.30606024244354546, -0.4060507056341607, -0.353039108089269, 0.31032870304367605, 0.2971888380831764, -0.10495796921767406, 0.5649958728256335, -0.438962126197667, 0.21570734961205962, -0.44493718210643607, 0.14655344895211234, 0.4070400754359229, -0.48542226179233, 0.38509389219938844, 0.5150004479965943, -0.2694212910567977, -0.4794029859962685, -0.024621133831419173, 0.08176835913125591, 0.06626873039739105, -0.29454959318186424, 0.26830344829495034, 0.06116194500798636, -0.24363336334146043, 0.41919935541137193, -0.4783529177565641, -0.046504502182332264, 0.013075208111385295, -0.49700220788061744, 0.4631283902847415, 0.49267526541289686, -0.17096071834099635, -0.2979740583540328, 0.355503765693303], [0.32318531401268513, -0.14557042692030664, 0.00199310525381291, -0.45132230562148035, 0.3037843608822123, 0.4766144822489977, 0.0631225322528357, -0.302140287383009, 0.157292036932685, 0.5138824489488651, 0.6281756397949875, -0.01062290925873683, -0.023406779604333013, 0.8553399688836443, -0.08623502444212411, -0.4341737612048402, 0.11035191223024032, 0.20745830309441146, 0.14726653968600198, -0.42114499150742224, 0.5149094885725343, -0.15969215363212286, -0.025650460195973054, -0.4714358651408659, -0.3207067363218554, -0.39919811456670445, 0.10489201008302994, 0.8221653752103357, -0.16549577195976384, 0.1859564875770525, 0.2890845462172891, 0.4381526639938097, 0.39446695946223054, 0.34335502271313395, -0.32369603893512267, -0.5391932167430349, -0.5221405951180118, -0.6221522846473688, 0.44935347908880974, 0.01529181154984105, 0.16153880410990074, 0.368332026389185, 0.29568664862048727, -0.12583714058697687, -0.12318056960182215, 0.22039284344656, 0.212326168667096, -0.3324965274927063, -0.31346503711511053, -0.2645648721500484, -0.17095844077053857, 0.724137780656419, -0.10414009398514168, 0.4487433960538736, 0.6091380608487439, 0.08291682300201901, 0.21590428830906727, -0.3570984633071521, 0.21744028307214391, 0.11592879724191596, 0.19456951240810694, 0.09160712063664278, 0.2217554580420108, -0.11259743690448976, 0.2960022669751864], [0.10666936805584515, 0.41142645261424005, -0.07038769586284721, -0.39613024876346037, -0.4913241103690721, 0.19873134581927177, 0.347644859810057, -0.3007689740813949, -0.11956289165708378, 0.6876926365271969, 0.02537656095173791, 2.0135564857729418, 1.1877064050252262, 0.14235037545643894, -0.07078267811743116, -0.04761278684191361, 0.1154430210478452, -0.3712126843475963, -0.12496060483121778, -0.6663750973849972, 0.1263491070772312, 1.7950269695043866, -0.5159275820948104, 0.06807575581683978, -0.3740826994530462, -0.012259193955764086, -1.1293361185580342, 0.13742808916289448, 0.5960615152305004, -0.16742051494668936, -0.04696198917975987, 0.3215678016283783, 0.4097222239828082, -0.1995712608900104, -1.8585151532406614, -0.06558819821089885, -1.2243962622755309, 0.8256359715003093, -0.4832981325765635, -0.23760182413770936, 0.04751620226832942, -0.12222808013406175, -1.926873078861568, 0.011897436668126279, 0.8793922266866405, 1.2993841670001696, -0.589461182659298, 0.4777002250354755, 0.09237542891549777, 0.11480403584296607, -0.9885244502698595, -0.7874143173378343, -1.2494329191025757, -0.17570703378006935, 0.77853323488616, 0.654258771504728, -0.3657862928096265, -0.41068145322413196, 0.07288420998612466, -0.4430390615335541, 0.3285035440382216, -0.21825504380214167, 0.466519245390557, 0.10454210196706382, -0.13497467141781705], [0.4406502569910845, -0.38285941358723985, 0.11497248290867024, -0.433093940233674, -0.018613414813732354, -0.17649587025197777, -0.49833710614481674, -0.29287122617149297, 0.11596564188602565, 0.40613839838611815, -0.09417871357400034, -0.23030702572227815, 0.38880368933118253, 0.02813231984622954, -0.3777707168582459, -0.2974508913998779, -0.02837576320590618, 0.5077326971941836, -0.3950269472952239, -0.5725439938310171, -0.7400374603292871, 0.5032093478380404, 0.5407496317277233, -0.02947903750526415, 0.20949276728705257, 0.2486043696058994, -0.7058578125652182, 1.3511558075894239, 0.16440324267607279, -0.10903914777804562, -0.27887133556940413, 0.2632153632800669, 0.1661464403855838, -0.39712764655752975, 0.541850880404633, -0.2966124971577909, 0.00775119414543641, -0.9560445886159956, 0.21002396484764604, 0.1737946327488613, -0.40009615810267607, -0.25648170077306, -0.4954251724631419, -0.38098402655146174, -0.5624980266635745, 0.014352892649028214, 0.6112878211134315, -0.17464150078201612, -0.3820345789916756, -0.3051684059940873, 0.8369705815176955, 0.9596210333391352, 0.3448607009979339, -1.035855054432113, 0.2389023019049511, 0.5813090693174748, -0.25041757561875055, 0.46412909483278053, -0.23042229584834317, 0.29242837371684494, -0.30477812552567063, 0.455143789951052, -0.12237059796233007, 0.1469218723978688, -0.1121222486245069], [-0.38138751347104294, -0.3853344223878956, 0.11136731834080604, -0.09383323603730898, -0.2863738808036984, 0.17356442873353906, -0.4251566417757797, 0.2569555513023807, 0.34100181894195103, -0.49052146427987386, -0.11913702193537369, -0.37680229638151147, 0.4574868423509825, -0.3053618885955841, -0.31657506958533277, 0.3930989441557097, -0.4398118002071245, 0.04965435234306429, 0.8554011481998459, 0.35501261712080245, 0.3224707512719064, -0.47823492332440665, -0.11178097977050008, 0.1650775930217696, -0.3346974672011451, 0.12796049040254695, 0.9860166213699425, -0.5838049637183771, -1.2833645000884528, 0.14329747523133943, -0.008432206094654272, 0.41760777771572366, -0.1306972094091079, -0.03126887522667732, 0.2875135481134841, -0.5502797929266462, 0.4255227399921824, 0.7564220818513098, 0.23004127131872362, 0.13580753952916413, 0.4616844526966133, -0.549059465178825, -0.2226964739080801, -0.15370549798929986, -0.38827435321207093, 0.10390323946158811, -0.2578474461275305, -0.0733011987446901, -0.0900279763291798, 0.2768017563140721, -0.33645271861004444, -0.3585160346617253, -0.5612124577169786, 0.22087073448481503, -0.567735884938095, -0.15867680723427793, 0.2062743215274916, 0.17511897806261745, 0.3153248634195901, 0.2766619925726358, -0.3772630657727869, -0.21409621352965325, 0.10088928919400786, -0.1192493850232762, 0.12068657046024195], [0.2694508663630294, -0.009140768601242799, -0.041913741328584386, 0.0689345208988088, 0.03235459201595847, 0.4804860685393517, -0.41279036861069085, -0.040822195873574274, -0.3715301994992426, 0.7144996343671752, 0.8459258043909571, -0.5514284111312615, -0.03261530509900978, -1.4632644295185537, 0.15348454716411444, 0.048123861833407, -0.10083911040098326, 0.19425392791467996, 0.9090735849106739, -0.36687279300405706, 0.0361236717889591, -0.793961479528811, -0.24889800012626997, -0.19940197148665928, 0.2687360814043849, -0.14074860182609664, -0.351670258862761, -0.7688235024313448, 0.36468090250800894, 0.09582383911236152, 0.15361148551211276, -0.04813939958867042, -0.3327064439750105, -0.0967668422370343, -1.4358715651784306, -0.09039036746088487, -0.4574120548580236, -0.022174555101115784, 0.07343605771319334, 0.18871011925103098, 0.10589922940006546, -0.2521220708740995, -0.7916496665871574, 0.048943829371961615, 0.7493029358064917, 0.08443064195074504, 0.19818853634314135, -0.3204528027813025, -0.3847116673300327, 0.5651629467483896, 0.2754569438679539, 0.2053422212314115, 0.4117791753844882, -0.036689898164306005, 0.9630608903975583, 1.012857089589135, 0.47428543439882276, -0.46172540232726367, -0.10739263149484823, -0.13325807758249875, 0.35355442264330705, 0.485151811732489, -0.49653168896744004, -0.37520539719956114, 0.22068846196183137], [0.3753786065461816, 0.422035735264931, -0.3420739691068373, 0.15493501735880488, -0.08209081770298365, -0.47613432917611975, -0.06926871784394895, -0.4458544866399595, -0.2567838440492656, 0.4149817524308251, 0.2642681086153986, 0.21615672070853312, 0.8856834168995588, -0.4620044089001541, -0.15886907094152627, 0.057610702353760534, 0.14030920706633532, -0.013791244679123812, 1.4831081825339325, 0.10658430044197088, 0.5489886989874929, -0.5023801197157372, 0.3851378458032532, -0.28945834063516207, 0.2734898207114833, 0.1237012277577446, -0.03166778358130931, 0.7465836027926162, 0.3190730894668678, -0.9502835796904102, 0.2484697766614872, 0.1750458780880806, -0.03040124903437913, -0.2481563622896735, -0.19622079003807202, -0.08314882933842063, -0.3748343997636576, -0.42487054299837024, -0.36191283934748236, -0.3495253295687052, 0.09856418432625758, 0.09644090385140662, -0.5481463583019431, -0.023528885958856556, -0.40785517022321705, -0.6167934185498, 0.39676102605099456, 0.42051513273119956, -0.4605780875594463, 0.0871081272837896, 0.7029958419695207, -0.7056647302244768, -0.749904775532381, 0.1072331622468742, 0.4908745478541565, 0.026605439689760816, 0.047266849542929146, 0.23045315766732088, 0.3596172203571184, 0.12908706104341827, -0.22204546718023277, 0.12535143831001871, -0.1997666778615388, -0.49248731558996417, 0.5168439187103013], [-0.07116060894773923, 0.3522955116104781, 0.08183275460866934, -0.32843230968201453, 0.07068046611024414, 0.4053721700453614, 0.02696196769080783, 0.276942357958321, 0.03705308424054876, -0.0034216901918497026, -0.6206378065249684, -0.601613146533079, 0.15048026458440314, -0.8714812777109526, -0.3866903374940614, -0.10715785686011359, 0.2550393707219306, -0.22794499594800044, 0.8794184879050259, -0.4856527327011865, -0.7643537625744452, 0.2911313438235317, -0.03501883299830275, -0.28942463891210257, 0.4304797844430519, 0.12782078604951655, 0.809185029376877, -0.7681433756070725, -0.519382307034638, -0.12692995612106425, -0.5049892263311825, -0.4579845240063394, 0.16029233271155274, 0.17730397102178172, 0.6976991469542465, 0.7417728324715381, 0.21112746131356694, 0.07263227693831656, -0.03925607079439806, -0.03518197037781867, -0.02047447157753768, 0.38189385961697747, -0.7468084727214591, 0.5724423465610361, 0.8204793546760542, -0.9852400969254025, -0.4205803659872322, 0.11941326707842104, 0.11752230925510387, 0.5835363520006732, 0.3847173651851387, -0.5914484678635514, -1.2291296736621484, -1.1986054509085562, -0.30416455081771665, 0.8343577027978679, -0.25692670272404394, 0.015690299751781156, -0.12919831389271763, -0.20176736911836568, 0.17567158250543546, 0.3203429292549743, 0.23530092356937837, 0.36566152398733887, 0.13585963355905603], [-0.2868243271377946, 0.47078895568290013, 0.12795006230010408, -0.42453149348886987, -0.09791334577147237, 0.38727820494941856, -0.06986388962580914, 0.1921153614891824, -0.380137555672763, -0.4912045437700831, 0.20808716268898647, -0.28081126107900967, -0.3121510726415677, -0.08108054834144086, -0.4481304662864955, 0.2667833370344084, 0.3499464228909017, 0.19245503093518906, -0.35519928901851416, -0.32758736396755445, 0.3708981774677712, 1.2436994553999903, 0.38950680463675913, -0.1682488398865486, 0.024664213683178948, 0.46519944381538714, -0.23433896167701282, -0.48011945323569044, -0.5418550453384785, 0.06869955561924472, -0.27097191189773123, -0.3302993543241599, 0.3434224162218419, -0.40558527752164386, 1.7896286305242681, 0.27318251365310187, -0.24045151553794158, 0.22692527519720862, 0.05985754572189799, -0.29890333397392865, 0.09686149901844987, 0.09189497275104751, 0.7997792586065348, 0.530761132268367, 0.06840616147841393, -0.3806674286513878, -0.48583369173669944, -0.03104677660650257, 0.3630546364677891, -0.2677145363668373, 0.38081717893175887, 0.21085777875221481, 0.2855664068759204, 0.7485108254695013, -0.3491266576389054, -0.14833445902572445, -0.4228860190255358, 0.04332756227998891, 0.06433955293160287, -0.21411441750726057, -0.4773721390432226, -0.45505681839250167, -0.39478727760316445, 0.40360178679969505, -0.5014552047839421], [-0.041405586904480596, 0.1561460454982433, 0.47825889278718825, 0.062233524322522826, -0.06664492750089102, -0.13921086281771666, 0.2714196984981033, 0.10600079658031514, 0.35801605608761555, -0.29483259567482595, 0.45622081770576106, 0.15428426745948154, -0.2670187614009892, -0.2572228789415855, 0.554021606574952, -0.4804888245223282, 0.34531807632621114, -0.1937380894548758, 1.1294357835908606, -0.11506930785823037, 0.43706388022050463, -1.4231925918445274, 0.4345152980380751, 0.3420387200869439, 0.01538746519999834, 0.08136581948089072, 0.5736731588079789, 0.3507553336645696, -1.0872465081806812, -0.6792133726345815, 0.16657110758864133, -0.1956761276073764, -0.4030045926727879, -0.22677043400757352, 0.0018022865846259927, 0.20561476867933748, 1.3509207120860596, -0.3111771368081682, 0.5603885661203697, 0.1027459253702655, 0.016798591408682895, 0.0005567642259927392, -0.19378740730188543, -0.6904866641968064, -0.28237999525549784, -0.6404080415681376, 0.07092536259111418, 0.0038660897060152077, 0.4173329032672808, -0.1070681477472753, 0.5206515571669268, 0.8166766677542391, 0.6611102270435558, -0.33752482912632326, -0.5206127240326006, -0.9218736633126448, 0.012494690024686839, 0.01521417286747695, 0.16893388561237488, 0.2920761905468603, -0.3317698870197269, 0.02207520631399984, 0.026263567183889336, -0.28762754066536833, 0.30266052689688233], [0.22584952221320875, -0.12160412417250288, 0.22420084908430915, 0.3249779497545868, -0.028806014045654638, -0.09984003576391631, -0.23836503487056837, -0.14994132611513822, 0.18892280481667523, 0.21970837520938982, 0.7231481484758622, -0.6733015531208175, -0.8428398894084244, 1.0382939145713128, -0.04231472151839573, -0.12910944589242002, -0.21317688290145542, -0.10031626689559615, -0.3739610782663325, -0.28142380777547515, -0.3924841198887018, 0.5521336193456058, 0.19528839387796032, 0.11699093000553762, 0.16143759321360895, 0.015582981215476834, -0.072455699376113, 1.4558813023969686, -0.29487846747623075, -0.5656503660342654, -0.043842348901517586, 0.30254550651467005, -0.4016583832825218, -0.1687496127714291, -0.8585680094261543, -0.14337694646039578, -0.35473749426572254, -0.7920546087476843, 0.5332439128026513, 0.09760034499867631, -0.4940717756768471, -0.16512992361059955, -0.09502317703980606, -0.2191873938912789, -0.7769860276749793, 0.3887917015273555, -0.13646701708328382, -0.48605433680165, 0.10814685860315387, -0.4276175344786789, 1.1622484537749722, 0.6875746481911591, -0.17108785896274328, -1.7366876065339134, 0.27680661840744913, 0.3400941870841036, -0.4852766722616748, 0.48539252092174445, 0.022736983063009863, 0.21859065335874972, 0.16581719702237863, -0.4182995978116001, 0.2928327015244413, 0.16866770659822183, 0.5451646666461724], [-0.2520177583913511, 0.37611271816871006, 0.4980443244989443, -0.34501893381296433, -0.10507974506510043, 0.2101343164520788, -0.05391023504954051, -0.10180914526922524, -0.18148854352996802, -0.34014884772903226, -0.6021883520223459, 0.310281141417797, 0.8785820902021565, -0.3075259488925676, -0.21188353688589767, -0.1422219962989496, 0.012977999675543583, -0.10211803853012905, 1.6036334711064637, 0.17605069195975234, 0.4442394996245426, -0.6201110667285769, 0.4333027154024233, 0.3948342399539484, -0.14057397813287764, 0.022828949850447915, 0.7720524355744111, -1.4993485174226908, 0.13371224052734765, 0.42060629754983553, 0.2579796136037279, -0.03517071876597455, -0.10842796151111822, -0.02887112783147902, 0.5237856830298981, 0.43149294835903107, 0.34793751931179584, -0.3220254792183136, 0.3953117752475784, 0.23345459757029718, 0.3282686297497365, 0.32008869200994605, 0.16851751540264823, -0.11223644282862769, -0.08589719572861408, -0.875045146833392, 0.2860622045792089, -0.3967423361687692, 0.4464581811735727, 0.21067891412644052, -0.25599509466167486, -0.4882464695458003, -1.262538389082477, 1.144275282421565, -0.5183969505619644, -0.24127009638639121, 0.42697603599200507, -0.21017231421976368, -0.14070636317564067, -0.10353835379671905, -0.18172678069776937, 0.0008440327898530109, -0.2952930460526313, 0.13753798280745222, -0.22996258881458106], [0.4417590663196933, -0.10848950460661821, -0.47997393756684714, -0.27657623364398354, 0.3974998922535622, 0.3948631845383992, 0.14491574617784608, 0.2500668683543923, -0.010144167778736057, 0.0532112050331481, -0.022476064183491913, -0.08484754228734721, -0.09956740663112677, 0.5107435182358154, -0.2911606686542132, 0.17812478922741048, -0.07669735436584402, -0.020952692580132062, -0.6670997780108943, -0.30586923660078924, -0.1570162038665167, -0.6966695187381573, 0.08205271737308753, -0.4286908806166778, -0.13292641843844843, 0.223644024614043, 0.053550562624751025, 0.6662121804078157, -0.3495221670034836, 0.23117409764117489, 0.20018501828027038, -0.05043377022433504, -0.0805988917177658, 0.1399887513946367, -0.1747177631850378, -0.5591203608052787, -0.5987192541149081, -0.19493734848692487, -0.23674079864243538, 0.295153287584214, 0.1685313249162459, 0.15248303624102008, 0.5195358957416186, -0.7369393287664958, -0.6412058934793718, -0.026327801110974113, 0.40730850461770673, 0.4609706007718458, 0.38557769328486935, -0.22741990870238035, 0.393284017131452, 0.7953818685950819, 0.6072686021269188, -0.20610348438483653, 0.2855540857963796, 0.128077412315987, 0.35698963140961326, -0.4328994958030816, -0.33192274727693416, -0.09046476500709799, 0.021339237463790184, 0.01898371616138017, 0.1432369128845008, 0.01292640023481606, -0.21778565764961874], [-0.4073513886376202, -0.017538348306800233, 0.10902365039735151, -0.20969631987414827, -0.06793888361062439, -0.3950580832825018, 0.4112833682702246, 0.06865454487047196, -0.35660491114623405, 0.02363382911715946, -0.27921304273230785, 0.6204573962938125, 0.05259670996866992, -1.356837056291485, 0.34478819146501777, -0.3224482488074567, -0.1778727609030456, 0.5612574271310152, -0.22821693761841405, 0.5757589930527297, -0.1893268296832212, -0.09100165184996241, 0.44120464937486537, 0.09022120068273953, -0.2873938915751052, 0.1503379462988606, 0.060190852970664975, 0.5654583987007075, 0.32253648035202936, 0.949678860588127, 0.06514924550627724, -0.24357883973600136, -0.45820155347947467, 0.42259584818615326, 0.9218543309340729, -0.05615984136611695, -0.11889854184002425, -0.6447562260651244, 0.27341538772377716, -0.39575176306445137, -0.3736919926328962, 0.031850129489643546, -0.8905276186551075, -0.5344427180006328, -0.6166358997656205, -1.285232953250252, 0.637412002211435, 0.4703414152149651, -0.47129373179219824, 0.002687172723097901, 0.6355999858394035, -0.4636770487970304, -0.4411830671934028, -1.8194605527455818, -0.15521541126678046, -0.283908265130815, 0.01314972155231986, -0.3725474743807803, -0.10637912167301833, -0.41359277633703084, 0.029619110746151756, 0.2577686545010798, -0.017755882987877225, -0.24804686433232082, 0.06990229315396615], [-0.08037105359151808, -0.12052022299487175, 0.11985541276025036, 0.48444759577760343, -0.28538806409095685, 0.4654554276943067, -0.04865277150256697, -0.44255092234483817, 0.48950702789136524, 0.1429327610546044, -0.26917616422156226, 0.5128050085235993, 0.17483947033391303, -0.1362765068340618, -0.036172571042578726, -0.035897521863998305, -0.3865614750742028, -0.4281377545035009, 0.6316589188954375, -0.6020733954445031, 0.1486415398195759, 1.1834571649134824, 0.2477161226187685, -0.29221991436073946, 0.307935038588637, -0.6162363850235776, 0.7080659153009176, -0.7735756744275771, 0.025156173491053486, 0.5791633881403089, -0.6564418086780855, -0.4964045285152706, -0.21198861566813954, 0.0175075688792069, -0.3173878214936728, 0.5036902524666387, 0.3800870663776122, 0.5177164139611516, 0.12282703954391451, -0.4790057111103677, 0.4559179108699227, -0.15036979512504367, -0.713893864380965, 0.3166624125742152, 0.5568248497348095, 0.24053174029755478, -0.4051865084719974, 0.16081883439999456, -0.3825356525878305, -0.0736829350286232, -0.4846505271484554, -0.9406194678509894, -0.39950537463684677, -0.5336761106392497, 0.8330542968002642, 0.5912801866494305, -0.18975681686893708, -0.3271490853563861, -0.3830228868918003, 0.30568124473191605, 0.03445132356296621, -0.4534704658905899, 0.41015796013734196, -0.3580537781186858, 0.20417907667931118], [0.09994662042715352, 0.43454153744306623, 0.24562665608070622, -0.20457407578796816, -0.12632379790913306, -0.24668658660578247, 0.40988222069095337, 0.1327930631992088, 0.21476137569803933, 0.2996409605309776, -0.02766718219069229, 1.6075873401434095, 1.446200682671729, -0.6860314155321369, -0.11473823887645042, -0.3913814348742407, -0.30861487067922855, 0.5755227879302734, 0.5900030730106702, 0.12049074056963124, 0.1279761104419537, 0.1375301190277324, -0.20316756802930364, 0.4456007803211347, -0.09998705224542115, -0.2521119451620845, -0.3408467126675706, -1.20223024012451, -0.07775142195504113, 0.5315882434379494, 0.24173981730099658, 0.3281760112315103, -0.2551649405774038, 0.17255057656891337, 0.8630475430785814, 0.08069874646196337, -0.22277023491353926, -0.17326283664931666, 0.15429302891040086, 0.03135398435726855, 0.23413794818650224, 0.49208578117336393, -0.017732947911883273, 0.24543610583382522, 0.18533249697388832, -0.6599664754313735, 0.041975170296625786, -0.24970201415510362, 0.2992825204245326, 0.24607210099743243, -0.2898525121582243, 0.05123614995576101, 0.34275066653281994, 0.41704780475113934, -0.34760791240483113, 0.19429134454507033, -0.4031998468028192, 0.22073370034011364, -0.39625960362849977, -0.3863157570657687, -0.06371418997458433, -0.05438595380238631, -0.4514713284075449, 0.2321956173698546, -0.09042468840195123], [-0.005550004878830728, 0.273218786139905, 0.013993662627931336, 0.28873637804050134, 0.3793673539575365, 0.13655327514154159, 0.43429848040547325, 0.22429792689691053, 0.44492641539758404, -0.015495074799601298, 0.8022126795327327, 0.9076320189459767, 0.3508789688515612, -0.9462530297923752, 0.06225844449650623, 0.4621556906361499, -0.2969180924187236, 0.04345762122512332, 0.027532864871391047, 0.14620722092166527, -0.041764854164875076, -0.3370023642493906, -0.4844058527369711, 0.2831758961670604, 0.17603408570523427, 0.6871597067618856, -0.14402135844573286, 0.36408002677271323, 1.8177362430377655, 1.0864264550961569, 0.23184226845215214, 0.1553428103415927, 0.4492538203748161, 0.12367863938114275, 0.17153259439909094, -0.23822491355296127, -0.4339017932921419, -1.2584807448913928, 0.3712694900929515, -0.3166628288855179, 0.23749996640634585, 0.6623690217069657, 0.12004669776733946, 0.5160083243568128, 0.6502248871252173, -1.006244694801005, -0.023485767954434536, -0.11989932082704413, -0.14351484998898711, -0.060190879987897294, -0.22170156728217705, 0.1308396541508246, 0.06401844483872918, -0.48527492232270225, 0.2349542958425792, 0.9892046019220464, 0.47152313532411716, -0.35741947486264536, 0.09763773352089966, 0.32596033913062483, -0.3738620165413987, 0.3473182930046308, 0.40412287064387475, 0.11378066169162393, 0.293147473781459], [-0.23451447119424063, 0.23043356779059954, 0.40658139001520777, -0.4140316339105068, -0.248612751868591, -0.072884021172969, 0.3870707476048655, -0.0033824417181612665, -0.06526207877104184, 0.18010800012118114, -0.7222718839386042, 0.23678178747886788, 0.1629332271101305, 0.0935821179082268, 0.7026385119585014, 0.027925387235403498, -0.4383158798273812, -0.18580326874847664, -0.6897159232169232, 0.36579544984780415, -0.03667070261174224, -0.4246911085412593, 0.41768841286368874, 0.0966323394620836, -0.06423911311301489, -0.4185250037532088, -0.08148130239936875, 0.6872127488882402, 0.7918999910364651, 0.7188527060062858, 0.40593252501210747, 0.36656776068639596, 0.011029556748230362, 0.2239096576304428, -0.40174132068239554, -0.7476217915385422, 0.06820797084375825, 0.1519110355175205, 0.48511281260070865, 0.08836946210877916, -0.3058323695070094, -0.510441005741842, 0.6736947788084219, -0.8300934615971517, -0.39074024067274454, 0.5991976918545977, 0.729523422903776, -0.12108585357344281, -0.05096085659480154, -0.20942624148089037, 0.017764171805966997, 0.3960294234137263, 0.7837496173415521, 0.7873230534230052, -1.0453376955429232, -1.4023618390154624, -0.0343152412761587, 0.356932428894317, -0.33505427444948255, 0.336933402612171, -0.17223452057463906, 0.2344839411927424, -0.3237979660623562, 0.03617614142299863, 0.04099421410767804], [0.1344742431601038, -0.26310232452974014, 0.40868682270096734, 0.08174281360341451, 0.18361244761829065, -0.17190203391149583, 0.34786105213993845, 0.4915600324671231, -0.11418006644654477, -0.3505839877792893, 0.1716144570214239, -0.0782450264005079, 0.5286446180973887, -0.10799281037595938, 0.04529238834473583, 0.037635903440621954, -0.4439319850476222, -0.2849959362981506, 0.8523104191940786, 0.1822097898897879, -0.6016131097047296, 0.7232409522125283, 0.06316746312007862, -0.20040631970813727, -0.03235672094877762, 0.038085831306247396, -0.26911229988010293, -1.057547611574386, -1.1040682954826821, 0.24555574116338122, -0.1410511817244061, -0.1732741279591382, -0.12767000132700268, -0.34667744322928434, 1.1841104840752248, 0.2750148612049434, 0.06720214550468902, 1.733531868650586, 0.2594028235355748, -0.4624464037258095, -0.0040528852033745455, 0.4156664274978105, -0.18144376707944376, 0.038901267003761245, 0.3343129476743622, 0.957905686252243, 0.3970949752828355, 0.4737822923518785, 0.2559759797748583, -0.3463350657052315, 0.264002336991649, 0.37657475155814385, -0.06930768584304361, -1.5685215112328617, -0.18011456652182992, 0.5681916209573475, -0.03859802811627766, 0.07693239234707017, 0.1549330199077701, 0.11370491035012598, -0.10980286268143225, -0.4806188031409667, 0.21411820168896267, -0.1631710287517003, -0.4062716714457483], [-0.012533831327052547, 0.007591516282323685, -0.2404786496948158, 0.32085819045638686, 0.1799609246377516, 0.05418764270630605, 0.4185030381428778, -0.14593281316429818, 0.2377422740567936, -0.2780211733870189, 0.19570414763757174, -0.15250790299391054, 0.45418655544225645, 0.22685192481347916, -0.31428966506461153, -0.028510602445413702, -0.37429501077766847, 0.22894460163901748, -0.029974335958044152, -0.06675069970972558, -0.37702216264755756, -0.12058973703698377, -0.3642497836379, -0.15222380532180813, 0.004713126818476354, -0.1120163133077039, 0.5696267088236331, 0.4170441785191437, 0.00869813437994255, 0.09066033647707693, -0.5010778075610135, -0.3045041891397502, -0.15398812424611674, -0.13178200778090884, 0.6307227942372092, 0.5324791562090767, -0.44265403267551784, 0.29818435052493036, -0.3865791560282997, 0.020186006686740865, -0.08864183291989758, -0.4227923016426032, 0.578199548641326, -0.30464402977566823, 0.09074634554725543, 0.117868839662189, 0.2952210280861221, 0.2572545392844069, -0.31654646972938794, 0.37817932267296384, 0.002790214706729836, 0.5807122265080316, 0.06252564958667649, 0.5681032827742746, -0.10061329327534534, -0.22876098503853748, 0.07886780877994026, -0.20168031993262714, 0.24114057589394133, -0.09011713735280957, 0.12550065265016797, 0.05009910496570624, -0.18304794686273473, -0.36576116352385535, 0.2874087691339992], [-0.4344032120802498, 0.4161029412369356, 0.20559110097150568, -0.19499378797164657, -0.2215068198479193, -0.0433828490906224, -0.10716942329906964, 0.20114111052983852, -0.09387580007630858, 0.4088812294613452, 0.0701261495403042, -0.18398644529385705, -0.03563291831863973, 0.37387178485108286, 0.7302779767934889, -0.3255037901301121, -0.10117597775835119, -0.2916609202190763, -0.28487977426155114, -0.049816577811364504, 0.16383337960551297, -0.8268728872160891, -0.3772039713456351, -0.46516437490553486, -0.32436951872822195, -0.2125598217025228, 1.103872274101781, 0.12073761260503689, 0.7496438329504033, 0.030480750413278742, 0.14568071594236853, 0.08433917517665157, 0.3104491456227836, -0.31850571221181406, -0.6466976136434153, -0.5433687801563614, 0.14667590921935864, 1.1660687313321192, -0.033046036878506616, 0.002495380981657025, -0.1377507336770114, 0.2925489702487902, 0.8052195636270819, -0.7780315785007326, -0.2675337982275762, 0.1992944676168669, 0.11381642469585566, 0.32314552228064963, -0.3230607330262737, 0.351192389992953, -0.07238671901283245, -0.07574703693301071, 0.4855586476807551, 0.4736963707066354, 0.05070073853786509, 0.3535232810250438, 0.32172975004247817, -0.4848763998648873, 0.223580426042989, 0.11805643385611908, 0.3614036639142313, -0.06301589215920655, 0.41626172341087964, 0.41354425805911044, -0.19850452861960505], [0.17486339272445484, -0.4717657015830463, 0.05990186005353615, -0.4563427117701092, 0.27298736011109526, -0.3617284619725265, 0.3008510933765859, -0.38912085151164966, 0.04088550284864978, 0.19074981681735012, 0.14080901396989004, -1.2005395188534556, -1.2008639557616585, -1.0653577092183895, -0.43231355760090123, -0.36881286166270155, -0.29902885677806124, -0.372470292806105, 0.9411465770507448, -0.175124471860031, 0.45412209154562244, -0.6164664472788011, -0.28474894420005986, 0.3173765566106015, -0.19707306781984224, 0.1916599227422835, 0.6216608482805016, -0.9951303651740656, -0.5297909015973944, -1.0352157519654477, -0.20392411294779736, 0.01186485879894672, 0.4756940807847666, -0.2570724028608146, -0.11388275741515164, 0.44905204202524635, 0.3212574741803378, -0.7024694476653272, -0.08212107189241971, -0.17936565146532546, 0.4173414385793377, -0.49977280151671766, 0.0831420730510931, -0.01009516117089203, 0.028668505453240314, -1.0466879022377278, 0.16983692700308847, 0.27313525747376843, -0.2516896382716146, -0.20095924367621507, -0.4309799208306029, -0.2855590126240092, 0.13165412868048854, 0.3545662609389834, 0.40861652482859107, -0.2559888783425677, 0.41796696814258283, 0.27537491143630166, -0.28664882314946505, -0.1646368806292553, -0.20599744917885066, 0.3708410745989891, -0.13230074086023824, 0.09268554389858075, 0.23612791744736794], [0.0483484941846406, -0.3545885073040037, -0.24531930648651734, 0.331159423569646, 0.41857351207156823, -0.4328075028400371, 0.47719219850210026, -0.2363221558832138, 0.16263451193951084, 0.17311122588592448, -0.009673173661127646, -0.07711561026350365, -0.06935875503445034, 0.1104498209178817, -0.22253423009520037, -0.4120802447842219, 0.013975726859251525, -0.15473203256584925, -0.8358207650892027, -0.4580466049538639, -0.48729334862024176, 0.5279101908726727, 0.2082327612708489, -0.05719610203144698, 0.02007538701414946, 0.13307588580644047, -0.980486005797889, 0.9844922805858195, 0.8992497424219891, 0.01754107389939746, -0.4538440452449263, -0.2921950536421266, -0.2850553559744803, 0.4063856264927686, -0.7701814787540098, 0.03379375106572313, -0.8972050188857185, -0.2527339457879059, -0.05182408245208053, 0.13828544558514722, -0.33563237682791647, -0.22977725476830577, -0.14583714007760745, -0.07512008829640136, 0.229372966964399, -0.1924721172685042, 0.48816541236124533, -0.04730098848267805, 0.4818570341470747, 0.21376216247268595, 0.40403112665240337, 0.5286397928542305, 0.7813756002369658, -0.3373367328601059, 0.6903649695706893, 0.5392674144620659, 0.09281422805105788, -0.2001701065634749, -0.22359616339604882, -0.3226248277939562, -0.3390143736281588, -0.20598237121153073, 0.05584670614079379, 0.4401678183479951, 0.3896284621794993], [-0.08008864056447207, 0.4977456483094669, 0.43979749874342744, -0.18259935562287277, 0.4749802205607533, -0.10631071724777252, -0.33991987376459176, 0.07383118521104293, -0.34462241225486157, -0.42561678108682355, 0.19555459873593478, 1.432401161887323, 0.7094180624624378, 0.4448000986800645, -0.961142274826409, -0.14811797061861343, 0.2770620588385614, -0.10633636153388333, -0.4069285100100087, -0.42211109096341076, -0.28311567791058023, -0.18377450628510827, 0.21570252171124168, 0.3018617355305703, 0.38590202322934464, -0.4620508449247358, -0.3731478488784875, 0.3263243532717922, 1.0296255573250204, 0.8121777245886918, -0.5893764494093696, -0.007443197211279062, 0.2145029633479978, -0.2794483289672059, 1.7857576344548347, 0.17921957041364703, -0.8792722911615218, -0.7241065422660581, 0.17305934085042093, 0.016659018825322947, 0.36689490627772336, 0.10699092969554709, 1.7184721778861682, 0.5603080154479236, 0.5389174293759096, -0.39923728453935714, 0.044541354844913596, 0.08361573103839548, -0.18426407477106332, 0.1960416248795842, -0.3141293823001428, -1.1022080322660235, -1.5082874354856721, -0.9382661407115613, 0.3146032133507177, 0.23037101654402922, -0.06375314351589778, -0.18267674671254786, 0.3499578195074913, -0.009251628516343757, -0.05271890193999451, -0.42462023940370064, 0.40655831281306076, -0.08140890391592426, 0.19987248479509867], [-0.2762692735511989, 0.12140135768436655, -0.13517982530486095, -0.07004386898312831, -0.07679025268071504, -0.47551577190455263, 0.07169690323133315, 0.36630720131074634, 0.09112373693174025, -0.46743902616692956, -0.35434048429438625, 0.18499617684608646, 0.7945921697388845, 0.30540551432926555, 0.6026811241440772, 0.1660409584231699, -0.18230370338494717, -0.18010354287534078, -0.8957431165328907, 0.40521676235997434, -0.14248158290527382, -0.11055802752480197, -0.10487664399416557, -0.08295745048648107, 0.44952876803458564, -0.23174773091172648, -0.013067221701191548, 0.31889827895400513, 0.44877675439815395, 0.8680686790481927, 0.31114296603957037, 0.0820613842858714, 0.18783267797303183, -0.0645876154509327, -0.11513101042099759, -0.458430105983611, 0.7880584862629428, 0.2436718836847519, -0.22945637307696395, -0.17670018842001045, -0.16511750114253199, 0.4141426554022545, 0.48081767180644464, -0.11399660095454063, -0.07989088650154119, 1.097805500719871, -0.23914349354943468, 0.091427692356437, 0.15308345479069962, -0.3124244274665906, 0.3006191092975944, 0.4649860849705431, 0.5014858845849831, 0.6967270855006599, 0.38024260831415985, 0.15828998209030573, -0.013781418492929576, -0.04470276448500099, -0.21067274318997464, -0.17680745548876786, 0.383304852501531, 0.4193438771957738, 0.11569718475989821, 0.40634338848894835, -0.2683531224559932], [0.03871015939923439, 0.424198103934897, 0.02270766306625882, -0.05826110518543348, 0.3564223736455461, -0.288125447167089, 0.134616323997521, 0.11378644899149848, -0.28686095625061636, 0.21551902011599983, -0.4841376248641718, 0.1584057692600697, 0.6622612869962844, 0.12426624050080762, -0.029525363526371078, -0.32955366753277404, -0.1411574673026943, 0.1328988872402879, -0.10094786735839226, -0.018627288517974926, -0.3830882066982623, 0.7365577507094975, -0.19736762345087439, -0.40123008373778846, -0.04708258857849579, -0.16762215636587655, 0.4097862460095686, -0.6803996434340684, -0.5279777454176995, -0.1972293278529925, -0.48224184013036847, -0.10751780758111296, 0.3206035257216556, 0.44574065667611046, 1.245004392356706, 0.45519968946150474, 0.09913930956423087, 0.6749356639021755, 0.0978034530668574, -0.49592920938632945, 0.1182738521884682, -0.2795503534538148, -0.1058589952855105, 0.316248121186937, 0.44306424624604557, 0.5317295519687917, -0.24890996485784822, 0.2799263774725763, 0.10725073684712705, -0.4354737968267271, 0.259285738093084, 0.3148733080391396, 0.17702811672851018, -0.4210984552690162, -0.10039836194831779, -0.2787275242145444, 0.37189156166271564, -0.3877024045948583, 0.11404973805938845, -0.25380541886682073, -0.47594729958978055, 0.24138769292418916, 0.3685859438914615, 0.12391808462218445, -0.3038340677805799], [-0.37074623432549825, -0.40609505266050017, -0.14368208518849324, -0.31896631821885124, 0.2988395098894434, -0.4856639095031088, -0.14291815614193148, 0.16767179605768123, 0.06028758447662885, -0.07795574573862939, -0.31191956522903586, 0.14116931099516783, -0.2468117518769108, -0.3161130580876095, 0.9014083076410541, 0.055865601818910204, 0.17056884537933092, -0.04122453328266233, -0.14947803871485976, 0.7112875909057673, -0.21267354144368367, -0.15148529018713996, 0.1398979372559868, -0.07617714071171511, 0.4717084766660605, 0.2761866422319561, -0.42933103850231424, 0.8244523760116141, 1.231411087027089, 0.8405686396781289, 0.3617231682524549, -0.49355077852204143, 0.2850948196531523, 0.0695529983536424, -0.6969600189061249, 0.012997607428454253, -0.41954213080495806, 0.5008406073419949, 0.2677891947690234, -0.13612735072449533, -0.3431398077300901, 0.3958590525885005, 1.0346358279199135, -0.848693353058456, -0.6753791983592389, 0.6101987859945273, 0.2346662920465192, 0.06918763534477745, -0.059931447263140925, 0.265080933450206, -0.22044106342977454, 0.15006952985717642, 0.559299309485254, 1.132495842575076, -0.544896896841632, -0.16567272470716227, 0.4196824070584334, -0.3729949473509173, 0.32419548845242085, 0.3232461592269491, -0.14772688192132566, 0.38640801810702596, 0.1013143657030191, -0.19458866806339103, -0.4767580048162904], [0.1284429199693743, -0.1917771166956057, 0.17306449125855516, -0.2610746696739604, -0.2654789537583654, 0.40769911101534495, -0.2934567455399033, 0.02007509174568889, -0.3321885162519015, -0.4799266760394418, -0.11871167474133022, 0.47405675048372964, 0.010122926273719898, 0.32577630913784494, 0.3043094481511983, -0.34054302402089276, 0.01690940277733055, 0.31739823541148193, -0.5129053777858092, 0.5841221525730323, 0.12617912424692376, 0.17110825768622828, 0.10341680790688199, -0.46639545228262, -0.07163433166750621, -0.23470732533906513, -0.36095155485073094, 0.09383252309191001, -0.5436600137134086, -0.4648905503028407, -0.0055622754904208985, 0.4900037018757225, -0.030704598974237274, 0.39244141700572177, 0.6739359189527164, -0.31102417774507324, 0.6545966395500082, 0.03286189786672663, 0.44736974810617847, -0.13821147448247706, -0.2725042303428621, 0.3891864502571484, 0.45310771916264353, -0.5487396483474373, -0.32331026000666285, 0.6445718876606248, -0.1747483856599786, 0.21516889606000789, 0.4459490374906999, -0.18311911243765222, -0.20495267797085678, 0.592046631769228, 1.0662470250419933, -1.251328062099228, -0.36862971647213905, 0.2984670213597981, 0.18458336854201463, 0.11419443619315461, 0.250606289977788, 0.10140877691259353, -0.0357698681044708, -0.44700867252123944, 0.48855202010597554, 0.4335981356996855, -0.4277681224392846], [-0.08672461705461565, 0.3798397231175563, -0.38796372768694354, 0.19885489305205262, 0.07078227661999681, -0.4533843998426702, -0.2002183284802448, 0.16608240709882194, 0.23656644589940368, 0.34701856568325135, 0.37184750113220744, -0.10306367864682683, -0.3930961333249916, -0.07668140281809395, 0.11923510149495586, 0.35566038087335716, 0.34060362805566635, -0.16614167609681307, 0.39865687967427504, -0.18092518812095554, 0.45500042874784935, -0.9456378659901321, -0.28959058159760864, -0.04673347897232116, 0.24394614602179743, -0.45152559662468833, 0.42397028514086543, -0.711391181747367, -0.29982895307149987, 0.21803406064025976, 0.1763257904599871, 0.4757180088851384, -0.4326526369787984, -0.30030392158729075, -1.4360201664208057, -0.08137930930677101, -0.2215485772597686, -0.3925523310873479, 0.440464711851395, -0.47953410723166434, 0.18316283065865446, -0.48785003667367544, -0.5285377411152672, -0.2833652741795095, 0.07211835969359585, -0.6372212249508402, 0.08215796881653124, -0.4909939691040265, 0.1722074261146297, -0.23858512572273646, 0.22151980105247543, 0.002428554756335867, 0.5804640310328497, 0.5923363309785938, 0.24856764081873178, -0.3722667791770074, -0.22151748773853297, 0.1367846947593674, 0.14219861477705364, -0.4568412056746082, -0.3700022874445884, 0.11041633516059013, 0.3474847728185352, 0.46040190924613245, 0.01903439074567033], [0.09473494456046017, -0.2711305227076466, -0.1992686828549195, 0.42778692992664247, 0.3747480391628988, 0.286592116034714, -0.49988917983847436, -0.08027117564110142, -0.02215024855736114, 0.13429376470597654, -0.2924326316411056, -0.4744069413413582, -0.7221046231252201, 0.22967706364046592, 0.038692657995784016, 0.08416714368158706, 0.4829207290144808, 0.3137896463551869, -0.5431873885289322, 0.08873718023967822, -0.3695750609408309, 0.19262051999320587, 0.2432809776558976, -0.03326969949582781, 0.42674482038700623, -0.37713398180191215, -0.31794719479992156, -0.41010863129830805, 0.4203088241400809, -0.5008879638498883, 0.3951883244885001, 0.4049136666623264, -0.05106665392012377, 0.44570042242849406, -0.4217663425673353, -0.21305966331333287, -0.40673792229294065, 0.018210553196490904, 0.3949442067309869, -0.3198887210851915, 0.30313365969353556, 0.510387522175284, -0.4032960228679144, -0.10152239112711373, 0.23654751460199758, -0.20326742797809133, 0.4572255274047999, -0.22149885328134888, -0.38286285870005643, 0.025130660892550307, 0.4194970946071829, -0.2753093259563394, 0.487167735931319, -0.5920322468402942, -0.14501989832324616, -0.3804105937778225, -0.26515679191245356, 0.2020688071025326, 0.4518150482432276, -0.32092145279339646, 0.22616799127039633, -0.11763726810102504, -0.31187948396531484, -0.37946775330449634, -0.276776935010127], [-0.3383729259084042, 0.36527968370258523, 0.09914252490007025, 0.021580041582133336, -0.035963071980580574, 0.43450845572923935, 0.1357971628270742, 0.2988195814326937, -0.09137146599090895, 0.10928075714984546, 0.31219889512282994, -0.2716164703362963, -0.15248061945192773, 0.6624953643340916, 0.2787521987498914, -0.03351768183693815, 0.4214309799842102, 0.11693953884877167, -0.8140135607022609, 0.07573340830022489, 0.5827076462150023, -0.49550498059160536, -0.15549791423969994, -0.3719960528733103, -0.2850720179421913, 0.2242342360951595, -0.6913058195546087, 0.5040512928615171, 1.1150881960410974, 0.4405188615655658, 0.15722013915357452, 0.3939916137934317, -0.21353640191879653, 0.2444488564312074, -0.9871181680655587, -0.8315168196132533, -0.26234822547706693, 0.12820146937869953, -0.29731010280139547, 0.050081575970920666, -0.2958126095838097, 0.1202153384212304, 1.0295313824179908, -1.022689572779714, -0.8234877496217329, 1.3144571869524615, -0.2397390804414467, 0.17250319588092522, 0.4372717880429925, 0.26169251421602824, -0.37202226852948, 0.8245626601077991, 0.9778662460885252, 1.2575340839568097, -0.8649141956120351, -0.19815283480814547, -0.12384788272516312, -0.29346419937096524, -0.3703629875083526, -0.17382812354444643, 0.13286593349114917, -0.49961491574501726, 0.47824025693841166, 0.14972721849043757, 0.023392620554375805], [-0.4981891499106915, 0.45359261837416953, 0.13516774425471367, -0.03820248587202957, 0.01549786813495424, -0.13847864876883298, 0.45714794448345175, 0.2619626983540516, 0.3301380071072435, 0.21198092350723413, 0.11160264749827897, 0.508278657584855, 0.8510122315345585, 0.19256024673143585, -0.081268930330966, -0.42054069254369875, -0.34896402489558664, 0.18437430365458288, -0.02732545168713093, -0.49091698315303917, -0.5020962418952172, 0.5745243715051311, -0.1541828854657996, 0.003791428583586054, 0.33642850238576194, -0.1100933311006017, 0.1696514128455382, -0.5212812063127079, -0.018835734337992897, 0.7095473158812253, 0.15999946368345144, 0.06226283124610554, -0.34772240421065304, 0.35892085538260615, 0.20025865393532394, -0.35533413460182905, -0.7149725989216209, 0.7616685193493626, 0.37173512491768423, 0.122418771527941, -0.04450097107704165, -0.12920214945360178, 0.8312332252746941, -0.4857668210945906, -0.20489645797372685, -0.32457223162437004, 0.363230984274712, -0.08392167642354387, -0.11252352109095709, 0.14344331795925308, 0.2953018974032263, -0.3121817418421384, -0.46615867696777347, -0.3148886203460717, -0.3728978774181765, 0.046345867295003534, -0.38332749435148783, 0.4296888718455477, 0.3744337638058838, 0.17888772054326718, -0.44817902254043507, -0.3903685470621189, -0.154114108593997, -0.42190101069602537, 0.06474746989668713], [-0.017785212954622653, -0.48353183011460077, 0.25253775251629884, -0.4488326568672363, -0.07475122951100777, -0.47480310968131845, -0.1438213745406316, 0.1690554106269705, 0.012537993039701933, 0.43807839190339065, 0.2807702741681388, -0.2736661546245646, 0.1385621067723722, 1.0072669533562668, 0.4792444176453164, 0.06549785197513736, 0.21962431444825248, 0.1491167045017987, 0.23876375557381088, 0.3059896270388241, 0.3603067513739879, -0.22479769911048642, 0.05751155126997191, 0.28762221149395817, 0.1983897967025422, 0.019878418456177643, 0.4913918816961806, -0.37607012859663635, -0.11340519805047161, -0.40727094002120734, 0.09363248012143541, 0.3469085515298248, -0.4242949366899851, -0.5101909044185567, -0.7002490042605334, -0.45726519319135905, 0.09706525037498837, 0.07428508406307588, -0.319064150160203, 0.14145168437768052, -0.3443913967510369, -0.09294896275241236, 1.0332998853123077, -0.27790617557635156, -0.1752206222532445, 0.518133263835848, -0.2061928717722301, -0.4298858331196165, -0.27704025019987, -0.17601697575007072, 0.2556313664280414, -0.04174502225680787, 0.34170518297532104, 0.5781066970876559, -0.2353145887669503, 0.486405315458132, 0.38979694634477, 0.3908399163767712, -0.13557743414433177, 0.048933886050861575, -0.020153034770571066, 0.24790014470174482, -0.18620145915032305, -0.31093614326578334, 0.34893129271889384], [0.4765747007282579, 0.1645399116567292, -0.4975778809053285, -0.3838668568711421, 0.3533194165831023, 0.09233115679822013, 0.15236554144457926, 0.3799433788588674, -0.28033373107592907, -0.3854064746663613, 0.030372127578591895, 0.6390631749169418, 0.5823673534765728, 1.2837957307348173, 0.05763721815236017, -0.013862318049145617, -0.032676642258591126, -0.41172069036870773, -0.12976805021243834, 0.23187563858037497, -0.11332696716650191, 0.2748535119691106, 0.176685624164362, 0.27027168441295735, 0.37898369163667245, -0.34876448843018326, -0.2905315715915026, 1.2131311180238942, 0.544972502631084, 0.5804446559756441, 0.40959892685279703, 0.1058698295005438, 0.17912911715166902, -0.5040493324104428, -0.5342379767135372, -0.7440845226065727, 0.04414290073353218, -0.018367938154459477, -0.14836316042727066, -0.36224187200340174, -0.24750052567001246, -0.33868389356029627, -0.3700090788802172, -0.4562566622270195, -0.26307736355930117, 0.09162946202225841, -0.22406797679765927, -0.0512479512192211, 0.3781807497634396, -0.2997831366909212, -0.4289987789493304, 0.8266249454557024, 0.07613074016594717, 0.6671058506141306, -0.4160103935437529, -0.05983353647696736, 0.11998395092778369, -0.25168021668497786, -0.2630630841601488, 0.06246964410139633, 0.4583199772484683, -0.38157400048028134, -0.4905557962355428, 0.2296900097627631, -0.008538000834226966], [0.25817746652816365, 0.130715251066438, -0.01203377359776947, 0.28865805213223383, 0.03676465688208974, 0.001009840622529845, -0.39722281493588796, -0.25616462651725214, 0.13781131952664516, 0.21294956217907282, -0.5691934164352008, 0.9425839413005318, 0.8673682187908228, 1.170203420968776, -0.7450710024864466, -0.15395330397071016, 0.48239671320438327, 0.19522368883541577, -0.12562247696685921, -0.07221973481248911, 0.25872863980730554, 0.6603365652189644, 0.32091664763698524, 0.048419147629594206, 0.07383403653411047, -0.42217171001135395, 0.031939958998063345, 0.5130284395775059, -0.09480916349607284, 0.4877219498735045, -0.11340535958592747, 0.28486016259140634, -0.3289399880633872, 0.33576503271113606, -0.009036699087165805, 0.3820064450589632, -0.2816589613253114, 0.017645072309091455, -0.4559583560195368, -0.429857361197431, -0.44502244350650944, 0.31251866069836215, 0.9932252488257427, -0.39153251161664276, -0.7256265671654376, 0.9906777690511376, 0.2960020447823738, 0.09931017679812015, -0.034074352825496645, 0.3719535639304575, 0.013897939291469782, -0.6669717294423078, -0.6447225873522009, -0.09993868966133698, 0.20532489675069376, -0.1269175408810109, -0.22162427674886565, -0.27733419945839544, 0.26909343334424096, 0.027423981781156126, -0.18418607552115396, 0.0013617465777642224, 0.36465302158376034, 0.23624390833212983, -0.2634857855929688], [0.09634241677497613, -0.33313879789410716, -0.39323650792406817, 0.2427799598070558, 0.4933351410798259, -0.24802631872010172, -0.49821025146865805, -0.3939345557574334,