[[0.0871113480757714, 0.2512534746196165, 0.4470154275320531, -0.33070385312376616, -0.5874799890366871, 0.29727284170562573, -0.18472842988917637, 0.4746659631085387, 0.12474515120673622, -0.13577544497184954, -0.34104246077077655, -0.3670142781333403, 0.4023132112163061, -0.4605855947274166, 0.2692616872750739, 0.26570045336353565, 0.37600042286799945, -0.3097170386635232, -0.46046760715366664, -0.152460607000749, 0.19890161947196117, -0.3234789326177855, -0.31077600030244157, 0.006225953341776903, -0.1326633520726396, -0.05999638789014141, -0.4491456882945119, -0.29595549078957945, -0.18109739626929477, 0.22221252253715804, -0.41489746430736346, -0.2935878820900947, -0.2903204302565205, -0.6561820844599511, -0.13580626986384386, -0.18846648411571576, 0.19372024690674222, 0.5521892775027025, 0.11965257006829666, 0.2540704303398728, -0.4760188355593186, -0.0378415668592303, -0.4186243924398605, 0.010836884539228885, -0.2432487329850036, 0.42307059642532957, -0.35778329114935054, 0.4426049717380345, -0.24269895541775394, 0.32134294032068633, 0.35817739259436754, -0.3835181688503318, 0.4096737016008491, 0.41408583948435734, -0.1368289335298719, -0.14897670204224844, 0.3583826681682519, 0.4148624695709826, -0.29605572262541435, 0.3321426835948687, -0.0794533783376028, -0.14153849745007221, 0.23229699137528773, -0.1712464752575112, -0.04355624501279069, 0.19815534876371504, 0.16358374450041574, -0.06564788746563109, 0.5267229883617898, -0.5051388199004648, 0.027511492293857895, 0.08615974115401735, -0.3207908942258698, 0.10582332050690527, -0.27846376020626373, -0.561390805798585, -0.25450510474976745, 0.3302226677697271, 0.22012668600137453, -0.3676443966450672, 0.23028785732114432, 0.34778203869335944, -0.03489531114084467, -0.17986685384895906, 0.13619830797013058, -0.36344118762634614, -0.5537162101701911, -0.002313201889126235, -0.22250864802865253, -0.2436169179941097, -0.5674008082696377, -0.5604670596826588, -0.22196330659531419, -0.34505454783438433, 0.13502044141445765, 0.5691970351665334, 0.22248205595524362, -0.18261879259213687, 0.18001907265688125, 0.027994902200731954, 0.0010607322390980753, -0.18006963655885821, -0.5110984556721542, -0.37184343542603404, -0.16793051694369526, 0.46821790586572815, 0.10144644126717434, -0.2516804509144039, -0.4619600796906205, -0.540651253465303, 0.5962617913672427, 0.40992647229306817, -0.2560917717962375, -0.15982246780180082, -0.18779250924841723, -0.11784756569529041, 0.33171289440533225, -0.3335041606676449, 0.3955635667349299, -0.38604206208773467, 0.04410084480170088, -0.36860302006194895, -0.4419703057488982, 0.12230171934204216, -0.23564570365643378, 0.08707261933608915, -0.2684451606859427, -0.3871838353167216, 0.13579854288853896, -0.0015961929082309175, -0.1428797204919742, 0.33976967263173297, 0.3934228372822324, -0.2570692121000538, 0.4057605063992684, -0.39449839926519703, 0.34194606465577165, -0.2703172755742002, 0.044337340954524365, -0.03052316407625741, -0.28494109562110354, 0.17299910054530165, -0.15026190634541717, 0.058847258324944314, -0.3440044992983132, 0.24914912001711945, -0.04446040023030107, 0.07996249905978275, -0.44019695138838055, 0.5406591095995907, -0.4790084618095795, 0.2476329513721772, 0.09423847639636547, -0.34623161988588486, -0.26277473727173667, -0.27349158743702984, -0.32580317175856016, -0.33754109952905625, 0.1840570300442459, 0.42091446091559026, 0.18885125758352125, -0.33415241688002895, 0.3522692323875208, 0.22490705762781502, 0.0007531384694404087, 0.38125817195159145, 0.08337535082863863, -0.07054691357885938, -0.02578383792142387, -0.17021315644853635, 0.5873239154519878, 0.045313600926447165, -0.3870087549163549, 0.3651462316992057, 0.13529681747753403, -0.3151006598167929, -0.4568640834163691, -0.002440441488627696, 0.16168197331179288, 0.4748344556624965, -0.3390731939786741, 0.08310736349364793, -0.27532062080620345, -0.02012431365885876, -0.46946638645709976, 0.11132874510881816, -0.3254579533799563, 0.3925148175976383, -0.5741824167060023, 0.48980502743919735, 0.22598669081061276, -0.22702173532450406, -0.389792871507371, -0.07639561933002521, -0.41200292849927234, 0.5683191786141205, -0.005308295766661355, -0.03342244995622151, -0.6118717467800336, -0.19342856535754996, 0.19262612910350657, -0.28088095976774563, -0.6753463484927181, 0.023400764406394298, 0.32802508803171454, 0.26529015896672486, -0.1151646831733041, -0.07350051675100179, -0.47016308282640257, -0.49244782370598333, 0.36775722338405215, 0.18089850257675968, -0.24034465391409596, -0.21236381986152134, -0.019159441324757064, -0.59224964474031, 0.15782311557773632, 0.17583496877729848, 0.4846280226007526, 0.3935458193585405, 0.12065270016795444, 0.32478946310072015, 0.12855163145214155, 0.38680670050971017, -0.4927396797303475, -0.15712133935677672, -0.44008032880323966, 0.10115485718911378, -0.052175252646528864, 0.3682852116595323, 0.2953987722199875, 0.288108822321866, -0.3371925067604711, -0.412409066792767, -0.04852382391564205, 0.3673888289787102, -0.36793031376497926, 0.026654913314132087, -0.3549396673484377, -0.26893596030545286, 0.2059011449447063, 0.12731023737080155, -0.16141409482954905, 0.33249882729413305, 0.3117871686617183, -0.2620275222591447, 0.1189462985572653, -0.4245040106360853, -0.40613862984762267, 0.3469008290692072, -0.29938448082857233, 0.03771156297592194, 0.13753776413023852, 0.1498593985166914, -0.5885639018903789, -0.02500441615027755, -0.23262733028658925, -0.16134538505071025, 0.3485734715753192, 0.060189839444714954, -0.20171545555920528], [-0.16395694520979764, 0.33067296626766746, 0.6261221898374996, 0.2729876095332077, -0.24327374634885066, -0.29695331003053616, -0.26331594816657766, 0.07081588002681298, 0.040971412445956736, -0.3274496948466838, -0.7050520188734619, 0.12069063002116433, -0.21807802113257613, -0.23608580726010067, 0.36784135252458255, -0.20476522939111036, -0.309546620819844, 0.16326514049877594, -0.1384545619530467, 0.1278937629525902, 0.4185775823935541, 0.0685879595174396, -0.2604084884699765, 0.03641422431344235, -0.3263838825507256, -0.16385389364846867, -0.06793093737732717, -0.527783953602773, 0.22132976006953153, 0.022019397392842446, 0.2458876419419924, 0.030719598486832787, 0.48207360095119167, -0.18376213158065113, -0.5346844077244779, -0.3973292699171275, 0.20414440924841798, -0.06116741652966145, 0.44170272556849555, -0.23344374827194134, -0.28611099499828585, 0.5413216584835737, 0.24773543689346067, 0.059899426625976006, 0.3664542438410823, -0.317952208169207, 0.06125294051171606, -0.15651194386360348, 0.39695538851294104, -0.510878015097973, -0.6173996219569947, -0.5148481641086914, -0.3152674334062757, -0.274587295867925, -0.345223644934966, 0.2173308811100506, -0.0503592381647539, -0.20922761487569366, -0.39468425254525646, 0.2901624949905622, -0.4384009069750803, -0.34103369715429194, 0.17858446657702898, -0.03145341859844277, 0.3503074806379497, -0.10060124137937886, 0.4595225857954223, -0.06562803221934102, 0.1280435075360651, -0.3750074021128184, 0.39984535839701313, 0.14785991046226954, -0.16292998103957185, -0.43811504816156005, 0.01258924272415487, -0.2629319572671459, -0.30508333399282445, 0.041919754656092476, -0.16414708901252562, -0.4084894883541092, 0.4391574387830762, 0.3806109132846792, -0.3989187230399873, 0.4094930281821283, -0.3619259559550375, -0.1271202157404338, -0.46610866054880257, 0.00035895656217431503, 0.07074087929479299, -0.17620407575173672, -0.23649788702147398, 0.20922386361287992, 0.22140146286930112, -0.21149380783826746, -0.4325297966516998, 0.09920182549024613, 0.03259140616587646, -0.0847399458944774, -0.027668485460817585, -0.3911772839669409, -0.5979614643628213, -0.2482477708900643, 0.20705362604007163, -0.18804100397151471, 0.6127166210637176, -0.5835079882636832, 0.20859147906281858, -0.2984575102672051, -0.3992742282498294, -0.03870377890672733, 0.01553410676398633, -0.5032212508936131, 0.01208385871829575, 0.5462166079538412, -0.4130211433813237, 0.2845296721708781, -0.3567850518217437, 0.3510572975337697, 0.1271753252560658, -0.20440510849172036, 0.3929133246096595, 0.041848747650700506, -0.22047969412122984, 0.2340166231138215, -0.3676964574975971, 0.3282894627344771, -0.03658910180728757, 0.36177549883330623, 0.37457417220273354, -0.13624627086101024, 0.26589304705757627, -0.5353474874591896, 0.4230380942247521, -0.47812195619054837, 0.5138904607442549, 0.0535655855477719, -0.4054029663051889, -0.44283852651535044, -0.18385197250893623, 0.39137073246382387, -0.4334759175139798, 0.3473975085161149, -0.49933468713836177, -0.2231109417620761, -0.017578597139998927, -0.3268853706646752, 0.12797561088616172, -0.096023761304928, -0.2727622254295979, -0.3671049932728734, -0.3096457951772697, 0.22134145762068955, 0.18931134789283438, -0.3190609608644027, 0.5762456554572192, 0.23580312785973548, -0.12023244088508114, -0.3347214872018335, -0.35446420026584924, 0.15901498504087216, 0.34837890329837623, -0.15629184305444682, -0.25293827029809324, -0.04887154299064192, -0.15960337501607189, -0.39105072304406996, 0.5416938175009748, -0.5524362278633206, 0.18656599536556417, 0.06872647634841593, -0.3192901798897118, -0.4773096238204385, 0.24514055898741777, 0.10232862920797413, 0.36321221075546256, 0.12055535196275532, -0.04985196385539917, 0.1344929711465225, 0.3733049897650178, -0.31276800508218994, -0.029518532693679874, -0.48988572424418253, 0.31267558791580474, 0.32392563640502686, 0.030992587843151714, -0.5399249286457735, -0.1786340838677707, 0.06841065016827891, -0.55242025649635, -0.3959222673745831, 0.318177014467271, -0.14155676546003204, 0.0641573600105494, -0.013796128212577561, -0.18793311607914712, -0.40599420315442714, 0.1659531559190351, -0.5183351256077013, -0.45037381677919924, 0.1338598626466217, -0.6064519675898571, -0.4225110469596707, -0.706056845621324, -0.16733924601723346, -0.3467604185383981, 0.159071096310948, -0.2694080496807836, -0.07309616867976965, 0.2744461617089273, 0.3523835703288275, -0.5271187677485353, 0.001977683996494541, 0.5293689213106436, 0.35555506662628505, 0.4153716458308015, 0.28278356195931886, 0.15031445540550697, 0.04878088257400308, -0.2287133683612743, -0.35780564714326524, -0.16559617298230028, -0.5970757541706372, 0.27141980621575557, -0.11821894051042953, 0.2211144982060353, -0.14581229724945768, -0.4879116425561082, -0.11451370567878195, -0.1274975299440874, -0.4950021513488628, 0.13001106514516636, 0.39594590993118495, 0.21144431435753708, -0.5652238000842945, -0.10009663260991176, 0.21605128689210445, -0.3262638561176469, -0.10449930543326984, -0.052472004600047695, -0.12279776254289058, 0.21644108205763415, -0.5559079333349745, -0.31713030280119586, -0.27351935138539435, -0.18058012312898883, -0.30071585531796924, -0.16255604922679273, -0.14533348807494129, 0.3798101977070132, -0.3345136633280869, -0.2977532360864908, 0.3048357827978321, 0.11213929536805836, 0.6755449208934272, -0.3920984291403924, 0.3973606133133682, -0.6961178282781257, 0.30612164412456205, 0.115848329113107, 0.29893997528031885, 0.3343287830148183], [-0.2557548590515046, 0.050110049711137375, 0.3033768733204841, -0.42760214600407903, -0.11990470799073472, 0.24255615947671402, 0.33186157524667464, -0.6180197642912547, -0.4978253685303948, 0.3406650599334564, 0.2216158946976727, 0.1500394445816162, -0.03267690369475905, -0.37526681604348994, -0.35542915248943674, 0.06811449097644441, -0.13833707224806516, 0.06827177245428256, 0.24977267433907424, 0.18766675567949484, -0.10921346621305066, 0.05101755651063828, -0.47510883743529897, -0.3907614663136802, 0.366122311079583, -0.006915102947252046, -0.5027830934329969, -0.5273179144732302, -0.6148960645211926, -0.03531339487198334, -0.4005381268343644, 0.027248851090314292, 0.005951687237788096, 0.07482693316642068, 0.16053228552594617, 0.07241136224416062, -0.09986134707164943, 0.0100190643404498, 0.16416686043641376, 0.5054901772106072, -0.19573588373815573, -0.011182563313006058, 0.31580482348905625, 0.37910831235948916, 0.45954318013958334, -0.563325412545911, 0.2112228117554902, -0.3698131030703115, -0.23747218779629595, 0.022424886393703526, 0.5184027312616338, -0.37835150074423834, -0.3183633120687455, -0.4338143743946189, 0.2254430114924287, 0.4638749236665646, -0.20274783072145686, 0.17176825273230933, -0.2213830059506214, -0.33145754925418985, 0.47628257040326305, 0.23175166492540403, 0.007925133028498992, 0.4631285131920299, 0.27566502062857273, -0.2908052794262002, -0.34889125330000287, -0.20477858291216564, -0.27130347550387307, -0.16996620917395297, -0.030579663722695907, -0.4027743857010535, -0.5010916755377945, -0.16238709256020503, 0.18302686530074908, -0.12604270174185764, 0.5605434775047687, 0.14393928381765095, -0.2995457281683539, -0.16127532100752293, -0.608686951495235, 0.03930183261825387, -0.5013103050746464, -0.16298980496267126, 0.4704395415410657, 0.306549452872781, -0.46533851551993943, 0.44436789654786407, 0.26397536541224326, -0.5496885716720686, -0.06550860166694644, 0.33545695564185807, -0.3741283384661056, -0.5260133651412797, -0.25091405184557014, 0.005408414013944132, 0.4344964603103609, -0.36446093004537666, -0.46920099511708846, -0.49171884108024866, -0.12240638730424559, 0.3983348505389333, -0.4571965023635878, -0.19735826718520114, -0.5858271551725059, -0.17163396654494983, 0.18722898135927724, 0.0775087920797874, -0.4473873801911506, -0.30457704234342425, -0.508025656186539, -0.4470742901201887, 0.043653422237077376, 0.21210160403077474, 0.26194972005430855, -0.2617800458450349, 0.18726469400975265, 0.3926477777933814, 0.36887473566138546, -0.2476817110313447, 0.13764334348943552, 0.08977906796165021, -0.45023412642683774, 0.27631554560115046, -0.09788684653486192, -0.1670387425367388, -0.47517476933757813, -0.3587285332461506, -0.38473255765794423, 0.07287347002139814, -0.5217411709660655, -0.5975044089613771, -0.1394784657364917, -0.619310674711408, -0.4003435723734462, -0.36242504091828676, 0.01754382242121171, 0.3110141967583964, -0.16669674837465115, -0.06211949531338603, 0.14122985242359892, -0.1115286978941789, -0.06871311541117082, -0.5413650715074276, 0.06306213588836711, 0.31273768858175616, -0.6944030106272467, -0.19598397667691878, 0.49270180691374155, -0.14713442665548826, 0.3233417272146686, 0.11544215628318681, 0.05447275487886226, -0.12481871258036176, 0.4877534775916314, -0.2887744333469749, -0.18876028464664166, 0.506595082017562, 0.5056086568738464, 0.5126783917053783, -0.2805443681047922, 0.5182661065504988, 0.2293403013593395, 0.055990015974352936, -0.3283372466280448, 0.12877993891550887, -0.2754434968467207, -0.3603781818540204, -0.35964876178998445, 0.11740448152242586, 0.07285845899148022, -0.3551277218721169, -0.09602449274178702, 0.03313708184380994, 0.20876515681767102, 0.013456986475317942, 0.1418168531717019, 0.4280023560557882, -0.23584527607186676, 0.15192658175003496, 0.16037762771110087, 0.3768711293040542, 0.12722242616639473, -0.41731991474882246, -0.10035513885435228, -0.2895100445871195, -0.061063622880417556, -0.03173537267373095, -0.37649984465974584, -0.15298547455008457, 0.3162458812091982, -0.39461416649050446, -0.2192016402564063, -0.4030212079590051, 0.1426270153723753, -0.4381723251929679, 0.2795705834520052, 0.2669745037945748, -0.18604590700796161, -0.1718252777108292, -0.06622518732057057, -0.24750117018498938, -0.33877874474156866, -0.3384850639935891, 0.34441598478741153, -0.38159216086111003, 0.44427941686648476, -0.13090569665086188, -0.337882576856171, 0.31125825214293246, 0.28358265488660417, -0.11853442850799503, -0.3378559527423817, 0.33674591633829576, -0.4331950877712156, -0.2787739238545185, -0.058202927147313996, 0.21036737402473404, 0.25780331603121515, -0.45270132535463764, 0.5002042257787173, 0.286608610331222, -0.07455949924938139, -0.5324893373578048, 0.15617187038180355, -0.5383539842573813, -0.53721305207914, -0.1059949157957361, 0.15125989394478592, 0.09002220094135437, 0.3155262087719036, 0.41877109531177104, 0.4698930884497827, 0.2195200150538893, -0.3838833106742415, -0.2643099058147984, -0.43015225518090766, -0.13979016286742763, 0.49634593086486584, 0.0804554493795585, 0.11230135801503606, 0.31206611014615304, -0.3137970264674124, 0.04699684295621299, -0.04710865185026471, -0.11764594723141066, 0.4680004154167618, 0.2768259556369497, 0.040083417591455124, 0.47286926304079646, -0.3546231785045446, 0.09241213620630112, -0.5040353542073198, -0.2560801692360812, 0.4545859171915499, -0.10513827050988447, 0.020094751022914106, 0.0636349887880111, 0.13116032779418804, -0.10807539201022741, 0.0338871026400395], [-0.28692414755290524, 0.19493254263237966, 0.5342966714957831, -0.0748000758976619, 0.23536357280819967, -0.3700730875149842, 0.42955260760470715, -0.2316879426365933, 0.43314156248001895, -0.5461138363842231, 0.09416963345143113, -0.07886184248287072, -0.3167683636503828, 0.33082018244197753, 0.3045546226259899, 0.3067028844373596, -0.07312253154682619, -0.19462174615969424, -0.43088855375459517, -0.3467296849901729, -0.23458823997605896, 0.37402232712517275, -0.12439365877281625, 0.566681289844445, 0.258983014721113, -0.34148599278380554, -0.5005995910970749, -0.3260091854656996, -0.20757929329461972, -0.02181095487332538, 0.0022568003104504147, -0.46879649656239275, -0.44092201050396035, 0.21784784136039265, 0.12551281003495407, -0.025219757753638824, -0.29543989485305494, -0.4388854166134716, 0.08729982277962198, -0.2093507709876682, 0.22106786640522408, -0.45556300745689765, 0.3560700434924566, -0.42012870630611776, -0.3081102347483655, -0.16883203538583894, 0.2480527409131574, 0.06816555005267586, 0.07021891989403112, -0.24419172294235586, -0.16151557610788225, 0.34111923670080957, -0.2812605815655324, 0.1903313110639283, 0.406658884194767, 0.16852795842124146, -0.18478013950396005, 0.028797920617588707, -0.6737423105747816, -0.5252967296903269, 0.02438367938932232, 0.3595081054722063, -0.4820159975679157, -0.39287016017212445, -0.020667469292061168, 0.3986383948830241, 0.11704904489477143, 0.21532451807845573, 0.4007908087974821, -0.3847377403914096, -0.4089507992313713, -0.11836516976567885, -0.33106223143665336, 0.43898421450013264, 0.12688925452200517, 0.31834440433496464, -0.4729285338351613, 0.46198126396526246, 0.22433350233077246, -0.47205324828321393, -0.06331766186316323, 0.11978081549051461, -0.28939411493131617, 0.13006547546445862, 0.060094793542562856, -0.5184271699421811, 5.2830687715477035e-05, -0.18776169512534058, -0.30681167070477305, -0.05837848961323464, -0.43218675543138907, -0.6352087071847967, 0.3593331700746906, 0.1933903918006691, -0.4594464042982376, -0.23182408698912965, -0.6020138292274756, -0.028811572881627053, -0.31884058263064596, 0.34637093055154766, 0.11544394952909105, 0.5474768548579417, 0.2593868723620514, -0.4125225645740162, 0.08522809410395059, -0.29375886635840626, -0.30625818798772486, 0.06816997150161057, 0.09608050366979523, -0.3583873379406041, 0.03920139766872109, 0.4010987960103408, -0.1943341951288067, -0.40322127761039717, -0.434724711397963, -0.6732815424822769, -0.46766281088642586, 0.4641706397851708, -0.17183414580770107, -0.2749289649476235, 0.05258563874272437, 0.16104359023913908, -0.5423162352637333, 0.31800364514121043, 0.07437783131570201, 0.581888214409852, -0.11545178949888855, -0.17517257274063722, 0.045226018284630826, -0.41176193770653974, -0.4818191528257389, -0.4534175691683574, -0.4948163653341423, 0.3530626653106475, -0.033920810963147675, -0.05147132020966694, 0.3291479103746389, 0.4347217093026802, -0.34825627361394185, -0.5950659290919088, -0.2648042435805342, 0.3308573006335081, 0.27741545780499405, 0.3603004890713609, -0.15686307801645996, 0.3790507398815843, -0.09591208529121883, 0.010518435818013098, -0.0856807502335641, -0.4398825074834802, -0.6960881486270873, -0.1891928784728697, -0.15387989982677328, -0.036138008709658734, 0.2942090650602022, -0.1233099243028535, -0.08935811072494526, 0.3802425657026842, 0.06793897589534839, 0.2111103793588821, -0.37778722717382385, 0.23679094599321168, -0.5782129704902857, 0.02076121892636965, -0.07245121422887416, 0.012246444754417461, 0.14681366942010618, -0.20588242393431436, -0.18811422676246517, 0.19696274411943582, -0.13247704366658983, -0.17219353505192717, 0.33797007964009257, -0.5047635620093991, 0.09127926837762235, -0.10418162229604551, 0.2071804158257002, 0.23108127405174483, -0.6148495777104089, 0.10224345734767712, -0.18578476034728345, 0.05803986199549313, 0.20180601516757674, 0.0024985594864491583, -0.10876340449069159, -0.23651492347934805, -0.31268605896732415, 0.1738626436269, -0.35860246128848766, 0.4210368931956524, 0.12245636308014737, -0.09034367431445563, -0.11297012148827872, 0.16765079275896122, 0.3802330465130443, 0.06701535192137274, -0.01909428726766314, -0.2572144503500636, -0.2115380528790691, 0.3162666007281381, -0.08506958000401527, 0.4841597100577476, 0.22648766070295945, -0.03084902656353786, 0.11503980050744403, -0.1322608220106947, 0.679094603575544, -0.13583147338865206, -0.36378524635299264, -0.3356819851962293, 0.4734557079582945, 0.053186569619877166, 0.128664695333821, 0.3083826592184844, -0.13868140492914774, 0.4172853610772901, 0.05372595216930827, 0.034821586151900126, -0.07263569517736475, 0.22077189942774963, -0.28712723724057254, -0.4528838912798507, 0.029994596024234047, -0.38203303040275904, -0.6596265249325091, 0.04113565986121031, -0.15102064855184458, -0.4561534071855872, 0.31764235535601326, 0.26208479276726804, -0.10214123733634779, 0.3331789353281571, -0.3353125423972662, 0.10969081733644173, -0.0247184648087823, 0.21181526624464547, 0.34190692958083657, 0.41159961245428944, 0.027712107067426345, 0.33779917291815176, 0.4443926857323549, 0.2047600674714303, -0.5402602467004859, -0.3083899074547349, -0.17686800508935094, 0.2940222271550266, -0.40698769295093523, -0.763172294393389, -0.1975458683044501, 0.25653702423499675, 0.3417323746006141, 0.06374920469614818, 0.05134505734658968, -0.7594642770539968, 0.14667877664899515, 0.33066361464426663, -0.12476690727929472, 0.06372055219707476, -0.30086017175735846, -0.4115481846832201, 0.3317268966959301], [0.17624371351294943, -0.5584509056011602, -0.5261296625033794, -0.16098304172159686, -0.5785507860518195, 0.5215043916021266, -0.41093069739363675, -0.13317526162537582, -0.09115882155123049, 0.06512922934203205, -0.05807733139880496, 0.28414699817300904, -0.39052575633761566, -0.15812073322138834, -0.2650739404778382, 0.06929974951355822, -0.1964341477467135, 0.31469874983807195, -0.19075400611474458, 0.11116265590177081, -0.4836202460220406, -0.32519648800755946, -0.28451184272986624, -0.36488395933312684, 0.41042423669765377, 0.16125208213013134, -0.3350727037188709, 0.4442457342163759, -0.6347210691535471, 0.3740716859202257, -0.16468051207021633, -0.44614602291080463, 0.2678740661336765, -0.03887518239055563, -0.35832038218750073, -0.1375725734289066, -0.07774822398822312, -0.220853189717214, 0.3387080871099714, -0.36448235850978444, -0.19115736445904227, 0.0670131915189892, -0.6631127367814937, -0.009459896751193984, 0.15615789754904497, -0.0288175952790553, -0.1892421516017722, -0.5682103638585831, 0.6250932490793872, -0.2209968887805615, 0.05973809422717858, 0.4120949432854099, -0.5591344660827183, 0.04288436923140507, -0.2903619335839434, -0.0559988006279362, 0.022574191477932343, -0.16635687973051438, 0.01072618072881155, -0.35755236066672125, -0.7504182219788943, -0.17847743091456875, 0.23600569677002745, 0.2843139630735229, 0.20211088734095173, 0.08458387082894736, 0.08258514174466225, 0.18282624968931768, 0.09236958499083088, 0.4995229364794481, 0.3701950812922785, -0.5839412050163284, -0.23251088317360508, 0.19799586520702653, 0.16834503651620286, 0.22112839978615106, -0.3893401710883751, 0.13994954203917495, 0.38820042943133903, -0.39257758701092693, -0.219020228464014, -0.23094270134800246, 0.0973746891834863, -0.15112725230917523, 0.34426402946771845, 0.08256948450249774, -0.08645328276692797, 0.1511902786770358, -0.08250923874899485, 0.5163013256355756, 0.573010440529617, 0.3353950180988881, -0.28707877974333174, 0.34839278544490193, 0.2621267690972754, 0.48486390403487933, 0.19381659087552996, -0.49284996820455573, 0.32226472589973615, 0.22913941356527442, 0.3263078130420778, -0.35473158184263487, 0.44247361975944516, -0.16527460008289108, -0.2292908160592273, -0.43459871153825236, 0.24213947898852767, -0.44944153817758375, -0.5443144711933836, -0.3698105759234185, -0.5851452689445988, -0.07090715036439021, 0.28031958245389216, -0.38504713590709105, -0.06518219507386719, 0.3960530848467115, -0.12380633568484686, 0.49401581215713336, -0.22501845110552152, -0.07004665188188444, -0.13788227331196123, -0.2527404329890154, -0.07601670310481971, -0.10044639212757568, -0.017806001956987567, 0.4256640204704347, 0.5270299189975657, 0.1205250715372586, 0.3894007872998423, -0.14662968131552104, 0.154936325324287, -0.31140297539583617, -0.30210839874416767, 0.1589654643442649, -0.22573777562970224, 0.38847368306772223, 0.2601074932893844, -0.004385884802198717, -0.26673253869419106, -0.4896208501627798, -0.40042526420904795, -0.24428992713936692, -0.3149183337859572, 0.4094032802799698, -0.45532200107491616, 0.23262757382914107, -0.43001058359175487, 0.4322370099182013, 0.25123638467410153, -0.3312056641235097, -0.44048142640050536, 0.5163723100195003, -0.5609716695039073, 0.13601677900149503, 0.37917558758091496, 0.36576412441896755, -0.055306306052367124, 0.2601297161633154, -0.08695252693552954, -0.1980714476662724, -0.275348890739352, -0.25010857024678756, 0.024818386119922358, 0.5271090944053524, -0.276331632712095, -0.6436178728138233, 0.3743435668931784, 0.1750364929212374, 0.1768239767826066, 0.07634422665207512, -0.5891801881328369, -0.03974334406204658, 0.20876327124121938, -0.027926378259579866, -0.6259331698378642, -0.6396351256546534, -0.7365727170508627, -0.07426097786440952, -0.44437331740159913, -0.308438495671538, -0.16552939154476942, -0.324041840157965, -0.22945765885250438, -0.37704798877176227, -0.038739414185218375, -0.32819705334679067, 0.18177717115963604, 0.021257443698854357, 0.0850654883070443, -0.024701514656162125, 0.033857179116699554, 0.04220615778711021, 0.23782337560681732, -0.28386103938238755, -0.37090870876478327, 0.07074939205930365, -0.40834843147891975, 0.2296861216408488, 0.5717296820923409, 0.13187311113665462, 0.1028430144037054, 0.10918468205612801, 0.499604887901695, -0.3611089086811795, -0.47308759516949733, 0.18497601480485254, -0.7430965215931529, -0.17997433228111523, 0.23506543820707063, 0.5139603535101944, -0.19250454355107513, -0.42446463378442606, -0.33447017589522954, 0.13016001381355477, 0.27786403004379984, -0.47367609094840707, -0.4619710300221101, -0.2747593547708548, 0.2727277556489051, -0.54381523502383, -0.11369977647301399, -0.4043252746401113, 0.43427196128480033, -0.1726942668033602, 0.27242978969577436, 0.019237522837600555, -0.535812799742428, -0.11726413010835628, -0.08879074889517233, 0.27717241645592977, -0.4858274640990927, -0.01929391987038536, 0.34945453758088163, 0.2884356661755234, 0.0038521564042558335, -0.21104266139650896, -0.40706682736499666, 0.10821406834735639, -0.3930854194248479, -0.5000815761802531, -0.4126716992101939, 0.052026050392143475, 0.10153200747967847, -0.36085428746743325, 0.35684112484401265, 0.18346544592476532, -0.4044134935643257, 0.08199824740486289, -0.4180523291742468, -0.5656665491528767, 0.2679177204044786, -0.5149806220930789, -0.41565471562895523, -0.2799510845152169, 0.28886164662450575, 0.2750711499011336, 0.3551805601681037, 0.5620762546552659, 0.225220627068363, 0.16119002561721885, 0.1469558771523361], [-0.3192393094214867, -0.6592232574601419, -0.31141399661827773, -0.2767936276407298, -0.17664492338985568, -0.49007489125068826, 0.09869206630204683, 0.08519338294862495, -0.5246984856158248, -0.36676881521407406, 0.015172629869574406, -0.4093086704259109, 0.13221474770796537, 0.19851896771982233, 0.16978495865449061, 0.06112201603595439, -0.534498009122196, 0.18022512390820633, -0.2144579293772486, -0.18447825595085013, 0.1809709151145457, -0.33295709155717484, 0.032303287898042536, 0.1057204628316788, -0.4956137701617697, 0.36851860268906544, -0.33297768650054915, -0.19937855496477014, 0.4631841590064907, 0.11724011492251066, -0.0010953791118583785, -0.4234161811053663, -0.16016229113900596, -0.25439604409577327, -0.2269505950970688, 0.19096428534265164, -0.7380447436078134, 0.24061916745958523, 0.11293475202687087, 0.27311014536739436, 0.007880491860365605, 0.20801664359570526, 0.5335803564241887, -0.2926919301359938, -0.1653916383754555, 0.007557174350276399, -0.5169356788503425, -0.5140896397676029, 0.05489998961206249, -0.26873725281994437, -0.34139866659764695, -0.40843817393081555, 0.09675185700330209, 0.2726895577954209, 0.036149085509691564, -0.4897696657196384, -0.40406976188048765, -0.3505762364037507, -0.8570154131269744, -0.3217775281630633, -0.6114231316592889, 0.09896024771948245, -0.1266987193878637, 0.13177320046102486, 0.33437428053879553, -0.541881635398741, -0.16418150625551076, 0.058304799309546566, 0.06451977001485883, -0.5596687440031826, -0.7501946960432188, 0.1447791246145705, 0.23133742128932258, 0.2492085284557144, 0.251922493764841, 0.14200739202085255, 0.05703884445338396, -0.1075929054250098, 0.31306317668903516, -0.23273401307281633, -0.08298452156480929, -0.10512788534196604, 0.36386166744320025, 0.0541723087244003, -0.23421288103402207, 0.5973375555404912, -0.3132836560876441, 0.20997708425313455, -0.30840178415378194, 0.4879479085946702, 0.251533775476128, 0.418508991009516, 0.2965661824671714, 0.6087693078928132, -0.4809147376522103, 0.28406374382306243, 0.21187789993164746, -0.40769641299977194, -0.38472716304908705, -0.49982641495794344, 0.3545690003581446, -0.30966707685506345, -0.086808697907819, 0.4863774296516861, -0.4631130597796069, 0.32711890935708343, -0.42171810029467677, -0.14298131409894166, 0.19101831435011518, -0.018055476535968434, 0.016170825261610004, -0.006251263953453919, -0.3656838667179946, -0.2160991577027823, 0.0036667651199423306, -0.12508990869801767, 0.3664789754736723, -0.42758142809925215, 0.24674080463670978, -0.01500660119704375, 0.1653424500188336, 0.7439418948390573, -0.3840136123663163, -0.41516281553411805, 0.2494099940650755, -0.26034499671464817, -0.05689221636520167, 0.2004963105691731, -0.4470452156552871, -0.21843268065788513, 0.3153363439203145, 0.3066978529847831, 0.2156524550262008, -0.30436722277531225, 0.16527172614580615, -0.4832797028546883, -0.10703273167179787, 0.2117646741484589, 0.5924331759046597, -0.6067382997519537, -0.3552566432978817, 0.231712446147248, 0.24995192100760136, 0.5297293209720015, -0.44009103740744143, -0.030311617178059816, 0.09045521081243056, 0.07412777446763981, -0.4015120333439067, 0.3248188117766945, 0.38396263412155945, 0.41607528907524816, 0.43388008967827174, 0.009965280690716085, -0.21190362773804935, 0.010837091529028018, -0.4121164140991224, 0.4881629444216414, 0.5628334602944405, 0.19433994514376837, -0.10081177590095985, 0.25297670234378955, 0.07628203536952523, -0.03963421546147053, -0.22034104276936944, 0.18035574765055315, -0.15611884006358676, -0.4467213634701868, 0.22183309035798096, -0.16671917563783156, -0.5310756707132838, 0.4189203304559561, -0.10108115554314982, 0.6382658512960302, -0.20222038879062654, 0.3511463056255844, -0.4977210853391149, -0.007928017071265756, 0.5764152313260121, -0.34213114984977167, 0.26192675451833497, 0.11977120607468411, 0.06523964167468278, -0.003497451568420386, 0.29860689420135994, -0.3098699319046645, 0.3988656137472947, -0.1589884568966187, -0.15660171832041472, 0.07477984232253179, -0.01914974769225032, 0.22600215807202953, -0.0028421421746090726, -0.38493002014547, -0.03863294380104507, -0.01846680534589777, 0.022705664779168945, 0.021770186722257185, -0.3661415786044128, -0.3867513017134487, -0.2286283539978483, -0.5203407919792243, 0.662184571206321, -0.3404199154424735, 0.27797204134144243, 0.020872362746302178, 0.5230433084518107, -0.3277242979518439, -0.15132520204695446, 0.5739706988833516, -0.22703927806474203, -0.34151516287615263, -0.5048002123820092, -0.5128276641513811, 0.1758015771472413, 0.3896840876356973, -0.026109916303811417, -0.3267473952756917, -0.48882383387821154, 0.2973564627552146, 0.3403290968359593, 0.3496229445688136, -0.11701639827433767, -0.30945680299555356, -0.1679307739095733, -0.101672812961229, -0.22364199241396604, -0.4782443088484999, 0.13801073023125357, 0.27920320856434455, -0.29644899588067447, 0.00016332607723298218, -0.023320141399299076, 0.012804072476394004, 0.3530846876152979, -0.28835460002087276, -0.026687990582522254, 0.2640549423915366, 0.2003762633171177, -0.06972405276994592, 0.03223965305399979, -0.6245871390364537, 0.0894531648644933, -0.17248830151665784, 0.5139020744549618, -0.33495446730493766, 0.5952612325923565, 0.3735088006226814, 0.22375228620578885, -0.3335559278400275, -0.09698345246751063, 0.4208179629445645, -0.36608425959105556, 0.4918635543537299, -0.06017347238765857, -0.10683578660480776, -0.34566351015100283, -0.3456970074781362, -0.3360091115458098, -0.6274241698620943, -0.4243691624082973], [-0.06958966178264656, -0.05701617374130245, 0.26263664236996875, -0.4637614794382167, -0.25292594390929546, 0.19943620163032175, -0.44036692879045697, -0.2787084779287704, 0.4453348674917433, -0.3064236105207005, -0.26842436168753664, 0.015483286880410568, 0.4014042865433718, -0.29413089550152266, 0.43344370746286376, 0.30508713538393617, 0.13930393593717938, -0.3540509440104902, -0.10091255039757581, 0.007376867639952206, -0.29325813238989723, 0.3473813244892813, -0.5419224541862802, -0.5957598147593254, -0.05696359623453225, -0.2558324669986508, -0.31061655104403585, -0.15741530038871349, -0.010292650688349843, -0.43234455039119496, -0.3033969988639912, 0.11472698231586723, -0.49805002934572823, -0.31405751909665364, -0.29234530873913084, -0.15283566852106614, -0.29746542924212077, 0.32089325649778855, 0.32128521132168747, 0.44433613213753426, 0.2930634542632294, 0.15160268522025072, 0.04228817567638035, 0.03431603855717054, -0.20087943846749626, -0.1629387940826069, -0.3617771532929854, -0.31844396195931624, 0.42702130233814517, -0.22813276161151352, 0.31880586421506674, -0.6043891802999108, -0.4620337918163688, -0.7617761740719727, 0.3128200018355359, -0.320526167446589, -0.3226589471575718, -0.3610750584239084, 0.3218177091984515, -0.5715984233737976, 0.5138449441636234, -0.07225959498300702, 0.06900824682820074, 0.12152270899338899, -0.6855178377202795, 0.21811407460445176, -0.4543909361486667, 0.3505694427237073, 0.4321057185291066, -0.3753846591182094, 0.06810261901195504, -0.31111070721518097, -0.5276772442732307, -0.06917499987880518, -0.09495670812391523, -0.05201596837948888, 0.11540170827529475, -0.19636397619958554, 0.034665374075038495, -0.20503953139622602, -0.8147500202119958, 0.4738962949255375, 0.3109458456161428, 0.18231326131593897, -0.05836089165295165, -0.37328180797296345, 0.2755702282283925, -0.16691849445052007, -0.21213361779319598, -0.5333276245029128, -0.3515462822070106, -0.17997191015905298, 0.13723380407961802, 0.0803097929011675, 0.387090300951512, 0.15385993607850723, 0.3716020969747357, -0.11791455552228795, -0.2698308419884063, 0.35364248218603733, 0.18268391817358368, -0.6880291118206852, 0.24910204217763673, 0.4120020623740567, -0.6079847810611808, -0.00803099271752038, -0.34112160316577117, -0.5929718684663532, -0.19766291615881637, -0.030908254472536312, -0.08325101938678008, 0.00956238760013891, 0.35893125928166614, -0.18513470823961922, 0.24126175333257416, -0.4079265564582105, 0.4662654703346109, 0.1293859705426656, -0.10231173376908649, -0.3745345164921127, 0.2182800424242102, 0.07620769560628562, 0.07185897804720204, 0.11281419248942273, -0.5105748181158443, -0.018534224585176725, 0.0025244631004024214, -0.38807163228111186, 0.025504176770268477, -0.0626728337358434, -0.2496690107157684, -0.10592135182352595, -0.03918990380994812, -0.28811715242018016, 0.49761446897422046, 0.247927925985417, 0.037142777111022214, 0.12886827891084635, 0.7017861702666198, 0.3746756349906107, -0.04418880668666776, 0.35593730806071877, 0.16444993549636294, -0.10713376447712014, 0.079426588400307, 0.19529780444363598, 0.28919392698098945, 0.37966317541848116, -0.09201398195311127, 0.37382811718927567, 0.22274109298333422, -0.1743068433855136, -0.11863206447549378, -0.2653357036220869, 0.115742396957015, -0.025211691562362422, 0.546218881015144, -0.16085046269624895, -0.5829935928102756, -0.29602353727539366, -0.5899551533801635, -0.5930802553410138, 0.09621696530391749, 0.16952766385249568, 0.07752609800675493, -0.23524131503622586, -0.21296428900915754, 0.5161623709806603, 0.37903445953123877, 0.32900185210482974, -0.46531795690117833, 0.47978451529326516, -0.397112271644085, 0.0837307509219842, -0.2168907530509179, -0.5768476553218432, 0.29801636108729457, 0.2878188830449748, 0.5673476054541821, -0.17480647043016426, -0.5012998057748024, 0.3611822698690599, -0.29313799554043607, 0.4523522996328228, 0.3564836371461314, -0.12258159980519742, -0.2137535365897721, 0.05811320027877891, 0.08451709649258603, -0.35095306264792253, 0.11519643905426721, 0.046743484996159324, 0.0012084540266739745, 0.13022562887109157, 0.06391912517157437, -0.03100085353041243, 0.133411866323684, -0.38548634748473715, 0.3046420931882277, 0.0013376879733453353, 0.21199448327605067, -0.627159872353315, 0.4246353491122403, 0.066717098850711, -0.39947569516737863, -0.38921221323650546, 0.31471379031409635, 0.31458964092274805, -0.3784288771529603, 0.45283973171947733, 0.2792108603831101, 0.23228036860102363, -0.07762357869449067, -0.22825491718334773, -0.3583926436893968, -0.326627959497543, 0.3852970478696967, -0.15128248840448202, -0.1967000961506131, 0.32514889200464714, 0.36048458606677186, -0.29640253300507524, 0.34754961776572213, -0.12117623039187102, -0.6037767357145299, -0.24996929900260761, -0.21430944767677898, -0.3475506037964577, 0.2769984803876445, -0.020584459957641035, -0.40709558977784793, -0.45637545232601073, 0.013661233776524678, -0.3372533181226347, -0.05189789325738649, -0.022914903633157905, 0.6213579109740462, -0.13226040928296057, 0.10249062822172676, -0.2454120032205318, -0.23224764207464133, 0.397559200647736, 0.0693937920091822, -0.440335331627021, -0.24275100205687863, 0.21669826418665722, 0.25383860648972684, 0.34912651941807993, 0.30171538998227476, 0.22285174535651214, 0.38424788373323293, -0.48082115562187056, -0.0670642214411242, -0.47633173019329367, -0.3938904997634835, -0.42861542506758815, -0.00686960710135265, -0.2419379245597447, 0.33447887265553894, -0.12832297668555728, -0.3074685188819394], [-0.4844549026265868, -0.4696048698889651, -0.11011407191045262, 0.3179226706218938, 0.030532699973890253, 0.11741697208948428, -0.3636698379613277, 0.002054644256457181, -0.11986395711302526, 0.26645134563060285, 0.2035061145982304, 0.25982833420322266, 0.06892196173105965, -0.09448467528956249, -0.412895276686683, -0.20971457659902284, -0.028857388508350606, -0.32320498605603537, 0.3920975092224388, 0.43630937696746097, -0.0567328972457329, -0.525387888072428, -0.02060165465233101, 0.4260861074533934, 0.30610049390837907, 0.05812425085111056, 0.1824694226708081, -0.03606012363355557, 0.20032750322748202, -0.27852174808885033, 0.5716079736406766, 0.22139432132632897, 0.31030686735148094, -0.5483455222864959, -0.5347937904306002, 0.16669824542324768, 0.22259706756602637, -0.07658649196480523, 0.3035005084224052, 0.44460944013091264, -0.5730107957924071, 0.031737957271233776, -0.2890341381530347, -0.6776747879051931, -0.012644942952296425, 0.3072087906327158, 0.2466163963197034, -0.22380649536501132, 0.022050387951888302, -0.272365374760293, 0.07268941211874985, -0.3578810508518926, 0.6175376459735876, 0.06884277391329174, 0.3411379699669316, 0.003289235352469947, 0.04194100056155885, 0.4786885152213301, 0.05762705139255338, -0.2742852950166393, 0.18543412541496387, -0.04740761903321105, 0.47172165302516034, -0.37030850861100706, 0.21825392867787524, -0.018481753102146947, 0.3955897637730334, -0.17029859998744085, -0.24704704128241473, 0.29401176869413365, 0.2507426536006315, 0.4634400388273412, 0.41922935507766934, -0.26261529004889683, -0.3078608185606723, -0.10417015721633807, 0.06695034975774121, 0.36057353538674697, 0.16816648699822737, -0.03155353112702895, 0.45435650327209925, 0.31352028039377866, -0.20517206271911825, 0.2367150157303065, -0.12445419921012406, 0.22136074253300703, 0.12731839361519404, 0.10192599960050573, -0.43343709054013285, -0.41080180024758495, -0.43754930062985026, 0.159935439740353, -0.15734382484960413, -0.1543871503736934, -0.40322740067888746, -0.37993568029272295, 0.08845273357020254, 0.5378766758288144, -0.04442739969804339, -0.2638376339831136, -0.16708639533608138, 0.17360658161110132, 0.3674752059655456, 0.16208414588242054, 0.31914910421047976, 0.1832980667349131, -0.14084507734264184, -0.5662285121636557, -0.21184445473663174, -0.07116743434089262, -0.15461727217943086, 0.15579973384620432, -0.16163425145261054, 0.05519943298041233, 0.09177115082147305, 0.13924545588666468, -0.11348368116898576, -0.2144782545235792, -0.42930631036181693, -0.5523121014475341, 0.29646458248301344, -0.4126140891885083, 0.2963872780144798, -0.18523297422819143, 0.4740331764724129, 0.15749513027801987, -0.008775272939806159, -0.4334001760703305, 0.11593494243426113, -0.05374178606791654, 0.003596859025494103, 0.07036416044602953, -0.11858922656680793, -0.4240426452236072, 0.2423913497077601, -0.22171517093067977, -0.190823771389607, -0.7318994313012278, -0.31168253420156283, 0.014515791031936436, -0.21421557138221337, 0.4280650893532905, 0.09876515147691184, 0.04406390002195188, -0.5512293133305609, -0.1436544030280301, 0.13989169651519395, -0.018309687415850495, -0.6349317691010605, -0.4042612904617664, 0.20817198723883126, 0.426015797879941, 0.4127342524664855, -0.06660102061833596, -0.2538926224929647, 0.38565213582445695, -0.30868426042102326, 0.2561161667147029, -0.010379887192551032, -0.3249817224695737, 0.46144103572148815, -0.4684150935964059, 0.15213813640430462, -0.15188919560908343, -0.09124222284544037, -0.556954505058527, -0.08406266615869509, 0.30823981164653425, -0.4632115784672503, -0.2564915610882858, 0.4953108098749991, 0.28350264971750283, -0.37225987800793825, 0.07168679703408268, -0.2051263521903498, -0.06181699228592434, -0.56900844378375, 0.2183592050796842, 0.47320753456149306, -0.21089901027361282, 0.41753062922452056, 0.43132147577513746, 0.024195605104230702, 0.0692952768857115, -0.021905436391470284, -0.4905660589123241, 0.3318895382577792, 0.01136296457782151, -0.49309002520558803, -0.16521323007983493, 0.3998883688620244, -0.10122769029792833, 0.6033578554944826, 0.41688224358772946, 0.16075446792872053, -0.18375874014484236, -0.42585055686491197, 0.1056850578539795, 0.19849959619762364, -0.1668192023893319, -0.11751161273199755, -0.19428240716774178, -0.011153049625008075, -0.41388330783519883, 0.38593948212053997, -0.24002874593648518, -0.24598418764124672, -0.36856982302327934, -0.5980002128717464, 0.48261723170054244, 0.08701717342345844, -0.41428123844346415, -0.28593955966453366, -0.09823744894037967, -0.2609729628237742, -0.2736911720056704, -0.5626324431294709, 0.5215777603124949, 0.6162006384115888, -0.16122568537880363, -0.3457688041729397, -0.30752999306444323, 0.25325449218853596, 0.018879371600532206, -0.29560142755442786, 0.35251197764997816, 0.1534179910317818, -0.31131260311597325, 0.05171064584966102, 0.4407601862262626, -0.2661028278985645, -0.49674525532621056, -0.31991169702997696, -0.1529355910926587, -0.18514308603128726, -0.4115687225820555, 0.09050078317381875, 0.338117660424798, 0.09554999904497331, 0.36842003793125766, 0.2503197412993674, -0.22869319242444114, -0.1656433051233652, 0.12145032644967894, -0.4781539162326906, -0.21205434696887432, -0.6026863828814649, -0.281615085919116, 0.2701198321179769, -0.21362427707259252, -0.7011574532292006, 0.4467296795492677, -0.3095092245712854, -0.16745830421963526, 0.4471792355102724, 0.10907100027924002, 0.538407531174629, -0.15048787942847805, 0.26361461885911497, 0.34518637351077064, -0.0110602448236799], [-0.24851272128479687, 0.620913662058899, -0.14210011883215676, -0.1953843578379353, -0.11370807986191472, 0.20288779762153544, 0.4742364164650163, 0.06785217519279879, 0.06507402538896094, 0.004825433118833998, -0.5453124760520619, -0.2943553478671342, -0.36149081073763883, 0.06491465026725175, -0.08813797898406282, 0.3497143286704374, -0.2839127069052936, 0.27979055731749813, -0.1768187727155644, 0.4485291412787114, -0.278319275068858, -0.18699036011180525, -0.3366456794091693, 0.0778295808644022, 0.2750880877119623, -0.2998385918058147, 0.36931676729409113, 0.11338752629699111, 0.39062475852590184, -0.17363780399486595, -0.0040998922619733995, -0.3224060961073739, 0.23839026945653913, 0.3627994511962221, 0.3551320949460139, -0.230835889146975, -0.0691748420537031, 0.3652111691753092, -0.5071551581473402, 0.3289939891068526, 0.5340146224433835, 0.33869750642723895, -0.3534660026849719, -0.014306688562481785, 0.3162480114339293, -0.29496355146532116, -0.16970215014315895, -0.623590726391122, 0.10666852470327581, -0.439997451945592, -0.6048738534766124, 0.3376777645277745, -0.11832409906656687, -0.32542286890109123, 0.2470479199359609, 0.04345677900944069, -0.15390712313705818, -0.3623519613645711, 0.36735742487418666, -0.44323702526473285, -0.00978883703004404, 0.5838262969012238, 0.44555485903147296, -0.38109597293462244, -0.37896419169646345, -0.2374813777001361, -0.2655940141015826, 0.2507048736759904, 0.13068634923507888, 0.5249563280349322, 0.25509305527932424, 0.3224847499429812, -0.19662536720189355, -0.5818306231196003, 0.04076873500375656, 0.1367997688081047, -0.45867325594660435, 0.015612909469617919, -0.17423774707540615, -0.10822230894040451, -0.21172354276183225, 0.06900568982069387, -0.14151063967479552, -0.4491803679810752, -0.045917067707456675, -0.19313255205122354, -0.34141373948770326, 0.11892484922493587, -0.4175529184916519, 0.09005474403869783, -0.5086473084512679, 0.48371798452984627, -0.07155831106530988, 0.374791014087335, 0.1297490460229406, 0.42655220067091026, 0.3487969266271105, 0.5173351114502915, 0.11431830720131034, 0.027362280834761415, -0.43114110931387667, -0.04659038861911, -0.26273780664555396, -0.5683953011182887, 0.33408358696436485, 0.04116308978787838, 0.14332214873326596, -0.2417004568780636, -0.41408829258450897, -0.012699181278995005, 0.5579787169268426, 0.20995240378522703, -0.16353129654322535, 0.3944190779649135, 0.27697405772528105, -0.5739953200601738, 0.07922203045501207, 0.2925915782498603, 0.005782510175272731, -0.4360254574449362, -0.1524222713194185, -0.7310480567939217, -0.0060974514193622474, 0.3985556699336279, -0.17455022466716572, -0.3940597593910269, 0.12024920170764176, -0.2946033674898864, 0.17661427747565664, 0.20651156339072965, -0.4184352959397199, 0.35660166436301655, 0.07451641775814091, 0.49836259273926203, -0.41676412105476124, -0.06819466939045223, 0.21084228927783144, 0.2569015760151863, 0.30316885026691315, -0.030805224802519845, 0.31295164571313194, 0.07034116966538995, 0.4323070684371664, 0.20309696235627775, 0.16869021624591493, -0.38889198649256446, 0.47407032791428316, 0.33184913984756076, -0.4633769463563613, 0.07222976027589868, 0.21507937035913224, 0.11132799444663623, 0.11945180164988865, -0.4620820291042265, -0.11725729787773345, -0.27668165817585394, -0.6401057443982323, 0.3261440265684569, -0.12393660700083607, -0.36417998282300873, 0.21214132545403408, 0.3424036002128192, -0.2986462164333541, -0.23436311063662857, -0.12518116396514326, 0.2802103406138611, -0.39452770695735334, 0.313203688290107, -0.3844555632406641, 0.3684328638478112, -0.4487528131304454, -0.24714817827389607, -0.044920907651452006, -0.36470834887077463, -0.29335259150915466, -0.2676540456486285, 0.5462842868946087, -0.059032515593552624, -0.458670603353076, 0.3438771470968396, 0.37560774413353476, -0.46641720121292995, -0.17986635620519167, -0.0400658577690796, -0.2487918298408375, -0.3023338642747504, -0.6376479160478392, 0.26903419252782373, 0.002978204279993493, -0.31685317325371487, -0.532285244220389, 0.1382806110959286, -0.5886199861350444, -0.22651887542417476, -0.4601789613574703, 0.20053862764402236, -0.07926710985657408, 0.13380744524748608, -0.1263895925506003, -0.2838742922197367, -0.20488133401001654, 0.2548309147893172, -0.21506273175749227, -0.2663148031838358, -0.42266469221608105, -0.36471753252627237, -0.26588178931839757, 0.058329528577106916, 0.3307523131973629, -0.6287208765258888, -0.30963895264970703, 0.35642802280724967, 0.2517457875811918, -0.15787696025449016, -0.20588576091627137, -0.3827914554129725, -0.2834875030369579, 0.44682983930705766, 0.0826724108854615, 0.09414921075340099, 0.37662456975387115, 0.5819720061567559, -0.2063737493035468, -0.35211489610682173, 0.43560533365870135, -0.28278378643036306, -0.10836727047893127, -0.19649017857655188, -0.1837906836095237, -0.4311677966592786, -0.05876577928523005, -0.40435355464495515, -0.06661465529310526, -0.11950902725584713, 0.3664886807243983, -0.2782092320972015, -0.3145648308253438, -0.495567805866316, -0.3573010211361748, -0.12506770877376183, -0.20274566574853606, 0.06002697679609752, -0.5155772477133688, 0.1211266260042255, 0.11433963700561842, 0.239295913377361, -0.31249666487719185, -0.009421169028741795, 0.017915331100988054, -0.13166463818661978, -0.1615591450405543, 0.15592955365588831, 0.6225911499564769, -0.024021469552292143, 0.4809594067720164, -0.19694956837703026, 0.16716777877864658, -0.05366760775456389, -0.26416097964925156, 0.224051958163399, -0.09333733337792402], [-0.2970373515205733, -0.022413928307807737, -0.23845644910841274, -0.2842031296045052, 0.25082743324957707, 0.5992161264108752, -0.4108726400053535, -0.05438724208244818, 0.3803028647742783, 0.10058864270162741, -0.5860383238863445, -0.3539728883550317, -0.436051886901198, 0.29869191916765236, 0.1320296885867329, 0.14932556477114114, 0.3484229809800313, 0.1621940525248, -0.288215916491229, 0.35651749607333444, -0.41870140744143824, 0.24071424693010274, 0.11200729968843885, 0.38222024763666157, -0.313796294765944, -0.36470104196804737, -0.4611959089684122, 0.08030291643794628, -0.022519914575637793, -0.08059002390874238, -0.020471570903264343, 0.11632961797161138, -0.575171167957314, 0.03710735481121264, -0.5055549275823563, 0.3176798408192558, -0.34632124597590236, -0.1494206878936472, 0.03255188161855365, -0.4594082012705795, 0.23516054977098735, -0.07453407828672202, -0.3254067224376246, -0.20995843504660247, 0.08946578523387254, -0.3633008278736523, -0.4861983125753436, 0.3121757853916992, 0.007060862470528336, -0.24950538463252167, -0.42075453698170073, -0.4009252430125706, 0.20402406590615138, 0.3085156789895675, 0.6426401145252642, -0.2765247658053599, -0.3238813288560113, 0.1596660499048574, 0.08569028003289013, 0.4122952792314232, 0.3233897596140607, -0.07276763227042006, 0.20816345082756985, 0.2823712663210812, 0.2148697421505416, -0.01313528900126667, -0.34919238207438197, -0.5066269717753755, 0.6073147970708938, -0.002442624487094264, -0.041914452119805226, 0.5095148643825146, 0.22974935465303237, 0.25977768129510836, -0.41100086199926844, -0.04935005781618385, -0.06743636193499761, -0.0470007662891806, -0.1904999288858331, -0.31952338527255564, -0.1724803953396116, 0.22460611276945674, -0.47497756086297954, -0.3241466081256105, 0.3255247546235388, -0.5086438329335932, -0.3557563650520163, 0.030688746178569846, 0.37217553720521224, -0.1271399156555218, 0.3951862756174861, 0.04572331952358477, 0.06428211171527055, -0.5134912259687417, -0.21203463978859366, 0.21603065515224487, 0.12665827197944288, 0.21369261586169871, 0.15321942062072874, -0.37562101276643867, -0.10787730529990197, -0.04331156993849509, 0.37926203401939007, -0.3101843150780651, 0.2671478354533358, 0.14954627116348468, -0.38182446672282216, -0.1400791119123314, -0.025442455288899563, -0.0830469760393976, -0.03028094145816568, 0.11965808342881099, -0.3954291966510747, -0.14980550759095004, 0.34979310492329435, 0.48974874267922813, 0.3651246671099291, 0.25250563149803046, 0.4993394411942739, -0.003694284720015716, -0.2217468076683526, 0.4000577129152367, -0.35649912670987266, -0.1560400338877783, -0.28047006754495485, -0.3011919725823277, -0.05339760987281705, 0.2017515411832184, -0.32817779587837004, -0.5170935756753889, -0.11285420046859022, 0.228259422715759, -0.1909076210804974, -0.20917639850187825, 0.05891691185617093, 0.44612127532500845, 0.12594101906916355, 0.40530084277522355, -0.0009633981561151329, -0.12262682036365834, 0.3446822430676178, 0.3226966258243125, 0.3751624543121676, -0.3577464182304081, -0.5750778473245818, -0.18198907161470135, -0.18163166982369297, 0.011196960504338918, -0.30101192993585735, 0.4271176953588521, 0.20446677504029365, -0.48524615241471514, -0.257107403645867, -0.2785939431610822, -0.030227921141062073, 0.3181018129908704, 0.3100432125368318, -0.11067835058761254, -0.2886810541328877, 0.14128049559055375, 0.08317763489466982, -0.26798883277031843, -0.35844883416166223, 0.024445805977626193, -0.04760934930674668, 0.32579278980799464, 0.05572662971826568, 0.43331227485437107, 0.1217583134916622, -0.37501092301260674, -0.4059533032273312, -0.35078466546425474, -0.4410606672988695, 0.22160298235951842, 0.394928271885927, 0.2555273702608563, 0.3774434833459198, 0.1626689504392799, -0.574191999586168, 0.31895241323649826, -0.07664878851698317, 0.40931025962456213, -0.10208303777140233, 0.4364625795427704, -0.31547056319866007, -0.271269786117957, -0.1384999932459019, 0.44745945471176185, 0.28339654157478616, -0.14566890655488957, -0.08626498092618402, -0.16937805174695178, -0.22858518840066153, -0.4758215060198067, 0.09312420685604801, 0.15807179790157855, -0.43115974459014617, 0.29206193823684995, -0.1778869612580075, 0.03288975122774526, -0.46229608978273173, -0.3532322623409642, -0.29255723459565536, -0.293013037624882, 0.22394061533043125, -0.14792634753934897, -0.19047952948670563, 0.33671397404550696, -0.48906802716254194, -0.5277031571601497, -0.5435124873902302, 0.4707135965779897, 0.1603803082198823, -0.2657452480297724, 0.10053120160761544, -0.3231669425572162, 0.3009436720384165, -0.25170244665494246, 0.20115561851660388, 0.30308387149240096, -0.23948943245770865, 0.278276178503679, -0.5209678226565213, -0.08275613816595169, -0.2816589881708867, -0.11702259950196157, 0.18237124854560863, 0.3317143080737472, 0.303655672095624, -0.08093240906031215, 0.10287730723622722, 0.04540485722764022, 0.42700081755994407, -0.21267244622205717, -0.20505672981516707, -0.31920507125779585, -0.3245056608568209, 0.4144430222865899, -0.41739746296985675, -0.5033804932753625, -0.39730673546957007, 0.06858118803620372, -0.026490490979527596, -0.4024895721769227, -0.2617398847972208, 0.001071710653537021, -0.4480306637304547, 0.3638913661477937, 0.4482457686701611, -0.24651994300047758, -0.014380559621432474, -0.14200805539869227, 0.020264734555212858, -0.03610423926616107, -0.10109704659915367, 0.33971206256748643, -0.088640329819444, -0.04596040353743348, 0.2508947510192685, -0.27871752073619926, 0.381814183173245], [0.2980872441462933, -0.21517537485387675, -0.12246792602498223, 0.19277536102750673, -0.21099609214724097, -0.37682360188477637, -0.004734756617110515, 0.10942868891393974, -0.1146436966751945, 0.1656677808387072, -0.42591532373670643, -0.24034871875934627, -0.050714049550685314, 0.16359072860548768, -0.1597217802385987, 0.025166717554383586, 0.034397985181471726, -0.010707945710900078, 0.3560358952631594, -0.03545867533987162, -0.2723786970419013, -0.03755604406751443, -0.320363903327156, 0.1489546339020784, 0.035244027803129865, -0.1291567889567094, -0.020100627545142483, -0.44217713578751927, 0.0839020394830761, -0.3124104486404225, -0.33790828442172643, 0.3612837068406984, -0.38660134168870114, -0.6913987437851923, -0.25337280914274996, 0.1394121935677898, 0.46788398372149737, -0.021191967788144882, -0.48529839591913654, -0.40051872653705645, -0.2786712343927312, 0.19870182028936428, -0.21879339670910883, -0.1327620000392975, -0.03944725196581943, 0.14043186393313503, 0.3493333012861803, 0.37795286916729237, -0.3500675884834801, -0.3267847217408015, 0.10759729385935482, -0.45142781027140877, -0.03047941847412222, -0.6884032947509146, -0.042089721244694914, -0.33232987644836265, 0.18372148580306266, -0.4486657750514171, 0.06917277082765347, 0.18149346644439734, -0.06772938272015665, -0.1568129734882717, 0.21109866573976932, -0.09455208957454832, -0.3660072367462797, -0.6631880372800436, -0.4922927656752294, -0.10628090446240697, -0.28040034438924627, -0.03970703835688025, 0.18152045581199064, -0.19909206858652886, -0.32552279695821656, 0.09492227375799606, 0.14506350288181194, -0.34177578919472734, 0.13965548849671355, 0.2677446088072908, -0.27119995762845267, 0.5047717382205023, -0.04249472821846655, -0.6263971929591142, -0.4513362250042034, 0.47724899271431487, -0.05672360247128586, -0.38822531571961216, 0.3863327310443004, -0.24895516064513223, -0.09656015384673164, 0.30132379669842574, 0.3852831630548294, -0.6286556968621858, -0.39072416981118807, 0.04255527246087462, 0.15858264738274777, -0.2379654273203194, -0.06170383905228182, 0.30707106399628736, 0.05763463465894115, -0.06664707583705476, 0.1969721301924883, 0.14922744256615678, 0.3204075791990332, -0.4810358917414631, -0.590711084103224, 0.40660666622418423, -0.13573724431143983, 0.2757210173224155, -0.29906708697524226, -0.20331929756565903, 0.30900692345009834, -0.29147043381321136, -0.6536258319792049, -0.1342444949560422, -0.12383075526914336, -0.20020830131202022, -0.4464723361208783, -0.30061175819646785, -0.5157121793747411, 0.19083802823757984, -0.0929813326850682, 0.18474911094687996, -0.2693692462851564, -0.2030541455604882, -0.013894303165218632, 0.35027061773656565, 0.053440742705304446, 0.06469708241176593, 0.28589144496846114, 0.2962055145492569, -0.6066266137478593, 0.41248879925573206, -0.05926097408964744, -0.6369723001173891, -0.6160767966188232, 0.47074986661492113, -0.07237971753248497, 0.44941256304749716, 0.2364852952641015, -0.049439492583055585, 0.7468177418192132, 0.28775902821055227, -0.19108952402963036, 0.11195769816652637, -0.03525501637306882, -0.11156832122008493, -0.3493344225699983, 0.6694108822213471, 0.03819304515756866, 0.4350604658044151, -0.3175737018963435, -0.04743335155834737, -0.17926806998029518, 0.17802082325750682, -0.6154891861013492, 0.19766257976026824, 0.04243135778678211, -0.29620393243963433, -0.33166099898346296, 0.21266339822962863, 0.5732684024320147, -0.21382078775935834, 0.2975500365130076, 0.13858987998166283, -0.34576605674334054, 0.0632724357851713, 0.05988490598367704, -0.5289816454330966, -0.31442678163362386, 0.3564249098867997, 0.37027645671215376, 0.21390213593684795, -0.03817635218057574, -0.07529520304596998, -0.08949842033426333, -0.14902163658495013, 0.02232490389626976, -0.3960180260025654, 0.35831416323934984, 0.5495262438229119, 0.35558759379219795, 0.37033528964633083, -0.20987194682974927, 0.37335896412694447, -0.2803790682693673, -0.24243540646238393, 0.23782247697239425, -0.5425560629359968, -0.46069857988483437, -0.24393250149458287, -0.45779780580679935, 0.44723986955470313, -0.4580457264411257, 0.29985801366997816, -0.023028009015573944, -0.06783659043436199, 0.36698737235628254, 0.359370159582739, 0.5307765614091088, -0.18967158702552234, -0.006296003238141958, -0.4866309763863959, 0.5321278115170189, -0.11383649949217027, 0.20339261095569902, 0.040720361940948344, 0.2994883564981971, 0.4568193094934865, -0.04758187097451018, 0.09905976210061262, 0.5270773936786801, -0.4534261024370238, -0.5303209701079179, 0.09087399529723952, 0.13336054822709129, -0.06976716266825572, -0.5398020872419026, -0.17564175260083592, 0.470899105500063, -0.1709688086939608, -0.4441242953979673, 0.5454669874786944, 0.3630254253850739, -0.03570107948253453, -0.2126784148856046, -0.09022566641143583, 0.18377099178566147, 0.35284455555760924, -0.1297487254575921, 0.05127335032769319, 0.4900914617719451, 0.1380283216907084, -0.3365536502847588, -0.5834635510011609, -0.1911361768648493, -0.19219011439002606, -0.5308388311376061, 0.16173286040554713, -0.004134812034441872, -0.06207321412977553, -0.00936670540095439, -0.051707726929927825, 0.3340749221149416, 0.5835426145466317, 0.1828211949763364, 0.20087685900002725, -0.10622706901545459, -0.43399022740196347, 0.2963260758763162, -0.24950036426150396, 0.3627738355626715, -0.19340113450602955, 0.24658848510086392, -0.19987842993048538, 0.36760091236994746, -0.522516868555925, -0.16082667171418036, -0.1078231209577954, -0.13460638685323006, -0.33999843410241554, 0.07946368109583189], [0.33145707873332175, 0.13606883702937395, -0.09690123282664265, -0.5650447206523479, -0.32358489273969804, 0.08825554497132358, 0.22065041186606035, -0.607748306314922, 0.27311574987351267, -0.12061055203094276, 0.0923200975296686, 0.23789611851359488, -0.5373692918613606, 0.17572049991463345, 0.05126622323607932, -0.25655988822996406, 0.2711942597377027, 0.29357135816344715, 0.17601648806479078, -0.0789375415048363, -0.22433155873194646, -0.5639204563396305, -0.0275434987158504, -0.11617229094675824, -0.1604691220960113, -0.5744668436412218, 0.1332951332515849, -0.15227408879067073, -0.10474638212022204, -0.7012618834237699, 0.36187098570010995, 0.24273622348357984, 0.0053797725318721476, -0.20247419212526035, 0.3299947326402739, -0.35211251561192575, -0.4577184543256131, 0.006550636465979974, 0.01353630950945006, 0.44158125587803154, -0.3235761473022842, -0.5142062708501829, 0.09273939136724739, 0.007935988252031767, 0.06342640178557758, -0.10470707863822908, 0.11147862631187881, 0.4465738418940119, 0.008096284680919741, 0.06409143570733677, -0.08538135604602308, -0.43957553376036573, -0.1370114841466806, -0.05144808712775597, -0.10981908107294198, 0.17497631932912427, -0.47662358546069955, 0.5490338548760515, -0.3882999925516046, 0.10153161462338116, -0.020950243165797317, -0.19463766669550078, -0.38824410559527234, 0.06192550956148267, 0.345975466970352, -0.0980465784104477, -0.4882969828803812, 0.27682233518321275, -0.1332880221627532, -0.4184737096477192, -0.08662334949806838, -0.41115975357700496, -0.26900481981727126, -0.3041797651700267, 0.2548868254785068, -0.13757575685058512, 0.23400588049874835, 0.4046744721354917, -0.2817249165412333, 0.17777337732500814, -0.38804569348057877, -0.209116558408968, 0.013310197881362576, 0.4034216469203022, 0.46884970948297716, 0.29516368713497965, 0.23220664055472967, -0.5164355100793356, -0.30550273386715715, -0.4888002160289951, 0.4765481110926687, -0.4737716252531365, 0.06037334482413779, 0.40942845784473403, -0.531106973345296, 0.2091320098594571, 0.37089401428556934, -0.45981749344680606, -0.21489866385853637, -0.27890761563950606, -0.17284447867681063, 0.41879708570111335, 0.46010041859268036, -0.23949096558529606, 0.17763834550203927, 0.08889306961377533, -0.6105668724466999, -0.21296108042666453, 0.35623461501624065, -0.6266114013963607, 0.38086551375034333, 0.22080621095617972, -0.05933934318184077, 0.11593960290730734, -0.09132733886082307, 0.5274601918342579, 0.20758082949065418, 0.046308418701271385, -0.4808660431522732, 0.27217887165853427, -0.1479348839922532, -0.47731517211680735, -0.19494482780565006, 0.44730429102677327, -0.18851316292695405, 0.23996673404890356, -0.4282151007081574, -0.18740719265983077, 0.21764253346317958, -0.16129467614807647, -0.4527568434773407, 0.38644014644982905, -0.1992674187049881, -0.24034915809386412, -0.383235990314721, 0.09879005296665659, -0.4164321410617626, -0.21009685192378266, -0.2841316358750391, -0.3593991584275056, 0.011847268227530731, -0.4964543505806652, 0.42083354488205915, 0.24811664753163748, -0.007255070652873271, 0.035845037032701366, 0.04724120356224869, -0.29180317293114544, 0.12984542138495522, 0.41939742382842654, -0.008944851064544054, -0.661725901858498, -0.05724089270368567, -0.2783937083378519, 0.04847780518234589, 0.44824348812282117, -0.27705425485282253, -0.06645393581510316, 0.3636621915675921, -0.25507355536608317, -0.5448017642073634, -0.46770226166167395, 0.274340637995429, 0.01115754108752836, 0.30613626144735134, -0.2776954646410287, -0.31956178213689834, 0.11449211771382764, -0.038295515089808024, -0.35987558191006075, -0.24265903912428416, 0.08074607167537157, -0.3704457351609837, 0.3701406408755802, -0.5286594109928894, -0.10965604026506212, -0.3925592095631561, -0.37928347187943745, 0.250653854037468, 0.22962552962536478, 0.13094552346876515, 0.2711466708276633, 0.06844871166895046, -0.14326364487995588, -0.40100030304391804, -0.412416772137968, -0.29766860876004453, -0.11178348147792205, 0.1646587383818754, 0.5429822784313136, -0.22816134177512523, 0.13492114184459117, 0.18989739244233722, 0.2666354595498407, -0.01457246262983662, 0.0001011157991993928, -0.3391300603492393, -0.3937991293618645, -0.22661686249055601, -0.2478988086949079, -0.4541805510236873, 0.2211343986022431, 0.476893513138314, -0.28689685298402967, 0.1737576001099543, 0.45552638376633403, -0.2989387883385048, 0.35622947662679777, 0.015494217808037346, 0.463900679969735, 0.49561091387899187, 0.17195292105185347, -0.17807211734973805, -0.18354631837599006, -0.21372085456922874, -0.33925135627491887, 0.41044093480802135, 0.3560918559314102, -0.34593944435641344, 0.3877467631794145, -0.2103928262448381, -0.017571987447769253, 0.20255185106316623, -0.19329778480039586, 0.4783125340409748, -0.19524211859583004, 0.49527126459306464, 0.23396998144044326, -0.197985060339075, -0.029957054673662917, 0.24725583683941885, -0.23125205069405733, 0.23697097117114607, -0.3203699941850492, 0.10128175746827557, 0.5823529582326834, 0.4659051406066728, -0.3315959068268164, -0.06266250317706841, -0.37529329592896715, -0.0009749518246901643, -0.6273996850881158, -0.11227847027169494, 0.056843119246040665, -0.3213843354118256, -0.45455870317556757, -0.3566645099628704, -0.3496664082438021, -0.19846125267206244, -0.12100957357979131, -0.40695708841663053, -0.39908818436646853, 0.08148828999311117, 0.03947735251625384, -0.11817894910520761, -0.4457544851978002, -0.26925297614117577, 0.06862267786326573, 0.269621849612621, 0.201996474667303, 0.26026311505607946], [0.1984892660582828, 0.14168942177720473, 0.0952071633511669, -0.4382976978471029, -0.4575633349121461, -0.07605667985320372, 0.23661099465269742, -0.29626175856841486, -0.36550827391228896, -0.21612785289220307, 0.1338203534339562, -0.46931744948012355, 0.03705890233354986, 0.2706602367366397, -0.23589159850220046, -0.27947172984574786, -0.25148213931332686, 0.2188649755309772, 0.10084283148306109, 0.24272284989384646, 0.4080555029558152, 0.12304920844316214, -0.2733778561710867, 0.6305726700868236, 0.33848267584617553, 0.16483290690527483, 0.031163759406628702, -0.18338630352823065, -0.130775588967271, 0.08272654434426671, 0.4282473012364225, -0.5747273518650327, -0.48110573089017605, -0.024135538698248554, -0.6528110473341141, 0.42016935678903095, -0.6087122881329403, 0.5506155870456845, -0.20189991097931348, 0.25730755546836803, -0.12107316382132488, -0.3966066343037297, -0.0819883478826506, 0.1545560292172561, -0.43241967636145884, 0.21914608302915986, 0.4641760412716676, 0.05212877393752116, -0.05944149600994561, -0.19325942106458358, 0.2523299511606093, 0.010656992436825719, -0.41847325941376834, 0.41646479239198275, 0.30042682809926546, 0.27760356850056783, -0.47122337123311453, 0.20738780984292277, -0.20481002104182902, 0.23601192856015443, 0.45807701658720495, -0.4845603976476183, 0.1685832434905049, 0.06412791239173042, -0.18657082891832083, 0.29934365822861847, 0.15033004005934533, 0.1616594155799461, -0.39239541814267914, -0.22211948048651076, 0.10483939687642468, -0.165965282629817, 0.30183883067563344, -0.34940021641762226, 0.21851902020199412, 0.4509726343566855, 0.2570634301249107, 0.1094404575433984, -0.22523967860157063, 0.003803912170129475, 0.22965516286850368, 0.33069070934657774, 0.05259544982081666, 0.32137256732171726, -0.597890482916541, -0.18457583462279648, -0.27285257805126556, 0.30711339900547663, -0.5589747813685415, 0.2940098290634711, 0.5311828423626662, -0.3148636684123508, 0.0796367861178339, 0.19628555273643855, -0.1436388143628587, -0.0458844079737045, -0.27462684160007034, -0.015659661765849833, -0.4944476350007125, 0.11933301094777735, 0.16555515712127727, -0.03622917600888104, 0.027905156470147213, 0.3880741758354681, 0.5773295980268184, -0.2735038474132267, -0.8785698437835692, -0.5094771128590505, -0.04351389119590837, 0.38584607121783954, 0.22311754689068405, -0.5758585021736735, -0.061922963799340806, -0.4101915872376102, -0.42061770524253217, -0.21832352011193756, 0.22082035863750124, -0.36546753270993865, 0.08755792256093418, -0.3136375884600491, 0.10634069345117567, 0.3805447138114299, -0.8221956196832165, -0.3077985071009019, -0.13261604948294026, -0.2991191611948095, 0.23615257940710416, 0.3701448074306423, 0.43345758115328975, 0.22794270956837817, 0.17459450230269744, 0.08636812731404381, -0.43669541130268535, 0.12190886601310177, 0.4154918627412719, -0.15406936776470273, 0.0332866862813033, 0.06160642943501365, -0.44383005906871087, -0.039602024264778234, 0.4243994293137512, -0.44905190058293143, -0.23500698106178147, -0.590548709348812, 0.30104970942735343, 0.22243318218194827, 0.3142987394343599, -0.046386280394326185, -0.5226189255695664, -0.7308204052182784, -0.2123346424464714, -0.575968292896727, 0.3325611132471063, -0.6684706132047077, -0.6185851624284163, -0.46350824823262954, 0.2549202106757652, 0.37384213004087075, -0.3941168828567495, -0.06911745837703091, -0.24329630460690846, -0.3347159729274217, 0.2890798675600314, -0.05264414526543937, 0.17545909618615046, 0.47560651514944635, 0.1448990718972459, 0.2633997692037399, 0.38913740020789017, -0.3549210664105085, -0.24748659242932752, 0.34310255490712926, -0.3914583247177188, -0.16987578537315257, -0.7647472064343043, -0.3493326072169052, 0.36423783859564235, -0.19941805545316063, 0.18124782309565896, -0.0780970372494639, -0.4923701468971757, -0.1437656919906414, -0.4700343137665568, -0.3181084268427916, 0.36778856860722603, 0.43488182400937553, -0.4368063143938227, 0.050167511721445346, -0.587807602325788, -0.158583826844329, -0.06876240750641693, 0.3696099842643979, 0.08279914773196533, -0.027919551663859607, -0.2829634369150569, 0.03257816448053684, -0.26706370016125164, 0.06635553276964234, 0.2746796516777505, -0.5448276687648259, -0.28380766853200984, -0.041537321898940376, 0.3180406575157045, 0.09598248854935432, 0.011619710498228394, -0.6761532091013239, -0.2581283329721998, 0.3855499052499249, 0.12198197650761994, 0.5799135025624764, 0.2894606011016408, 0.3924573384155279, -0.10197858789793621, 0.2691275540434499, 0.019302940142821124, 0.015945584880494156, -0.008247789265977966, 0.32137909415860294, -0.4186977818454507, -0.22575008920221537, -0.31883161789824294, 0.3545897006728967, -0.3030228259775867, -0.5217412389930202, -0.10201724228138719, 0.17339999450651164, -0.1900574595100628, 0.16566249401296912, 0.3996015441763074, 0.28888886114875195, 0.376654579210371, -0.45715075503554076, -0.31339378452056316, 0.1845221539580644, -0.6283748618487883, 0.13248230326877625, -0.3850734884443128, -0.05888797528031043, -0.27505773829281116, 0.02037702261254302, 0.0196153931863941, -0.17337760293771434, 0.11336709330667631, -0.3366806779070639, 0.07190369779008315, 0.2885958799282803, -0.12700324366069843, -0.5412254649762236, 0.3511412611279453, -0.3782524323453562, 0.39652962869405506, 0.008237505698052833, -0.05442749792809428, -0.47819575472764037, -0.02029827243452391, -0.3317143569225982, 0.6659692256847813, 0.1363110730337656, -0.39940802561461136, 0.04444063826486175, -0.4624272167140144], [-0.29602796905788864, -0.4601941864615668, 0.41105710532096923, 0.2058894323144357, -0.4682676501603456, -0.049122518397355604, 0.47112509705932565, -0.6344421077454371, -0.3908906444782895, 0.08099077172344064, 0.09788400024768261, 0.3676946010750765, -0.04785616492730186, 0.19421587707694313, -0.6918026367387337, 0.03830881369125207, -0.33685251659532217, -0.631231598318908, -0.011070861679897542, 0.3932767953258964, -0.5034577364545755, -0.0566196121746442, 0.06847431583097835, 0.0718082305853273, -0.3940623057035211, -0.15801920470806488, 0.32725748113260256, 0.04246096265863133, -0.5376629620235336, 0.19399356137559431, 0.3068436057158202, 0.2094891688304091, 0.25941311728335253, -0.052463527289118024, -0.1447664590802524, -0.40159342143873233, 0.38221764790154145, 0.5744079015910063, -0.011178947873802594, -0.19916671023851107, -0.372694075440893, 0.13316352171933887, 0.2746479358235052, -0.2513290143352812, -0.35169890334859644, 0.02150546945000825, 0.22807827547449427, 0.02243982626852156, 0.25850407932397024, 0.3224907758454593, 0.28070549076386697, 0.08280527374750521, 0.06773285152998298, 0.13091629082371495, -0.016379365866723603, -0.09818346921220596, -0.49240346521799333, -0.3077779892292063, -0.19531773373397562, -0.13252862167982327, 0.2869126345852814, -0.3551640216076557, 0.019061859968560003, -0.6565677119345337, 0.5163741140622468, -0.22707611259571092, -0.5286990573200294, -0.6861641738301676, -0.30368637132057874, -0.5201765454632794, 0.0237940004376665, -0.16984009732342456, -0.22153018646200834, -0.3612514143385839, 0.36178148397938587, -0.09700825616097163, 0.42857015265322257, -0.08141360494259503, -0.1515116209849228, -0.12952291329629198, -0.1878913038419229, -0.19725527692992767, 0.2755805023592738, 0.08391203358001845, 0.09998620487560309, 0.37153477350948105, 0.18103103195692258, 0.38449413816862144, 0.26657116319296226, -0.1833799021385447, -0.15430151832791345, 0.24703455326718038, 0.6321305397189962, -0.12491372929234829, 0.07212135492104985, -0.4064262949434376, -0.4643450564895394, -0.1426088060675965, 0.2910061910600714, 0.18522628282161327, 0.10673904188333282, 0.12788437896546256, 0.13041346483348032, -0.265829631490717, 0.5646102574311394, 0.2286675240291237, -0.2381368880878719, -0.23698864706986034, -0.07398686145783451, 0.5397735370842622, -0.33467825556415565, 0.14092352681342973, -0.26681744917227773, -0.5026525477594461, 0.07664343765925229, 0.02232392031291834, 0.2727831195941111, -0.7025112326463493, -0.25302581696926113, -0.362284721594356, 0.4208560456397915, -0.11638500569647704, 0.2334740378611148, -0.45918907767787237, 0.4403903000382924, -0.41743766657989684, -0.341746113452356, 0.2819646509908343, -0.09747307413288613, 0.25912601461991386, -0.3202876521117112, -0.3393492790340788, -0.04202203163669086, -0.6141491379191326, -0.03662587091272286, -0.21332890034763735, 0.18090458949379348, 0.197119979021842, 0.4030772703204904, 0.35369880364829925, -0.2972509883503797, 0.5498986339935784, -0.26094080274987136, 0.09997007447856342, -0.10994389282778542, 0.0793480264566781, -0.7075918602085195, 0.2834833131968437, -0.2891428257662771, -0.5739409973285702, 0.47432935497955747, -0.07471397017894765, -0.5146796782936439, -0.02080298408034997, -0.30736922993962107, 0.3754163121365072, 0.45597262348148393, -0.48038814513662625, -0.5225269307895761, 0.12692009109263086, -0.019451503312697363, -0.5857228860977438, -0.40274817889998715, 0.28639680823370595, -0.1231977339864273, 0.03590898752048604, -0.09583421031060853, 0.39927259515313956, 0.19084860040070453, 0.31406767642639916, 0.5021787224034578, -0.26899723252721625, 0.22934713324285508, 0.20416913125419933, -0.06581463674547658, 0.20652659599862586, 0.11003901939595173, -0.4001165404319685, 0.07835331319561033, 0.14695090452048745, 0.03003657597099509, -0.33368044254132473, -0.4596034714564242, 0.4802591479419422, -0.02608534246000708, -0.46713366825127983, 0.38221769565498354, -0.16922949345636423, 0.21385591241539587, -0.3003296847216996, -0.6554916876927361, -0.34081366323251683, -0.41194363780299703, 0.26957876656007285, -0.5081230493406195, 0.2986187769174559, 0.2378273069074355, -0.005773903554976318, 0.15748370782281168, 0.08608273969218519, -0.5395014259606807, 0.11407007782730923, -0.1769408472778431, -0.14158103704799793, 0.20399869039546903, 0.22627083089439443, -0.5298110779602828, 0.361209480498324, -0.19893197443735727, -0.3208223216199138, -0.11069900739009945, 0.1648115906833094, 0.3164663799105762, -0.32397891726635314, -0.3652682945460593, 0.0837502169680621, -0.2252495865806272, -0.1776378593619697, 0.01507477961712742, -0.21335203988110066, 0.46383281455069825, -0.1526149152942162, -0.023825748306368733, 0.36076048921615983, 0.25447311877616874, 0.27197382172620693, 0.2541651279970119, -0.3830951388917335, -0.3139833845603519, -0.3744826953422137, -0.4570505986530016, 0.03944867234729956, -0.06126728378708219, 0.06042121084689724, 0.06885320125861161, 0.25112544530529934, -0.46389450984732167, -0.22085755290608916, -0.44684312523173314, 0.3585400567464081, 0.17465122031863833, -0.46983327426536764, -0.1675592067011461, 0.48603355425813416, 0.3887532907599119, -0.031671436909583066, -0.5205831155321603, -0.3756029114909844, -0.042464840959208716, 0.10134722519661948, -0.46637110916067226, 0.0057270321190178095, -0.13437507043830932, 0.3989783514763545, -0.036212138987482184, 0.2028367251305543, -0.2204887889536313, -0.023030587169571175, 0.40780670338037295, 0.2824554933866879, -0.12940693962710126], [-0.1556866497768512, 0.016912141403530197, 0.21375238985499845, 0.4252121608694285, 0.04608164189417957, 0.17440095006645895, 0.41845817425892634, -0.2854298386389083, -0.5335092280259067, -0.056585671929715836, 0.24776019949390446, -0.3002493658907877, 0.591200030505571, -0.038472912177210834, 0.16219632295132738, 0.12924360778733976, 0.05965030186935851, -0.6202089418513296, -0.4272832654401744, 0.5075009680530005, -0.5465119308411217, 0.3966801213813534, -0.11945214917916383, -0.006139275266725449, 0.40485106834349455, 0.3253579008291357, -0.27854781930582134, -0.03624104497808518, -0.28427649363101765, -0.5683105077929567, -0.6083624238424995, 0.1033282888235084, -0.3376350623926138, -0.14745538498433908, 0.24228360672637517, -0.00882774529930147, -0.040831372980102386, -0.368988886294049, -0.5645714654367938, -0.44690909843240734, -0.472438445291357, -0.5685813732658263, -0.3312714975842806, 0.10674919731101672, -0.4132812750401018, 0.40380486960908285, 0.022718474401328494, -0.35553663480456826, 0.39902060946849677, 0.05079746052716126, 0.2849755017440514, 0.41233202302054445, 0.019744157158696738, 0.2042622156446033, -0.4964633696918296, -0.5421860151147494, -0.28165514884872556, 0.018217883025292567, 0.49460252007396716, 0.29885470037548306, -0.15639443453915697, -0.3931011070018124, -0.34922685253092833, -0.062861999209162, 0.021729367254350165, 0.07887034349440865, 0.5412639419547484, 0.17988896572433302, 0.3848609775559028, -0.029352065488904285, 0.2422306446571841, 0.39650030593563496, -0.3213167620770867, -0.1774692534578874, 0.04079058817707145, -0.2988263416272606, -0.32645455150570984, 0.43342807501525654, -0.03340356229057209, 0.032667444452987394, -0.1530504575272439, -0.499740991618447, -0.336315414103465, -0.40281451140281876, 0.009173780441096895, 0.136066291591405, 0.16213058294729762, -0.4480026005838142, 0.6384106495704477, 0.1387214590311308, 0.21364954863247085, 0.2859028065676973, 0.39665986874948955, -0.23715737153005226, -0.3777249111523343, -0.42801084785724786, 0.3584882159648911, 0.22931507239188154, 0.2424299015661885, -0.13288145013869185, 0.36958026459996096, 0.20661730545065313, -0.442413247579249, -0.2773644891926404, -0.34763596349754045, -0.049943693221422274, 0.247204907469557, -0.5146969470478029, -0.4136645031316972, -0.005832822999392949, -0.3678414815167366, -0.04033653128768567, -0.07317197105420215, -0.3180686362535812, -0.49718953113594144, 0.2507375254741651, 0.16338175889966802, 0.14060058091847347, -0.026894450405200263, 0.19344472702172816, 0.08518874327121392, 0.45032523035481664, 0.19924876576278694, 0.2166828899429113, -0.3785795909781553, -0.25803346293423857, 0.39808084677848465, -0.24960664345199354, 0.003619138110578476, -0.47254906512420675, 0.08761334125954538, 0.1058504123386783, 0.5025174891184099, 0.022423625673473266, 0.4920413216764252, 0.1305821995203142, -0.5599452116142717, 0.0147364433677614, -0.19344109121084202, -0.04047388829298085, 0.2918889192548755, 0.08613969073500305, -0.3376487334801512, -0.0023137016926998155, -0.03355529333829894, -0.16959430182779664, -0.7779439731072618, -0.22561273579775776, -0.031499756028507964, 0.5173966345636534, -0.5533512601391793, -0.19417230304109886, 0.17062717760452886, 0.14142917202847674, -0.3364229855580491, 0.24244581697644052, -0.4011542816369828, 0.16299366385320038, -0.1537027466776318, 0.09258044651188105, -0.44428555147567744, 0.18665998668829145, 0.37817740631133867, -0.3347072294420587, 0.1209965181245728, 0.38668769451424634, -0.3867551864332349, 0.46609342858166175, 0.05821656826578768, 0.24835784336259764, 0.13997547013884376, 0.19952397482548567, 0.2656028038429899, -0.2053524500041688, -0.21309540205706026, 0.4454707236189999, -0.5353643960953379, 0.3281903237886687, 0.39874724985485266, 0.5663035109325475, 0.41601648154386683, 0.08928428773716733, 0.375037808777094, -0.0699748824375975, -0.22255129519416322, -0.26193579823661983, -0.32346740081251457, -0.017159339635112753, 0.236940643697316, 0.3893385482766116, 0.0751142827370829, -0.5127560771908612, 0.18094805017715973, -0.07491298363649572, -0.17724145130967894, -0.008350822340735477, -0.4013846641929393, 0.3161306681512252, -0.7237244453018047, -0.5037634623698382, 0.26490350250363287, -0.027791362844898273, -0.041048401195610276, -0.29657717723656335, 0.3888024174137163, -0.4385896584328661, -0.4131351259768922, 0.4164803545101397, 0.23962538497578523, 0.1473272197960331, -0.2822182104452181, -0.4979985896751524, 0.2313391086927133, -0.4495122408087685, 0.23503332056955914, -0.06095200974284966, -0.029453317433260934, -0.24219474114066405, -0.09558943485656399, 0.0683535519932191, 0.21196491397065487, -0.46632669742751803, -0.38722753536937515, 0.02519781486238995, -0.34757118140875953, 0.178515767856782, 0.36490742999114584, -0.08436662634431324, -0.1726061843129004, -0.19348993379926616, 0.08464912717866663, -0.21001151555020237, -0.20550049491178524, 0.1535263094516888, -0.2725125188308383, 0.21628932922332056, -0.4770695743209784, 0.47687794908427733, 0.10349432345544887, 0.047129062055224526, -0.48564096933219475, -0.3409044601021131, -0.3858025801784601, -0.11641821894221485, -0.08815282857656342, 0.052519181848257435, 0.4727947159871343, 0.5253624000004, -0.47113826955530164, 0.5687551330362649, -0.6200038682115752, -0.021181737272172256, 0.4248021647686518, -0.1202355291577263, -0.2338144822730665, -0.06109805702033562, 0.4319361674846233, -0.2957831083223934, -0.326925451756672, 0.08211553226166335, 0.054493923687254586], [-0.14499919729482347, -0.16019564003510112, 0.2432037612221204, 0.14112275513796277, 0.1338897844115531, -0.19663204533669806, -0.20610628076484971, -0.057416747959477876, 0.1725334391179769, -0.185482989103347, -0.16015770130880563, -0.12787659405663723, -0.04210401647317123, -0.033246486643729575, -0.03493257359361554, 0.30206612940918925, -0.41316023680722214, -0.12045362085963757, -0.2216518201386363, 0.2229817313225755, 0.19465124730688987, -0.11932350728627646, -0.42070798636144136, 0.42473551279703886, -0.09578830569979375, -0.3085545749439265, -0.2641072612212123, 0.4498179086965293, 0.3841306587043446, 0.20532787170631034, -0.345679985848638, -0.45366976247696655, 0.16814540658833776, -0.5438025412439977, -0.2594706970459595, -0.1339191519812997, 0.27380286033236856, -0.31876507624087386, -0.44461349225829866, 0.2193422051900538, 0.24055829371939597, 0.07661051155818908, 0.2902560270093135, -0.16471106765185406, 0.32517965083169903, -0.006467992382685419, 0.260908169749281, 0.020789421733857682, -0.18675172598683593, 0.26610850696657634, -0.3699094291756653, -0.23746252282145966, 0.2716174455439055, 0.011213897817986306, 0.16067197876920775, -0.04995389258281682, -0.013394144864833877, -0.3852323818203319, -0.41359912306370783, 0.22610022693868956, -0.055606671847301725, -0.5247616821430141, -0.10798069735715372, 0.3762221027914087, -0.371755468114663, -0.5397213862773778, 0.19090675561625492, -0.1946612973506046, -0.15796550521996583, -0.5920706947888786, -0.45758832048404263, -0.1392884689873093, -0.008679840688052226, -0.22686445500574726, 0.12696836862239247, 0.28327490960001384, -0.04777525611021863, 0.08107716248242353, -0.4271888352275607, -0.508384453793535, 0.22037400199023663, 0.08497276828563964, 0.418930964343449, -0.28336680804616116, -0.47134960712277424, -0.3550512270713934, 0.27475874157012087, 0.18711423672344119, -0.14837190339357706, -0.2503524962564756, -0.5606567330160127, -0.014397665739794754, -0.21807006247536098, -0.19492829634197462, 0.19426231199488433, -0.4403516569183753, 0.27389144905737756, -0.40570753633657336, 0.3963435661944081, -0.39827406500653956, -0.04298365063464562, 0.25800429569717853, -0.02515518067434811, -0.6219877690951657, -0.14701325919953515, 0.24703175796828583, 0.562809309034789, 0.23846362201752727, 0.28400499550779995, -0.5446010593124919, 0.3795218452886844, 0.09278413294508808, 0.32065581466617504, 0.422104565556788, 0.1864119008671609, -0.30328860754597375, -0.6611446974992509, -0.3271526191795452, -0.623646586833381, 0.03178210030291096, -0.01026999787278115, -0.1544188692787074, -0.45025978086621765, 0.10112635801221216, 0.41812517138765887, -0.0481066711438498, 0.4094372332938692, -0.3159573448512482, 0.25057438590979125, 0.2639248519054568, -0.5596981014430993, -0.3808149952320539, 0.012322789824532757, 0.5998591744805953, -0.03663798171714736, -0.3602089397137186, -0.3566727809733619, 0.2132836034990759, -0.5592383049646882, -0.13047017910050873, -0.298967364912163, -0.2515232837184868, -0.4709128709269236, -0.3528295886166646, -0.4590961191187123, -0.5003881173210672, 0.06308012564990542, -0.18029648448304963, 0.4229093393423218, 0.2526730464926205, 0.2550101220135932, 0.21183350579407717, 0.32591642772237395, 0.16064154645004006, 0.08248132701430815, 0.32601563632111635, 0.35699593552292336, 0.3409888844093945, -0.2617092303212453, 0.29309871476869526, -0.12868913942050694, -0.04629192367369408, 0.4510424613939734, 0.3723848798256718, -0.3617784391775536, 0.03797796318008796, -0.10833395230871029, -0.19534999521665888, -0.12983258361012, -0.36562986563739097, -0.19291711567713385, 0.41197642274545576, -0.20711892235485743, -0.29485332123514385, -0.21402154831675163, 0.7512588233059474, -0.6471840298220984, -0.6083469487684224, 0.31533704305677424, 0.20402133081176124, 0.3384677118637241, -0.05758473782709227, -0.46240337052028135, -0.5248465111583315, 0.1255950787728738, -0.6223737516017003, -0.2097425285642612, 0.12125526105249844, -0.12393733702701697, 0.37031541891963543, 0.05120335037927054, 0.14715753011201801, -0.5137186601151611, -0.48307192697842183, -0.08593046153911896, -0.4498394843505558, 0.43521833079493333, -0.16900444493195127, -0.4876063129862623, -0.15337296568292594, -0.3690213547797264, 0.6847588022265877, -0.30474878233031055, -0.29967603158923184, -0.4223179483338429, -0.4671772256524484, 0.040603297086012194, -0.049331504387864225, 0.07698598998933118, 0.17264071724569208, 0.14195793089049122, 0.19514581938822465, -0.19906448460021461, 0.08417129545732528, -0.28178570359207744, -0.13660417325328075, 0.33472518649886757, -0.4080767963289311, -0.2705450154669426, -0.20446005884847124, -0.09709586923820086, -0.18519453527489338, 0.10176218186268231, -0.31410755490213427, 0.34599503736269877, 0.29841187174960593, -0.5145827635432157, 0.03596485388364309, 0.3282506523587774, -0.5598056904288349, 0.49967632606126017, 0.1937973655979724, -0.3173787836989948, -0.14153570211293806, -0.14869274069943778, -0.31571933972801214, -0.6808430316700107, -0.4584284162815058, -0.4480758525049183, 0.20449576501626301, 0.41971781444812817, -0.40896571802280574, 0.03138154824439922, -0.2547572738599609, 0.1840759745833439, 0.32526625025042716, -0.5780730213263039, -0.2684523844440414, 0.051481756972820356, 0.2101519736021327, -0.4928684759472625, -0.6967914999042322, 0.45189407324295533, 0.36834710221862565, -0.3400991877054016, 0.09310363344823445, -0.2221517786191865, 0.2797158750587189, -0.1683491963409019, 0.13620919749875293, 0.24280595078024148], [0.2272700631003168, -0.5921713256081932, 0.18811769903622438, 0.5741543555297424, 0.15076327060805914, -0.29260922831136493, 0.20918518610725673, -0.4591876527819346, 0.3469404264369961, -0.4966472153106348, 0.5513734185768707, -0.3854404407064512, -0.2722751771832893, -0.2901157231933765, -0.18430156876177684, -0.371898536211423, 0.20367905475846187, -0.021727692086763305, -0.2835603062793629, -0.3988576331463657, 0.3821354256540866, -0.30489300844120687, 0.17272482724523924, -0.5892860877890336, 0.4422671456844651, 0.08218940833481767, 0.2604091995741845, -0.5894675258308163, -0.22990943890511178, -0.08285517977370982, -0.2484417234426307, 0.154681431244441, 0.1366922522690422, -0.1393913073509665, 0.34349772537310486, -0.2849719753949006, 0.4272532150070753, -0.10073524320650687, -0.16478750608679546, 0.143136328636514, 0.4440629450432083, -0.5271227779853777, -0.49271738346051397, -0.1774578999426045, 0.2881787552339391, 0.44416737369956805, -0.39170891832202914, 0.08916910573638531, 0.26942538435045904, 0.08714405560400407, -0.5255497729074041, -0.1939262623044985, -0.26284652547281934, -0.06479041803956022, 0.4552167650670274, -0.10422687468899458, -0.21993167041581316, -0.2480694990515313, 0.30651717126174394, 0.28355787089355394, -0.24846967632105876, 0.36600018033164355, 0.260883487546634, 0.11639167025452166, 0.1573550500599755, 0.28846463831771874, -0.3547658199997114, -0.15586262851000252, -0.47199259191362597, -0.2939441418624753, 0.4716614660257952, 0.37020763136983037, 0.43425016049749016, 0.14961480355526532, -0.2957661918227336, 0.14721336678530272, -0.06928239561478575, 0.1207664351796556, -0.4465656340548866, -0.6157844216947563, 0.1471345634613106, 0.012216865962487564, -0.20188665471948805, -0.004107025528525181, -0.4915246239885794, 0.2643611541179547, 0.36726653873751697, 0.12155165747030171, -0.31341473687166427, 0.37947111252026927, 0.41927835375251615, -0.16494588642461308, -0.4879100885631411, -0.3725262574774736, -0.20122121316521388, -0.4176552059226586, 0.24423175488458895, 0.45631914211281016, -0.5533586966623953, 0.26945485464726093, -0.3424975917741113, 0.3002802367523681, -0.11465595563559754, -0.32043918571487284, 0.4788360854355323, -0.3286851304214484, -0.11532916166826339, -0.4622651819644838, 0.29357109009908017, -0.3735795217852072, 0.1756800014591786, 0.06538446839272127, -0.16844994548618453, -0.1739224847788435, 0.27765685247452854, 0.17339561163588565, -0.018423467438632508, 0.2408675131586801, -0.3367203126674736, 0.3573856056211297, 0.2594794364353687, -0.2880608021496795, -0.024602266585253014, 0.3580728784760817, 0.03065285315075887, 0.4218147916418269, 0.1814903754763488, -0.33664712941793984, -0.2948253624529294, -0.1738361757877973, -0.20157845342470376, -0.44355567930179, -0.06471072488144988, 0.4458570201299188, 0.42035647156768063, 0.3895144150016943, 0.25033786805957886, -0.061850494165521616, 0.0531466510167133, -0.5553480677650787, 0.34279835451309676, -0.34435590722857123, 0.3208106869706484, -0.2319116512240246, -0.339733097506433, -0.054926614641080236, 0.06386801469568923, 0.39168663530232706, 0.4807813436124073, 0.44553463214691635, 0.27333318447477273, 0.47225577740050173, -0.3140591410974004, -0.10193630084455252, 0.24733683671103668, -0.4064678104083478, -0.08238437835587009, -0.5579753557047383, 0.40613734566922643, 0.08155277385503769, -0.00040560803253609964, -0.2115719304587742, -0.43558305269923436, -0.23128402372200926, -0.5053549295876557, -0.13807889042342616, 0.26730070968652364, 0.27573834250448953, -0.5699939440670878, 0.09028599098295992, 0.1927540955409006, -0.33081789860147937, -0.3371359691150966, -0.20111709706784608, -0.45465898174718555, 0.08386528510911716, 0.2007244346288702, -0.43219750231714243, 0.1813993354056816, -0.1542946755084129, 0.18368788184510712, -0.36429372193397697, 0.15884025613742378, -0.3549753186772192, 0.21112997002496364, -0.09141286597012126, 0.35378282787547377, -0.5359598644297917, -0.3120087605460041, -0.5308330366806004, 0.07826429532317829, 0.22258664816999546, 0.1857238229409493, 0.29803552740722106, -0.40285375864917233, 0.29139358682778, 0.28719103669020996, -0.33129081306872715, 0.3659857315911405, -0.5590179202705592, -0.03292927344724269, -0.18197140204470258, 0.39748395974404627, -0.7135518539125317, -0.16072985836606077, -0.2538737005607879, -0.05285242248927232, -0.02226251208844552, 0.17307794121413064, -0.20444230067387897, 0.30320203796372663, -0.1815959845146133, -0.5343854258415875, -0.006180101110965594, -0.1486648215290763, 0.009904652078032341, 0.41879485923612453, 0.31945992794131584, -0.4638300448276359, -0.6159356260417945, 0.44749706216546076, 0.5669102046552512, -0.3631496333560687, 0.1013494556451337, 0.25865344332128265, 0.25157768784660994, -0.19857518451620446, -0.11610320375113287, 0.3856606935177744, -0.059046927095138944, 0.37403150550591485, 0.38779142934081295, -0.5205107360235375, 0.4289733833480068, -0.157747920182627, -0.512279894756817, 0.5049156632384437, 0.5046598076740023, 0.2995967204005318, -0.12099740401980769, -0.1479000087228619, -0.14990225862843598, -0.00973508752465711, 0.1249815737989385, 0.11761293067498198, -0.3841648273183207, 0.2898873706837479, -0.456695826167282, -0.21221079511373725, 0.11234982721082593, -0.433222675351979, 0.03391367933305831, -0.4492040333247966, 0.2739985863489448, -0.159896969430502, -0.496765362335603, -0.20204817782501372, 0.24122400039871383, 0.23164877935435108, -0.4158877128644031, 0.32223427066623994], [-0.27393253062809525, -0.21463657721350818, 0.03518908827210038, 0.335312689151635, -0.18574415623793084, 0.6145512379641803, -0.1901236688207173, 0.40174570443048896, 0.039351011260751155, -0.26809675034578034, -0.34587521709330005, 0.5386558705253899, 0.36181368233688505, 0.09106039981980249, 0.013523735238111543, 0.004390704727132317, -0.11398882800575663, -0.3914874576445924, 0.11769562557943702, -0.41568305201092276, 0.13192939998304326, -0.2515923084075297, -0.4900830805066085, 0.22482043929877635, 4.249248142067261e-05, 0.04394368782332026, -0.29250237685174707, 0.011880274614056918, 0.07984478906982931, 0.23801218318899503, -0.1878714576331494, -0.016791203367002218, -0.3822829624105271, 0.18447168738427402, 0.059071701089470435, 0.09474130061253379, 0.04051926316747949, -0.41437217152949857, -0.35381413087641117, -0.09343776967072168, -0.07202014039229414, 0.3390484686757544, -0.3677124319511432, -0.4460946753050392, 0.03443179459068779, 0.08243492964044245, 0.1974373972496694, -0.39239794113669163, -0.5682663856545753, 0.4006284758156986, 0.3221964386269374, 0.2855606881417248, 0.5065349744026805, 0.33550492597607506, -0.24191527280128988, 0.3810111668479064, 0.3244140250291237, -0.30381911062940187, 0.3604332908471676, -0.38017825564729957, 0.26423497726285816, -0.35878767858853694, -0.4890581398653691, -0.07592622225629624, -0.3530096879560918, -0.26114815703194316, 0.23501559652291432, 0.5451135346182385, -0.17337576969321222, -0.10219524120333065, -0.6361983126012075, 0.25451760267708046, 0.11862234536805352, -0.4928813703347364, 0.3627290788448201, -0.4892172055584311, -0.06911549944273852, 0.06719973213767672, 0.04426876818413418, 0.5325672115543358, -0.04492570143129483, -0.2795982506795009, 0.40133170551408087, 0.07811873854255341, -0.3519339666725319, -0.4357074593996859, -0.42876210372236123, 0.0888357915709041, -0.16442963438729827, -0.5151136164470608, 0.1972971666854643, 0.2724292772857046, -0.012132114352549, 0.061213784662768944, -0.08320690313061728, -0.2854671556199517, -0.33187310941524867, -0.5745690234028878, 0.24945799437531985, 0.3120211761517823, 0.35515763940156425, -0.3559893399420129, 0.42777756697506886, -0.3851386589565074, 0.4551514727694595, -0.20825917601542404, 0.2003026072551747, -0.4151898390210932, 0.15389016340899722, -0.14398802524139842, -0.10525508426967724, -0.0941466447192996, -0.0601735160351633, -0.8713494868583345, -0.526977716803774, -0.28133456826433284, -0.3277704967134791, -0.3176310033857559, -0.07798161544728653, -0.1501323565551122, -0.208642648532111, -0.11303767873840645, 0.36280478296475777, -0.13566411035418627, -0.01339208915788966, -0.4807638287302548, -0.05125079270283865, -0.11181859387300633, -0.2551132301388064, -0.20220805152696697, 0.0172269122418425, -0.5119452153988424, 0.27926294047591954, -0.49089839193813917, -0.3683581379410408, -0.4650568932784028, 0.10076461863170504, 0.3016427735665658, 0.36979745027195793, -0.34927857659131023, -0.49946454791005723, -0.3647969571316628, -0.03588702210789802, 0.5279589239441945, 0.0725303578224765, -0.5937476840385557, -0.001359609516809674, -0.3173101666683227, -0.17264360926417216, 0.3395049284464897, -0.04139244112078688, -0.45366718965066233, 0.4807882791899836, -0.01808745106296064, 0.09666441063355254, 0.13981761387222189, -0.21398668129039958, -0.32500285909269255, 0.5441346892179575, -0.5863619318999124, -0.10336248852243858, -0.08192134862182415, 0.15636256391262676, 0.0915387161947814, 0.35446257611869275, -0.31115143564911185, 0.056805446711291174, -0.10712056632882794, -0.21372279112027395, 0.4684624783836013, -0.16096367703149955, 0.1968716441594283, 0.06769005543959852, -0.5237152421690849, -0.2619811533108267, -0.16523809494018507, -0.3613849347975346, -0.6052717510377718, -0.6192276517234698, -0.08713269156210714, 0.2620171150637018, -0.2031014234615348, 0.4005192870100974, 0.4189261154935122, 0.04019846771944399, -0.4714638625103066, -0.21306072410045337, 0.08802532469051125, 0.12846902933912313, 0.09213430801355542, 0.2779742181010379, 0.47689328741900894, 0.10795119055298875, 0.3481406316386179, -0.49583944842579397, 0.3212167681325255, 0.2585957688031416, 0.3675160680163733, -0.3698898655867413, -0.2750873753589033, -0.44407189763787636, -0.042416505884554194, 0.32035931760304076, 0.26464593462503677, 0.18670868879143804, -0.018417410301012137, -0.30268457144803124, -0.13666935167939395, 0.07362336094705317, 0.400283982137618, 0.3839980781861265, -0.04346254129944251, 0.18056896529698654, -0.07018375342516064, -0.5172422021407725, -0.3594000656210909, -0.07895381299283881, -0.10162934339731726, 0.10276811616433604, 0.10232270299293973, 0.3698030816739, 0.25116157208121775, -0.037627017055027835, -0.4831873252138957, -0.5824137663081277, -0.2190970522023795, 0.5066625741503966, 0.34530349647787406, -0.1693397337187008, 0.1921649226391973, 0.457455334273806, 0.09469380115478668, -0.5074421156162465, -0.1233261732647476, 0.07218193342178013, 0.035029605505850506, -0.5614430108862563, 0.27040016558823854, 0.14786229276872798, 0.02334591315649225, -0.40221574823948797, 0.4795335743926338, 0.1348602732148187, 0.5736705335427664, -0.020239315190845424, 0.09801718503460642, 0.04768023622541291, 0.3789076138696558, -0.4018125530304832, -0.585032411876251, 0.1889809275434744, -0.5575452170492825, -0.3125612563048121, 0.5743279301785877, 0.3063151744659741, -0.15869480817690237, 0.09169700774040744, -0.025725544616224588, 0.22662983422815736, -0.24794021371225194, 0.37685904409898874], [-0.34536871113901035, 0.19715889193407, 0.033604752263585835, 0.45512743765197067, 0.1888068246118717, -0.46859957698022586, 0.22731790211296507, 0.11067964311878477, 0.49401431309421334, 0.08910831082593007, -0.5903841649488097, -0.1799931799544807, -0.05163847438672219, 0.06510136037038405, 0.2547238316634697, -0.23440569464376323, 0.3679740259834549, 0.084125615904324, 0.10917922060401462, 0.2741889029971453, -0.27934727052701436, 0.11199384606842146, 0.18593854029499116, 0.401409290873927, -0.138649982395056, 0.21320785434699482, -0.547984957381288, -0.3798788778500125, 