[[0.13695767505152454, 0.396566730380595, -0.05102250493040206, 0.25353995393967943, 0.31469715114504765, 0.2303468765737038, -0.04448583542399392, 0.20173680206803632, 0.12871831492586802, 0.05453945582787163, -0.2759273121539725, -0.09708629482594737, -0.1371314305577029, -0.2395662036514061, -0.31880174689329155, -0.1391017079183368, -0.06643683908318783, 0.010337261707312804, -0.31901132591287196, 0.2265758652035545, -0.28209894103263927, -0.04943193417373592, -0.287503195840087, 0.518116740526024, -0.25392858581808664, 0.3885176629782663, 0.12434937988651633, 0.511850449600209, 0.20591233499626732, 0.27732192121997773, -0.38170160770480693, -0.16613289039730605, -0.3372752273592032, -0.25268937599367614, 0.4000493766862425, -0.39037000366443714, -0.21703331655926647, -0.4503461619895671, 0.15788298074525695, 0.2919584469410831, 0.010158222023588886, 0.29166608297414937, 0.15484481357552551, 0.40411892882148054, -0.1402022334658479, -0.32708114797882937, 0.18388276977109247, -0.21643775406814264, 0.12551632409325666, 0.1460193268873551, -0.05152410457665309, -0.22802637811635668, 0.3516310590411375, 0.4280316279116977, -0.23617251860005595, 0.27882785429494134, 0.36196453854464844, -0.021530218236472214, -0.22609001802346249, -0.18224951717501822, -0.2549144929978276, 0.07674771339218489, -0.10095780588285751, -0.3718179085805024, -0.08690104729315579, 0.19050582491682727, -0.1541210428188811, -0.3612226610841326, 0.014571352372208676, -0.0894102385652348, 0.3927018642986852, -0.0993338067266285, -0.1262415687821968, -0.021468368361432472, -0.3071775605654348, 0.03753985790173033, -0.46385031044397695, -0.37743559135993315, 0.4778868002546949, -0.047464040683150466, -0.46913049737812224, 0.3523571745757665, 0.07764397594927037, 0.33292896277712203, 0.04574838907498635, 0.10424178020439169, -0.22345922634935875, -0.39434282707811436, -0.10085240124633614, -0.3507395386130636, -0.4621109939466497, -0.227872472366364, 0.1355696450331124, -0.052796537500226934, -0.4236288234531311, -0.2955890348581528, 0.2636286655895392, -0.19847691564207723, -0.26891250196470984, -0.18796414181857252, -0.46547263186833815, -0.17227309882653896, 0.13613731230318368, 0.4130821743685432, 0.10117212347450978, 0.4199546628144991, -0.3617713450381656, -0.2610389205371267, -0.040608613905441814, -0.3997274731620202, 0.159031296227801, 0.09048844555696124, 0.06113540844232698, 0.04383248830547517, 0.18204393904453675, 0.49307076532986416, 0.2106863486331704, -0.0036151906544603695, 0.17580463476254898, 0.4951654627891101, 0.5012560584242534, 0.4661173352279076, -0.13141854946955744, 0.46448810603451823, -0.27326423649299675, 0.35962150097076595, -0.1207623910140979, 0.28147840411711506, 0.31994013820043166, 0.3039446340147572, -0.22521208365574663, 0.21020612237979752, 0.28503731720365616, 0.02665286752938138, 0.06703197590838741, 0.07182560433011569, 0.3829407013364511, -0.2632997842915825, -0.125464823316298, -0.18887547034661345, -0.2683007289482674, -0.15380156891711697, -0.10230020435699153, -0.46718263870202587, 0.4006874324094168, 0.3335562937557007, -0.33326233217317774, -0.12416664582035793, -0.17344438061635506, 0.20709850250126, 0.28942171719922427, -0.3694691524642172, 0.2868206596855768, 0.33507079763170744, 0.09435700885839293, 0.309418576332132, -0.14475743564001042, 0.41633588847990854, 0.43238538362557544, 0.06724075542966784, -0.07085595366131263, -0.23931471333753304, -0.12105469190938185, 0.4708904430404715, 0.4804445392669601, 0.21537692556655436, -0.45876237460099034, 0.5140476464714961, -0.19187079045783081, 0.3102095502036235, -0.06082965715429383, 0.01988692667941959, -0.3734442265508495, -0.3873345368968931, 0.23615999808790258, -0.4334645771525007, -0.010997396912145997, -0.1459560111625703, 0.487788180920728, -0.48790046104203866, 0.24365938319249408, 0.16206375355941188, 0.308022982707919, -0.45537563599545544, -0.3808591110146317, 0.3726118040333617, 0.43032475826624783, 0.5313017509797893, 0.23188956718691825, -0.08882601315000349, -0.4427141470446525, 0.11994850572090393, 0.3097722444722274, -0.23883372901472877, 0.1338540713418955, -0.2139160273544552, 0.5122123807744641, -0.12625057675386592, 0.30965917469973725, 0.3535040012844338, -0.3979060273151826, 0.4236182129266058, -0.3727277459861743, -0.11496064224614448, -0.006588843816811278, 0.05362700866564072, 0.061148369601942094, 0.2600941550383552, -0.21868003004576833, -0.46777542064637173, 0.3036352528349508, -0.32774412782009865, 0.31865196884692093, 0.07584336487193212, 0.2969228990249831, 0.49178057876579157, 0.1523368919502332, 0.46281560322979265, 0.025551460602685375, -0.13600170123410238, -0.04195457893935694, -0.10614317979880249, -0.4565754350609301, -0.27417463597148906, 0.3524613716586067, 0.4728480594306875, 0.008186999885926976, 0.08339262244810342, 0.29687251944306225, 0.3654420042193774, 0.49148770106541767, -0.3727312963023279, 0.20092526820767534, 0.09347085971393683, 0.22793343235494873, 0.21903001693741236, 0.42805864274803235, 0.10655944621855556, 0.36711802510050145, 0.1301656795157272, 0.33404333270631265, 0.47927480519716553, 0.04770011297144601, 0.31207759873183805, 0.03605885285782978, -0.07891761718579876, -0.09328045498903663, -0.3962414973134297, -0.14175284608328137, -0.26196660576821545, -0.3610325783872883, -0.2711936892867109, -0.17078912544462233, 0.2647932793175896, 0.4194871955390986, -0.33289369233115407, 0.23818186234891986, 0.19707140623907352, -0.0911817810100708, 0.18575777425513426, -0.2072740879214431, -0.1414666359424429, 0.044776764820717935, -0.24285910225620377, -0.14934632794551148, -0.044182059873593194, -0.218953376566142, -0.21352961940145337, -0.1906607407078009, -0.17738629627957445, -0.4446657400431675, -0.036076049636245534, 0.23411788200574535, 0.2894265515304829, -0.05691159056659373, -0.1910072644458683, -0.3078394348558039, -0.08779915610047773, 0.16071710411525364, 0.46031618459290424, 0.04801054459412995, -0.4776068246309345, 0.3240922354836436, -0.26169622976618606, 0.1485951623274431, 0.42788519545395637, -0.3452309848163055, 0.39379878985989464, 0.41762982199170845, -0.17061058214212302, 0.4432906769289609, 0.3788803899207768, 0.3821920403482896, 0.2090008719608017, 0.0903823091025461, 0.47831646698671987, -0.0007847863331747737, 0.15024407930685657, -0.12428082622363888, 0.05939734457483798, 0.2960781597957769, -0.4841887089840378, -0.21380026040726552, 0.10741784587485019, -0.29419250602237523, 0.05966346093058556, -0.32592690679027, -0.46897539389698806, -0.32789482414612936, 0.5286888361395111, -0.12779865622328654, -0.35039201842425644, -0.020089452379722806, -0.26279029752834066, 0.24168052164582282, -0.12183898119713447, 0.5086381627916522, -0.28671800670006004, -0.19645939203274532, 0.017612612661323357, -0.14181957782223906, 0.003749744045105559, -0.040295028177813705, 0.41598821412223586, 0.1961433285642243, -0.11323449195992082, 0.06408718615082487, -0.31504684295789687, 0.32399515996135797, 0.38620701497256654, -0.1551404558383579, -0.1835693531354183, 0.07682476458354111, -0.48741764783553493, -0.2189027884140259, -0.26455294546301017, -0.295098665468082, 0.16501817922661988, 0.031551863671387015, -0.1763220220268475, 0.26970854038314535, 0.3731144260897401, -0.1782338033962863, -0.4491310870479939, 0.174093436055965, 0.0502618603393651, 0.33092588595699995, -0.159169388229797, -0.3268792334938493, 0.022074722513021124, 0.23461680619990816, 0.3104022652847749, -0.2288629634800983, 0.29411937516869346, 0.2636197381354748, -0.13818228061615404, 0.2316537622201307, 0.43460980773978886, -0.4242734596091011, -0.3524522250402649, 0.2624964122127701, 0.4149225724390184, 0.05248309499722039, -0.4079686072667365, -0.025926384163512648, 0.23593631110275676, 0.16515066656854605, 0.20053092582155116, -0.1268169556957158, 0.5334715739831872, 0.0015896229150609892, 0.2674270484869239, 0.03567583207157752, 0.13273327393679404, -0.2550143915906243, 0.10939401083209864, -0.1884426797655735, 0.14845540331582352, -0.32288654539991557, 0.15705924530760934, 0.2870617863558544, -0.3563021417926875, 0.3573286962426932, -0.05920549127451834, 0.4447744895027404, 0.1155540798245184, 0.41020349809688256, -0.052654615627420694, 0.3132255124711303, 0.4020127613634077, 0.1285699542475893, -0.2972387362335698, 0.4333333648785379, 0.08964385813555246, -0.3115909310887138, 0.09366822158136642, -0.18081239682032832, 0.06135240893306912, 0.5287746565483461, 0.019307108424342283, 0.42185450957536447], [-0.11543013922398997, 0.16656800581822828, 0.23437196393474014, -0.2811782317717565, -0.32864618447077837, 0.08852483048422771, 0.2385936154849795, 0.019146326157359058, -0.4281310984403796, 0.027471549551179756, 0.32106774359167106, -0.39401092401693844, 0.2343136361270887, -0.3868064516691625, 0.004246607531405566, -0.31877143654274115, 0.33654004940997395, -0.269671240594854, -0.3978093253123688, 0.028802454649067086, -0.4821693377055886, -0.006735278398451464, -0.1686528481946301, 0.2323111635834746, -0.3174902379213163, -0.5474197884314621, -0.19739575338407073, 0.465492626903817, -0.47989485029251383, -0.17121001466153138, 0.3339287485896644, -0.1551673944512783, -0.31990387221165706, -0.408113959531044, -0.10785402214339597, 0.42629804282661893, 0.08925193608482523, 0.40703874939726675, -0.24807141394999482, -0.19887296607576693, -0.3628630835913988, -0.3376023138887673, 0.449766491896913, -0.01692478169229841, -0.3810698151686326, -0.04982408116578384, -0.4831229153590779, 0.2625151278036634, 0.21953859993448013, 0.36246008174943517, -0.44037929547966215, 0.2282141966722379, -0.1337485510951733, 0.30321782562312577, -0.4983147754415664, 0.32115177476508744, 0.34892588997060775, 0.11636621312503262, -0.39148772826178446, -0.36723440019532055, -0.051360423912958704, 0.24385326415653044, -0.36071309498882975, -0.19079003418094623, 0.27653497090612333, -0.3423714377607507, -0.47686839658712554, 0.4298721638525008, 0.03358657735888613, -0.48176452831401856, 0.21695290725293212, -0.14228746551476876, -0.01877605997644945, -0.42445702231586224, -0.38337361064589126, 0.25654457703992134, 0.16425107213132722, 0.25835532198645483, 0.3689596025422475, -0.3237843648269414, -0.31017560556332713, 0.2910508564482871, 0.24733923270297317, 0.391939613487986, -0.1849660659702667, 0.33948169995426786, -0.25885168630323285, -0.3688166553059084, 0.3666725117723267, 0.26770317778441355, 0.2432785534798916, -0.17557916931050147, 0.5105641029080437, 0.07797828627101994, 0.15580491233013466, -0.38895741933421635, -0.16017865768223763, -0.3448730535660128, -0.20630193364693683, 0.48085846193381543, -0.04200033390039909, 0.3230353372974592, -0.3534926208694198, -0.194207170892866, 0.3812515991072416, -0.41910222116482443, 0.2872956413058183, 0.3446547271679301, -0.2139760978997137, -0.13927895346784638, 0.08613340355677727, -0.09566001121304347, 0.13704231619413634, 0.4480953738615876, -0.07738995732308365, 0.07470474234603891, -0.16839327714838806, 0.46387788786865564, -0.338287678149645, 0.06503195631747992, -0.3603819369214287, 0.1843472365101955, 0.3163353506678486, -0.17954003584922207, 0.41041060885640746, 0.4610137673920225, 0.4761075074747063, 0.29297782605864775, -0.1151039992236439, 0.43344607108140193, -0.17757781014823448, 0.4938557918253009, 0.32948428226980236, 0.5063144997216515, -0.11406388175650399, 0.45165358697488234, 0.09373662145325988, -0.055346250450298985, 0.062302579350533925, 0.03137940172520282, -0.09340710645793249, -0.13790453752775558, -0.2214156570263511, -0.16733512473442358, -0.11064963716315318, -0.0902902981955557, -0.17589269914174463, -0.2571682316391841, -0.28525881195890296, 0.2759497869634118, 0.39914975102355377, 0.037243366924360755, 0.2844124960184045, -0.08360512861318703, 0.23791219555919238, 0.028215440321590783, 0.17231513623747613, 0.4545402576811201, -0.31907301987889086, 0.24123746011022448, 0.049155021716705403, 0.2773645094661235, -0.2837870334401329, 0.24380023186575012, -0.06299764875074569, 0.012640109061709861, -0.47327991246129575, 0.18474660905680246, -0.15990217014315028, -0.48002014151675404, -0.4784764634774397, -0.06046568841609505, 0.42491390915365, 0.0936878756452273, 0.48879863551004576, 0.3458835497135228, -0.3508679569124869, -0.11841336458223638, 0.03924381739494839, 0.40271675596657, 0.16747209596600837, 0.08033387531916916, 0.28076501791513825, 0.43935966563218587, 0.251091808217731, 0.03215553027401299, 0.0737917479286062, -0.022533883854234372, 0.3469954326250188, 0.24713819680474775, 0.05905650348241768, -0.3192950632032125, -0.0879493107772247, 0.1595853845774041, -0.21129775121992384, -0.3722426626893448, 0.13234059811277282, -0.023137695129319596, -0.4820065267825927, 0.24970556534826926, -0.4309782421400835, -0.45897566268335654, -0.44690635785368676, -0.37392190545692194, -0.3157273306307234, 0.18761552148744937, 0.014265116908816383, 0.33043207446344586, 0.31727336103432596, -0.232988694612139, 0.002929736559890019, -0.17398375086039294, -0.4645667159307619, -0.31404848101863025, -0.3538170448174875, -0.2549851089921074, 0.1331663268792773, -0.02745938156979308, -0.4950952307712194, 0.16051154910745408, 0.3188819893125352, -0.020572548848202313, 0.18947528749732692, 0.24666716317492954, 0.44117818082333077, -0.3980275562793423, -0.4050028753371307, 0.3888027141583822, 0.18050964738014197, -0.32735331954290636, -0.2671022524197428, -0.3465785142978594, 0.5075669596278662, 0.427579825748308, -0.22101157502541224, 0.24600559467182556, -0.12170643366857478, -0.42484830579611443, -0.30484996168129996, -0.2784341932613327, -0.24771390729289172, -0.10445390018227482, -0.4729711583687517, 0.4789912266071045, 0.24743931214655027, 0.10796806420720312, -0.21818013060336997, 0.14524739912860882, 0.037800201310845404, 0.38937205902527167, -0.3781538629469393, -0.04669148218259543, 0.17252443814666424, 0.48957026770828355, -0.0916552759027094, -0.15486648161229002, 0.012815507204797256, -0.19178990862687947, -0.3446786312578274, 0.1751853582739097, 0.2993497159840182, -0.03899745049084667, 0.33509932345376453, -0.35324418023824955, 0.3017393275312033, -0.2933258407138707, -0.20505981858451874, 0.05341992543517026, 0.41282907506202926, 0.1864768847929395, -0.2514652821879216, -0.07906829295734537, -0.06758729347002916, -0.25326022462514414, 0.3584869019146995, 0.012775409775636636, 0.43875964259351574, 0.4979031378721714, 0.30601742613685157, -0.1623308054600528, 0.3702236651134014, 0.3299868457267052, -0.3055020808939973, 0.14077001420098922, -0.24121804118759665, -0.23643169809712897, -0.05730650255145559, -0.0994268621767679, -0.4069359007120982, -0.09445852916310539, 0.3453916902239994, -0.2834681575460835, 0.15712597446803045, -0.2760603318210782, -0.141178556241544, -0.2523433889827476, -0.264701723473999, -0.3690092405744845, 0.5512524593451599, 0.5004701664749984, 0.2731882457393034, -0.1444748782362521, -0.040332907079237035, 0.25563339799491885, -0.07796717878444062, -0.13947594958396323, -0.24003955041374486, 0.2768408253412597, 0.015095961072260786, 0.3567811026450119, -0.15308035317716445, -0.024816245803401228, -0.2926406132325035, -0.3179435014052117, 0.37867552510999625, -0.4784073086778505, 0.313274311779396, 0.2569456440905586, 0.408258742492488, -0.22750401981476348, -0.24321144321537994, -0.29158614758732887, -0.15342416737766423, 0.3931405151524899, -0.43241009701734934, -0.36750971332900484, -0.07829000830761286, -0.15517579763179837, 0.039748249397757285, 0.2548876607398217, -0.2199716416232251, -0.430715093900046, -0.38462511950941525, -0.3730264929344656, -0.03028704855019913, -0.429595678039709, -0.4452011114091418, 0.545062026204308, -0.09551723490016004, -0.18562321841214682, 0.2162924927059381, 0.17964918280288086, 0.1739152438332988, -0.32869173862318496, -0.16372704857206044, -0.3417270620688403, 0.06163077630659078, 0.2960470271482632, 0.2815193613261406, 0.2129910482703218, 0.4866774996490405, 0.434153107444697, 0.10177643285006903, 0.09895525005549353, 0.11549208948819928, 0.3316637266827463, 0.2025801021466448, -0.4223669704166645, 0.48392911029881786, 0.20764363836935149, -0.18675405354083596, -0.26191170537869746, -0.35111780290590183, 0.45355947650047646, -0.2080862989888571, 0.3455898530681877, 0.1027903098040997, -0.28909589245570655, 0.2805826702086064, -0.17117490230075383, 0.29078828371873217, -0.20288602804476705, 0.24625966255908566, 0.4848052491668616, 0.11440727074858734, 0.34372458457625943, 0.2470369602213601, 0.3707508300526951, 0.5246998567804807, -0.31771599933761885, 0.3928864729452462, -0.029506824016321476, 0.2788654019802953, 0.18547942561314135, -0.4078907676478511, 0.05738950805254484, -0.06980207064925627, -0.034899921106266975, 0.18065478807936503, 0.2026589108210838, -0.11174787175734392, 0.5930797850859441, 0.05124398307159146, 0.45409248191056223, 0.26155634901360475, 0.09988295182911994, 0.21456021497565106, -0.38695678272337036, -0.2851339690156272, -0.22759400098990157, 0.12441670918838041], [0.027309623317355213, 0.23570567705510737, 0.1436739959686444, 0.11960192654671502, -0.3503008996898812, -0.13132039750489805, 0.3895102861406534, -0.4161835117924124, 0.30202384437964025, 0.05344793772835271, -0.04467292562712871, -0.4830984717959505, 0.3186137113256485, -0.49879327464094414, -0.26199302689169846, -0.39867182392354283, -0.5002120775554945, -0.29842083210149706, -0.1044440987581108, 0.06216852714267664, -0.451523391050541, 0.12572343816574713, 0.216136222115257, 0.08719473531653184, 0.01469762508410191, -0.4558363906790428, 0.1833228635284121, -0.3171559125557482, -0.1547745237052384, 0.06583763733968508, 0.45713080011299134, -0.48910327007504956, -0.2938788171543345, 0.143020011395515, -0.003501376686890286, -0.37510177095870295, -0.38870218646892446, 0.3523741323094225, -0.4125012213884829, 0.197929523132906, -0.2885974221367064, -0.268464726710607, -0.03634656630095828, -0.5406054585655523, 0.09190409176130163, -0.11571805516675927, 0.3262750365792442, 0.06673069423937177, 0.09039045797546649, 0.08911279203874856, -0.04624100131969456, -0.2317954713091714, -0.13281043979733467, 0.006186943180341166, -0.06694224753861835, 0.18647326086621396, 0.47108716800395783, -0.2834596570998422, -0.056031608969537794, 0.27701910915769573, 0.30719900783191445, 0.26323762419380814, -0.24076910469768595, -0.1874246645302715, -0.06899022368602405, 0.05590604278817286, 0.10372623798592151, 0.4374171734718729, -0.49036756588030184, -0.47664092701690636, -0.3593380629488118, 0.2869721486815068, 0.22729184730596894, -0.1243494184494613, -0.21510308249890822, 0.3900642474189938, 0.43789319271700217, 0.1967263260815783, 0.2703552398508239, 0.006459615015232283, 0.16966288295844278, -0.4391133674745071, -0.28048398074188585, -0.16261251245677197, -0.4791004094080877, -0.41766398508452623, -0.364692444911482, 0.2242836096522629, 0.3073239690034246, 0.30424782342521495, 0.33387198719116074, -0.017724675677331127, -0.1580990647613189, -0.20681763394101318, 0.4341318547132051, 0.40681529329820687, -0.2534924358284047, -0.21363229113090831, 0.378519028057227, 0.018715776887127885, 0.463758358320338, -0.5268056247974288, 0.23310184527109243, 0.3721966272431164, -0.3470252741940903, 0.3907373099940756, 0.24198866975987107, -0.14431186033959184, -0.389706284166817, -0.2156917468949249, -0.05229976951947962, 0.25108556572750956, 0.3477610702816747, -0.01890682961545709, -0.017335152883340293, 0.2585174688290742, 0.5012647291848764, 0.5070965727905333, 0.4354405348618094, 0.33546437965179937, 0.37999495520095766, 0.18712478363964005, 0.012297915843471573, -0.12633355207780894, 0.03360650870051591, 0.35698881538035826, -0.45578005713764125, -0.05975668647697698, -0.1283118445950089, -0.004251154708163187, -0.22353001347257265, 0.10590416563112871, 0.13543530617809538, -0.15463979596102925, -0.17151701683395207, -0.18969774616325752, 0.3838891581814571, 0.23713866887965324, 0.24465080853988994, 0.22703128268271175, 0.3813615457311452, 0.33995904951384526, 0.27358010073012357, 0.15786184796653047, -0.01799329022327022, -0.05177516688305761, -0.29710244923428986, 0.43571238882500063, -0.04113807269265353, 0.4281771065183955, 0.2356345526419869, 0.15297992723660506, 0.3941571256983025, 0.3494672506380989, 0.0641128288695498, 0.39851021356206906, -0.30753314159170414, 0.284901492978437, -0.11960835284776543, 0.43814963953556796, 0.4021429514884506, 0.3490693335574388, 0.381583226847142, 0.2306588970852395, -0.12729046553100315, 0.11202487697551552, 0.1911125431108286, -0.20809585278246617, -0.5567820900525107, -0.40968455532295317, 0.3455645000643451, 0.3436891177790583, -0.10102899800136221, -0.4419774534123568, 0.07918347586829975, -0.1947081267644647, -0.2807180842160575, 0.5125832957123836, -0.1315863509675807, 0.4400870706040253, -0.04031550465889905, -0.19125042379935173, -0.46719117617801437, -0.48411012945076276, 0.44237478853861784, -0.09887571371931973, 0.39962818128926186, -0.4575206787413023, -0.4164590518442101, 0.44798799870860734, 0.3196675296225468, 0.3956018399255652, -0.4834283888201342, 0.20854703764354543, -0.162129345403968, 0.311954067260647, -0.12478308086867164, -0.2676943165838619, 0.13635782132673643, -0.2529933275519375, 0.2810416364221559, -0.43703581346969717, 0.07141236798979453, 0.11724009841723831, 0.4981213607915921, -0.26267990433686256, -0.12203656399472987, 0.24352498597610686, 0.13883010677434832, -0.24393731527404816, 0.21899104427775684, 0.24346061284737153, -0.5201448174988509, -0.3047479554799687, 0.06265705143655434, -0.19649465964504115, -0.06116059641866987, -0.20702167680894862, 0.18866164723063156, -0.18098098477212482, 0.00020456928686073489, 0.22319495957246163, -0.41670007912322965, 0.4438716592960232, -0.1895746824776157, -0.16107278261131516, -0.03572042114081425, 0.05481545150019058, 0.055502123278471996, -0.18022143774304902, -0.5380331201956187, -0.041435582631098956, -0.4714480762151734, 0.3568157338508913, 0.07833911328306886, 0.13107203742613333, -0.21064805254958843, 0.047071506483060604, 0.2876798855720214, -0.12290807140872136, 0.11123921465847485, 0.4240505387068338, 0.093333526640759, 0.10494186893671761, 0.07406276533184619, -0.45872550783155547, 0.16930988647339326, -0.32181031744040617, 0.05722095824129965, -0.3527104228960514, 0.2842694858018985, -0.5031517975298515, -0.45653446441946716, -0.35383363735009393, 0.10788604093212426, -0.37903796005961965, -0.2289923036578231, 0.38853133270295276, -0.31150259035663685, 0.42074631005773633, 0.4402750317862668, 0.27618549321662156, -0.15082748312666938, 0.26955978425646027, 0.09332261572090174, -0.2612353085821858, 0.27787000121560274, 0.3980517711049205, 0.21381154892066798, -0.19870597020303682, 0.28889458192714457, 0.1957244916515032, -0.3426988966579246, -0.1453451655281075, 0.14273961433833698, -0.2662614985532076, 0.1851835333655075, -0.0669728768377229, 0.49055808103531107, -0.2441973709438976, -0.14204591065886893, 0.01896656365676426, 0.3807826001968549, 0.4803618521085532, 0.06150573975683701, 0.42232081626596213, -0.2751090474004954, 0.020175393184149227, 0.13552529497698182, -0.07730867404472233, -0.29987038964488405, 0.15599999550210814, -0.46201298562295173, -0.06946831919655545, -0.11578208172201741, -0.2837150423295889, 0.21388672774132844, 0.32545936498381084, 0.08876326672303948, -0.3846801817922921, -0.18238984214660953, -0.42182244549307896, 0.29606085603645116, 0.13109398890842439, 0.44537371087536287, -0.3306707162444885, 0.3483040084358417, -0.33874898607610027, -0.06938651084289117, -0.5339933733960163, 0.3340463363293013, -0.2349357151972122, 0.10643481259437634, -0.4918776998470207, 0.5198426358928395, 0.5210255555668036, -0.1995721575570305, 0.23028136306432073, 0.5106886945686716, -0.2752049119342378, -0.04884574993306746, 0.3040539712975312, 0.3239278319935001, 0.259423354336441, -0.28660938946412773, 0.2015279464748278, 0.011965253286011834, 0.05893728570874406, 0.23765918109295475, -0.27855634932925233, 0.09721101480790305, 0.2295679773143623, -0.5132128608210901, -0.38545577413858134, 0.44547192469700553, -0.02435633798410997, -0.007595605026139625, -0.2922816393097404, 0.2804414271507768, 0.023265310374961014, 0.2622975336538739, 0.1493737928474306, 0.05437231275359259, -0.4198010492738116, 0.16567089695926931, 0.005312461510598145, 0.4309765444737477, 0.035993931770434126, -0.442297366118495, -0.21714260778976244, 0.43586314286974104, -0.4841407303357233, 0.1498530036203669, -0.5095974551034641, 0.4975239040324034, -0.1057271650659799, -0.017365307551928017, 0.5035949747871952, 0.037567610927618254, 0.0029717356420731885, -0.19981596575516858, -0.23611271452341195, 0.27179414659749457, 0.16187624971979522, 0.10884381282538998, -0.05508714421071759, -0.061239406434583095, -0.16240939934655818, -0.00900085006083203, 0.20182206085857063, -0.09854171638109555, 0.046057599590744194, -0.3765421242977807, -0.5052688523325377, 0.48468933670832565, 0.32708275340808707, 0.484732382601483, -0.25795110106038666, -0.13603966563213135, 0.06775731913303668, 0.03058112626099735, 0.4484688034578517, 0.17544990331681667, 0.017872334154827644, 0.25286701709184034, -0.34248656912399, -0.16051124893495602, -0.37055851139209683, -0.47646156287919755, -0.23790139079586825, -0.07351905936892435, -0.4257082723268149, -0.18797093880287308, 0.07671597325729586, 0.16220044216205798, -0.3297365126804815, -0.05146635455385006, -0.09454785483029127, 0.31647781425620214, -0.4135322711329503, 0.3005376581063902], [-0.3837591716719234, -0.5015362321063499, -0.014671341360136462, 0.009978637734441778, 0.3594901702806782, -0.29173648293042365, 0.48198692090630346, -0.2700694309556568, -0.4437828724365322, 0.17480149330228523, -0.4348158048965237, -0.48455555906265146, -0.34786019826709774, 0.0026537103355909275, -0.018840830182154083, 0.01438268195576189, 0.03910732079383569, -0.4857737745513617, -0.28204173900763435, -0.32344844652135774, 0.36279020044195015, -0.2510213442912174, 0.22442843955138803, -0.1340194110054867, -0.06533356530444868, 0.30301134800089385, 0.45790024910286736, -0.2661508252469779, -0.4791777143247638, 0.17222579951347333, -0.3941964901522191, -0.3173214664305398, 0.21348052645631876, 0.36194984457225093, 0.3811725201195143, -0.43164118666935103, 0.3725846271319428, 0.4182734674578678, -0.15624016388637413, -0.1025322444690123, -0.006422700363441994, -0.2865595446616499, 0.2340617150522343, -0.20204210365373426, -0.09967313166755186, -0.00886531900838381, -0.38728515040260014, -0.01871580040407618, -0.024902660867001554, 0.3123757841476626, 0.34373496186952723, -0.44953012347570626, 0.2558788784187663, -0.19135258298894325, -0.06935120440492444, 0.16214995960713918, 0.38855984887148487, -0.023546288316244057, -0.05026483761408266, 0.04337436133037407, -0.011529975440409825, -0.0697669351570753, 0.009171509269195018, 0.1994650408016472, -0.22339558651546876, 0.45585762031381644, 0.4984076462345538, 0.34370966327652164, 0.21705195244248732, -0.5154974572425889, 0.20310123133423755, -0.396837969582974, 0.2670938666067312, 0.45798610228260217, -0.2971814849633718, -0.019444475897255013, -0.3877715209450738, 0.26123810165201233, 0.4346740109041063, -0.4333670411644497, 0.4224251766241153, 0.06043876982118295, 0.2272860021439772, 0.33801442921184066, 0.3240521669152342, -0.37466211290196494, 0.3891551634182581, 0.23215942523719413, 0.4597992685055133, 0.31966324748419334, -0.41376074254527606, 0.2618664286898258, -0.2393280500427172, 0.1504040878096842, 0.41893837866474853, 0.2672500166765837, -0.031689412984846295, 0.18994986724741314, 0.3714195036492478, 0.06530197350875656, -0.10005175205631431, -0.2826828277274036, 0.18213119415576864, -0.42465697625456483, -0.08852925147953972, -0.477700929951788, 0.28464213034880576, -0.20961101145928937, -0.09950173878169692, 0.215705166862781, 0.2130179914884471, 0.10827059816089996, -0.08800689450126517, -0.17270599791147795, 0.10119653626709182, 0.503201098321674, -0.2739429351516691, -0.392111499264826, -0.47509697556420044, -0.22487418120030964, 0.16260916603905598, -0.24817407525461596, 0.3950028701506181, 0.009247639921333537, 0.1938295546115951, -0.2553135778994243, -0.2920036528011119, -0.392462785698069, 0.37697757231186885, 0.1177839396722053, 0.25381701101997034, -0.21013563921884215, 0.012618209074831714, -0.5005545055101384, 0.4410724915471151, 0.034533837508011304, -0.25556510277032746, 0.44933130932738435, 0.05205166878682313, 0.4451715909073251, -0.13041101847473233, 0.364784972436536, 0.37195237665847125, -0.446571921888039, 0.4330947054478852, 0.41908612464740824, -0.4234655337483206, -0.014301494714639281, -0.38997469895488407, 0.10767030778901997, 0.1313706606409781, -0.021632337578893907, 0.43289518168151564, -0.017812691434916126, 0.3295724913182833, -0.3232003578455328, 0.08627159942715043, 0.4562841499200735, 0.3284034645879469, 0.36094667959696347, 0.3061126217622288, 0.10034962971082169, -0.04581085085812933, 0.08756456778144722, -0.34167663079541954, 0.23455673735182175, 0.07503641591386051, -0.3205378997078296, -0.06911168589790341, 0.15096104846500474, 0.4577469979599655, 0.11285402903145503, 0.38718750217620224, -0.35203533488869354, -0.1509475450167271, -0.4073225242208503, -0.12054504933225192, 0.4465007567292464, 0.06941646531218147, 0.1137340161902572, -0.22463711190958302, 0.1497478861007695, -0.29348063337740304, -0.1267982795433645, -0.40635662245803805, 0.23148798303161988, -0.13829390663682833, 0.00966065053855501, -0.4503748042841165, -0.19004857882677956, 0.23507760618130508, 0.3995810457259758, -0.3184946003293508, -0.2811418810530173, 0.09301013391529477, -0.47112142283289504, -0.3650689004333152, -0.2265332089631116, 0.21496664272457267, -0.49082692219689367, -0.16283432287341504, -0.07660396688987409, 0.08370284368222534, -0.29481289276132566, -0.34655587689443257, 0.32587441244230114, 0.18754203420036247, -0.16359690160982304, 0.02227906074647996, 0.09877553104787143, -0.24859383244968217, 0.45372847958840573, 0.3900582163266768, -0.10789407790261483, 0.2710492440711214, 0.22026660197886097, 0.12525333887569615, -0.029470577061255672, 0.4619014615077081, 0.383568836416029, -0.10728509196434241, -0.03475121171695087, 0.13598486374078175, 0.2930052372080754, -0.27215420679473457, -0.4074692829796717, 0.32640664294469157, -0.4187238510365163, -0.3202406846961945, 0.243234388420031, 0.36296804220690404, 0.1814412398866231, -0.4676882655181119, -0.1823467275222298, -0.25447848158620173, -0.032436229077089186, 0.3713457439044074, 0.25586267156950393, 0.20751484393736117, 0.4370793619593179, -0.17584268361112992, -0.3930006898916358, 0.1061295996480152, 0.4109391961477376, 0.06477183009295011, -0.4031024927930704, 0.416882461456292, 0.18178373127231526, -0.16399232472441239, 0.16930499470342836, -0.3980577991256394, -0.4534186209552384, 0.22799044240182365, -0.014778952324685773, -0.10486370591222098, 0.12422036490109094, -0.23270043044328723, -0.19349830521682335, 0.3719612382965262, -0.15741586716815564, -0.06859623382871949, -0.2458669747110586, -0.21269840586436542, 0.466451894970909, 0.40127152468588484, 0.10037788579843175, -0.2712710749640648, 0.188375453433201, -0.3862257751161633, 0.45508548591157716, 0.34890307746121046, 0.4064270815531865, -0.2850319422985585, 0.3259464754936019, -0.042061333619860655, 0.3775348063621103, -0.26492449669085966, 0.489492798121568, 0.11734750220499487, -0.1498400270274215, -0.05250397668616124, 0.019521822239946113, 0.10511362640072444, -0.401882350366893, -0.10168382274059716, -0.3481709991945931, 0.46363592172434, 0.4836118728098652, 0.3764726431807308, 0.2689620918631331, 0.0029364085643586164, -0.4960740257853383, 0.029968622124079504, -0.4518448943589685, 0.4994799534858861, -0.02983780646294126, -0.11064384540589217, 0.17867872752246167, 0.2591903138798884, -0.06817423244707735, -0.36555345217419616, 0.20436406174138153, 0.47339020973403373, -0.04218908474544494, -0.30704374070483514, 0.44127825566697854, -0.356790046502133, -0.2701112100067522, -0.2272246932511752, 0.34371669317144016, 0.15462109483164013, -0.18634067123653117, -0.44376877226736416, -0.0008238511859397789, -0.40895112713825155, 0.4706640477785768, 0.34948901331830645, -0.05902813548290107, 0.32352606621535973, -0.3956752467196135, 0.137447818490656, -0.1416825276568369, 0.4412423656212977, 0.39605926868825286, 0.15086390829971644, 0.3736096878433437, -0.24834206074795115, -0.2420409704796124, 0.3785246472099541, -0.07877708629554053, 0.017824276534949796, -0.298316402359027, 0.3711027786957095, -0.22906118404337658, 0.19867812124647902, -0.43387621911958496, -0.3430269461386932, -0.39575396225198656, 0.4946364195885977, -0.17944364692045267, -0.21491991212572498, 0.2914231067265197, 0.2313290463064655, 0.41416703797082816, -0.2093242451148444, -0.20183247438133642, 0.4428200940367994, 0.09024255796507709, -0.16515516298860722, -0.24796950400767648, 0.4413054849707881, 0.23141320146671734, 0.3015926395283536, 0.520682242510097, 0.5066025826758916, 0.262914759524482, -0.1574920616581399, 0.52295200471926, -0.472547709830704, 0.19573101673216237, -0.46659214556312734, -0.47261387712718356, 0.07987246288219899, -0.4448685136278401, -0.24209664674237538, 0.056680070005381236, 0.4231444626551743, -0.46653792050870313, -0.13562089546577932, -0.1860631329531952, -0.31100021473153755, -0.5189803446829044, -0.28702536241681753, 0.27923526230664897, -0.3030393306289385, 0.13859808545051083, 0.17245738801764365, 0.09182615048377021, -0.018542908427338932, -0.30934905177001926, 0.39232877885169926, -0.4321745161524038, -0.3913831346184487, -0.15464403669897867, -0.22328285929436054, -0.11737397723122844, 0.2946156740520759, 0.44665835744886107, -0.49977259948289826, -0.045761421967137755, -0.08492235562799619, -0.34544162166649145, -0.11140547945132384, -0.24824858467719127, -0.01642353681627617, -0.11648266433127492, -0.19690710326218128, 0.4712947143555762, -0.33475123985525, -0.511247666694181, 0.05314680377552728], [0.34239256494586645, -0.14989797273236383, 0.11905829869292894, 0.052430938169622264, 0.44625276554573845, -0.4506552861000611, 0.24851989552347806, 0.2447917561002315, 0.4070667571760276, -0.08247326767693632, 0.3522406696696426, 0.1777495226370273, -0.08734476183712349, 0.10687758441613779, -0.3163980970857295, -0.1935723735766598, 0.3746041510780811, -0.23158510045246022, -0.15512682141149073, 0.3166626501909017, -0.33523532185807586, -0.04695744670406732, -0.295251894547833, 0.1353066261144503, 0.1757808562251861, 0.2980109591846215, -0.19915746733064765, 0.25766810014982594, -0.24776774997373008, 0.0758671658016772, 0.2785067343071221, -0.18432769891485487, -0.27646200130388326, -0.37917651506276706, 0.058574084256866644, -0.024103370638119053, -0.3326320948815901, -0.07678411743649907, 0.18824818760985812, 0.09786633703669927, 0.18381714904357777, 0.14366319799641009, -0.2603556953659511, -0.1948155060804968, -0.12478873337817575, -0.09272379668771316, -0.23208350160686886, -0.003151511428068388, -0.4536092608932923, 0.4477205264395049, -0.20840322060845123, -0.3387539682811048, -0.4423510426265258, 0.00564205915269173, -0.2723524160519264, -0.3105989422302899, -0.2449675760364145, -0.488884765241382, -0.05549215225913248, 0.12061106448797031, 0.06954863080002287, -0.2684973503855775, 0.14694866942221096, -0.10168124555090875, 0.1881022621677586, 0.22724329384661304, -0.19265530399541875, -0.43378356168548327, 0.2182124853342072, -0.16303314688221618, -0.2892446069041069, -0.2805170158692571, -0.34604413950821117, -0.3624421562475318, -0.2592237157207736, 0.1947054752432831, -0.1872883420208971, -0.4964559010992178, -0.16049478805824433, 0.31832884578407233, 0.4219805063994928, 0.44866293177521016, -0.3910082302151651, -0.5046990552118644, 0.31313607544395283, -0.41372491278964485, 0.4235681277022449, -0.16495292048314467, -0.08215414945589895, 0.1547892524970909, 0.17403298332828177, -0.45434536578480617, 0.40494232219781207, 0.013611832045926394, 0.1292625341620257, 0.4671134451971424, 0.2687162196140174, -0.15178718733775945, -0.3282663525738014, 0.29852674884778435, -0.16960009714535504, 0.0029831621020943344, -0.20038553160820383, -0.46408427883868814, 0.28587969967727384, -0.39620970559617985, 0.06642542909662394, 0.45418558908419515, 0.29639385472471397, 0.2041533178880387, 0.06949145869400694, -0.5053938825773621, -0.2759431933457085, 0.34109167570152754, 0.1834261855753594, -0.07869663882318245, -0.32924615557742715, 0.26267265836170567, 0.39546982822017807, -0.07192941618147924, -0.18624772442988435, -0.05543924350337302, -0.2788110517390305, -0.3299170509639808, -0.17927024229584512, 0.18739405993020225, -0.17486926770999234, -0.3741303043553249, 0.4560617741936018, 0.44749759054808413, -0.1841358804361466, 0.1341536199866977, -0.42411300429295373, -0.23362545038838176, -0.14090162936484737, 0.18101577832908106, 0.024350468516159886, 0.2776865041643751, 0.12324326634530552, -0.46881122109734014, 0.12495431362977495, -0.007418714524799536, 0.35204321010617945, -0.4365199279231043, -0.1391956678883391, 0.16732053391937882, 0.3645097204286884, -0.19685007182153905, -0.052561036134433116, 0.4733323601633078, 0.43485347765840665, -0.0006636691556698344, 0.328011975766155, 0.32908423083549154, 0.28397795089118527, 0.2738101166710479, -0.27630660901154164, 0.2000430438565482, 0.4746910220510766, 0.27359212072485184, -0.45285133430456037, 0.13371688935760637, -0.16688237989708132, -0.3611101414581628, 0.09734368986005541, -0.21851782746703474, 0.39285716004192195, 0.1710184243799239, -0.23242391908177315, 0.24363656856808436, -0.49356742879047943, 0.24187435134756577, -0.46850731886565744, 0.4883867416657167, 0.34536874391100886, 0.03637769695405127, 0.30158496788905276, 0.18706519584011233, -0.20290674910817216, 0.26741609548679685, -0.1769138023591285, 0.19784259132318976, -0.43456623106109155, -0.23833179002158894, 0.4568119551541761, -0.058864795382399575, -0.4541576456444653, -0.20012405351277676, -0.19683839979047665, 0.2579199889346903, -0.27493977658397645, 0.38213655304255917, -0.3548631643337782, 0.1784916008976195, -0.19708009637147503, -0.43836382229744475, -0.010136336455852745, -0.19076155676966183, 0.42814235012906543, -0.1492669014396926, -0.10832185660639666, 0.11327504084139732, 0.11957576770055041, 0.3373557969789632, 0.19364269258459796, -0.41947063394363326, -0.03546247991377681, -0.08439865910339577, -0.08152684479302316, -0.2978446590892409, -0.470543148374875, -0.027640815081861714, -0.1815439417159437, -0.045979034131365525, -0.06211920894074919, -0.41662582810470594, 0.35576817819828926, -0.35813092414761355, -0.10932140938444078, -0.48195894611974793, -0.24058445423802652, 0.4990440720057219, -0.24794144183440037, 0.26758865211473976, -0.26602808121045796, -0.19182589381948234, -0.29222082773766506, 0.04794213549169762, 0.452497160893348, 0.05859500192158918, 0.2885936449087666, -0.15567767974886781, -0.25461029197979684, -0.307280664313555, 0.013185494044760151, -0.44209156180456105, -0.3333029238201395, -0.3806670260538664, 0.054304947926968945, -0.260099199930872, 0.047227535407059255, -0.08068317283325484, 0.02225274986015979, -0.37406659798182135, 0.10401900967810469, -0.2227908021886703, -0.5062388663012521, -0.071836470120331, -0.3799730497595256, 0.3676480333686148, 0.09440665548914712, 0.225813480339655, 0.4355694081835297, -0.1353749841513652, -0.027526905711625832, 0.28136339210905764, -0.2849805436825521, 0.3780170307361855, -0.20041057849951766, -0.031354739074984025, -0.4703835684170011, -0.4416594577360977, -0.19750039489698124, 0.017345293974550025, -0.055573023224478116, -0.2312966109436946, -0.06658607129678332, -0.35777065612093545, -0.35965471001695465, -0.10549623252687344, 0.21651231068545496, 0.16506282370599296, 0.3159229071331032, -0.5046671115640524, 0.035992292687912764, -0.042220723082511534, -0.34994646615120945, -0.013643699780202474, 0.18963423171511978, -0.48328252426255824, 0.34813827337055653, -0.3849348400833817, 0.23068810595688533, 0.39128334273771825, -0.004049507221399931, -0.4611878469723059, -0.2637060913913189, -0.23199201293977403, 0.10151214219543796, -0.47827766828510726, -0.08516431643799968, 0.29431976766221946, -0.2945401812631939, -0.14390157571853932, 0.03369368159399773, -0.27904177209882114, -0.11267693799527409, 0.053389741989718575, 0.46187162889892974, 0.4791920977580518, -0.10469275800680788, 0.15308635920151864, -0.020677656001411537, -0.5149540407432176, 0.25107180774284066, -0.2890512088144992, -0.16377314673911647, 0.12836972451517956, -0.025986270898443554, -0.35705907723277774, -0.06021247167386644, 0.10147679469217487, -0.31977196525100887, 0.22413172111208737, 0.4585535279050964, 0.18529431123481763, -0.30981774913100757, -0.274566422481566, -0.09037954006915164, -0.21925737766883102, 0.30662472223708204, -0.2414353904079259, 0.032223889210565355, -0.09540553868239832, -0.414759963625739, -0.33917840621749806, -0.2748165878685943, 0.10172538878504454, 0.4829508888434265, 0.04482195252311722, 0.44277401697762275, 0.31711311082515764, 0.19389959881184898, -0.42767773115811614, -0.14686309977281992, -0.12785242173397487, -0.19184747251703715, -0.3982383702030854, -0.44179388448144985, 0.19736349935998415, -0.21510681638843615, -0.08224115109021082, 0.22541709995147813, 0.24348257977376822, 0.33751940779758094, -0.1072463299033009, -0.2433805403417671, -0.35507030793858263, 0.11871778191267468, 0.16641841486051576, -0.03392962798153137, -0.5106357943398484, 0.06384144333781792, 0.4944472313628009, 0.1861994554861375, -0.2599375125838377, -0.11485147634592682, -0.31036345084399314, -0.3576457586727018, 0.4090847013679605, 0.3114147612142486, 0.19661708226288627, 0.2924504069986968, -0.29298614907782417, 0.1754559395832167, -0.24204517180620927, -0.268745590592102, 0.16788830648496003, 0.4682389925493568, -0.1371623254669623, -0.05113111899826859, 0.24895262945377647, 0.09195051638235506, 0.48894791350446276, -0.29898792873490393, 0.4414481177778265, -0.12421257886768126, -0.06499134701776903, 0.1747650897663354, -0.18859963275983668, -0.4328626552755718, 0.2514894706473981, 0.3196348469491037, -0.39975498370303725, -0.35918370866045496, -0.2709628840835983, -0.36326669418681623, 0.44980407036171, -0.20017944966672122, 0.3984949954985105, -0.31255383424260913, 0.496610764713461, -0.04062568418573646, 0.23072844379967788, 0.36793584247834815, 0.2825369575479744, 0.15952418136447144, 0.4678066027336171, -0.3600914157533876, 0.35836750081870977, 0.1446455455776141], [0.2974152388358014, 0.14654057513009294, -0.09046670529033529, -0.2280801374536259, -0.2611746005222767, -0.2172275636499902, -0.01089317189019782, -0.03822675364038567, 0.19160190460619483, -0.05672397333559031, 0.24071902385439284, 0.26707599735720755, 0.12581918866018513, 0.17049846516726383, -0.3666197060284602, -0.14983411845738112, -0.10353027958531263, -0.24847539981031505, 0.43878189665040646, -0.13917388121736674, -0.18281131903077583, 0.30958644210616054, -0.08041867269731981, -0.3028823088996595, -0.49219739181477845, -0.29214263347125546, 0.19183859572680173, 0.25342177728726534, 0.33395198046380786, -0.32848828034929783, 0.28859859797947546, -0.1981873488054485, -0.11119303703557203, -0.04146070227014265, 0.41002029522343736, 0.4984083456070061, -0.3569425240195665, 0.04375212492374654, 0.2913111321921606, -0.08587380283330895, 0.3173835454893413, -0.20908975233982605, 0.32137975934974716, 0.05296293646236363, 0.4893328927580556, 0.03382909120111457, -0.3116759428574305, -0.06683622150502001, 0.08726718057379515, -0.4285757390937839, 0.3489019568393482, -0.4864479956168506, 0.3553612624744735, 0.42800238839109717, 0.2776438573354702, -0.022468544530972, 0.05481656977311809, 0.33613545932148897, -0.2756627113547241, 0.20722264399466891, 0.25466648955616533, -0.25180693859493325, 0.20529780053773436, -0.5056881452458274, -0.3809448268358744, 0.2325183149690287, -0.16091118301304833, 0.45924624359894334, 0.4090998163384557, -0.23666609167760855, 0.299706523488508, -0.38527069459476254, -0.002699939952634477, 0.28186849698214084, 0.5099458497928521, -0.4643457650379466, -0.3498786039209032, -0.2869403711175693, 0.36072437511818556, -0.1751489519590645, -0.30122016750080854, 0.07740668979095604, 0.21555197431029458, -0.39790330190088163, 0.1420448318160433, -0.4592536285069571, 0.107318422100924, 0.07331162174376557, 0.11186095179223711, -0.4077101931178654, -0.2969333204628544, -0.2710204229421024, -0.26323878038532816, 0.23239362642626119, -0.21145403668272675, -0.035317399647487036, -0.12649525149511245, -0.20047158028851106, -0.13485507847024425, 0.14374273214782632, -0.38828655743654505, -0.3224140940699053, 0.2699099472983542, -0.09887508775272504, -0.005379938322267254, -0.5030844818712414, 0.13641811489119826, -0.16578840667127512, 0.2696788747226979, 0.3463079429329157, -0.2303980752009943, -0.15062119152948594, -0.08920195738690023, 0.34670507380916177, 0.32019626557279934, -0.18434021411809412, 0.02302319588456811, -0.37447353988019094, -0.07383434313088133, 0.3200844743183293, 0.20523385287409482, 0.1457463297551453, -0.46416949643632194, -0.04098825730179627, -0.31480995235132114, -0.3520330874503141, 0.35263657375050717, -0.3565690025360011, -0.3154097869667359, 0.3890521123060566, -0.3137842463834008, -0.4228633924984465, -0.1225656689365577, -0.26646230277024313, -0.28224019978202547, -0.27066357023419146, 0.4526914079139136, -0.060916644283389054, 0.19897809719055468, -0.5043981196435984, -0.17284691073116004, 0.0738083953958927, 0.05191799329728514, -0.4774351006474704, -0.5490339857405788, 0.4467759420473889, 0.33028494516379053, -0.3435583647039252, 0.24690094911600982, -0.012216282201574604, 0.03430517787523851, -0.08960670578720566, -0.45561232186518175, 0.2628255903454564, 0.2718730522780023, -0.39851599555083606, -0.35164020887754355, -0.32872681448465446, 0.3279587433623824, -0.18661825513863275, 0.4146024026711154, -0.21428725762975998, -0.21451942483350459, -0.19004094592106285, -0.40509335797840895, 0.18280091607675833, -0.3139915709750701, 0.11119588882520261, -0.15052560172711293, -0.08744136018696431, 0.06583857806540003, 0.3633381377213504, 0.14322564173327124, -0.4473541683678298, 0.5137497775019626, -0.2571945692927737, 0.0930150147029124, -0.05754132255488897, -0.04397229665523805, 0.19306861295139446, -0.22981026523057133, -0.03535577706748434, -0.20450886274058339, -0.5317946322928435, 0.42706820857374855, -0.2262459459164718, -0.4174155668499983, -0.3118402903919181, -0.2782403845314618, 0.43961691551316173, 0.49607148401973344, -0.041808870771382074, 0.0992758095391371, 0.4555306562401524, 0.2557807338822571, -0.19775345002208228, 0.319882215338395, -0.41847594813310346, 0.32181888358121835, -0.00632438440930853, -0.35280512576432205, 0.4042122462117364, 0.05641523580023916, -0.0370406219385004, -0.06306779990081536, -0.0056200984944430295, 0.34253268646238727, 0.1691235545995785, -0.4631799432913172, -0.4277696233432341, -0.013426209707088936, -0.3615430881906665, 0.25974650880520006, 0.49700772851878394, 0.2920509274665837, -0.3356879573269674, -0.35833837454732603, 0.15036583796467906, 0.29803185297265294, -0.409234436701809, 0.42942955371554364, 0.03252806533536862, 0.4466972517355412, 0.23398571056141457, 0.3022485496913205, 0.20739079992590972, 0.20910831902756838, 0.27668559236918794, -0.49309878737240664, 0.05326205575326807, -0.31420282816812833, 0.04965335227687085, 0.5017501555276159, -0.4677567068898549, 0.1963172750663775, -0.17468709855280445, 0.06982925884989535, 0.24006689696748593, -0.35308534811404024, 0.36051329912299734, -0.09814854818127097, -0.03312880720841034, -0.26515706942095596, 0.27332758542974583, -0.08122591555611615, 0.24098485580482507, 0.008122084233187249, -0.037519039963973703, 0.420390186413133, -0.12421739602611684, 0.12555182874933843, -0.34187563705017193, 0.29963901267149845, -0.3993192928238163, -0.23998884437776327, -0.036509991056992694, -0.3168026364982766, -0.2287647140330151, -0.4806303231033075, -0.3391932319604685, -0.13216599103983143, -0.44504985656362595, 0.258830247346837, 0.21339050566514223, -0.13428061792079746, 0.4839547694591467, 0.03771601143330552, -0.3403083870723104, -0.2085883975503658, -0.10951243099954039, -0.22851371818856042, 0.3871271107085785, 0.04252170063314767, -0.27945177155088025, -0.1876817511381266, -0.2044952820897613, -0.46330165085088776, 0.18801329514930226, 0.20560433974989187, -0.4687113957881473, 0.3062632481104054, 0.006766060693582807, -0.05243301663436084, -0.13238973878967003, 0.29276282874904236, 0.21323235161841492, 0.10617265726374685, 0.08841594573760549, -0.2920918289657353, -0.36691240418729454, 0.20694744237523283, -0.053105043754455794, -0.3968377261812331, 0.14912423443959044, 0.10110513790979783, -0.12548605727631496, -0.14141211301771223, -0.17060968544008615, 0.23114183200209254, 0.0494306739303529, -0.3751349443906291, 0.1450469555958122, 0.17581376153234443, -0.33894000042563227, -0.2712540370587913, -0.002368877853077095, -0.12452297466734039, 0.033803843785199204, -0.4328750107420961, -0.03809755733719266, -0.2540686698334951, -0.06210225768131723, 0.47685668005375453, -0.11311105881376507, -0.26629186376717895, -0.027527160988785698, -0.3793612424431565, 0.45329321440406845, 0.07652485918059683, -0.14011372450992643, 0.4027959731452338, -0.4076285264094073, 0.35095518801972875, -0.20817284281069504, -0.1441037111589993, 0.1328642294913292, -0.02104120625492854, 0.3553889227401736, -0.011155743341807071, 0.1453597771330523, 0.023290848111033012, -0.34545456719085826, -0.11000668704819061, 0.33299114309511524, -0.2800401603187156, 0.24270324955516376, 0.2314859570947447, -0.45994564778277114, 0.1456531890912647, 0.10780362617791697, 0.28489526154252603, -0.3494554189471223, 0.4910427113989139, 0.3900983857484202, 0.38460420375140686, -0.2802853582775384, -0.37337956996271077, 0.2816820491007854, -0.28765859362681045, -0.16784652291579083, -0.1410080976122492, 0.4503068285805258, 0.520291489287872, 0.41973746097509224, -0.1265532351168115, 0.005715656331209806, 0.2280662254724674, -0.37391493187552377, 0.3975172846916351, -0.03672267101971824, 0.19894900460837928, -0.1222969021675188, 0.09002565500160614, -0.3326513791145421, -0.30647431797350555, 0.46160573449131903, -0.39567586945225564, 0.2686035982924914, -0.42597694676327086, -0.26947995819521986, -0.36708366330839576, 0.029019818254167235, -0.31610225563027833, -0.22740626915863943, 0.021770662839709572, 0.19372363088202332, -0.2708196330130028, 0.4829632832890294, 0.579526172637179, -0.006695795710820018, 0.0671470356282801, -0.09582518670996858, 0.36368785534963743, -0.035452482462250634, -0.29475272628245364, 0.2601694843979778, -0.027392682940742742, 0.49146357668789376, -0.18359432106740037, 0.5073347402638322, 0.08461035977521955, -0.0708190612636725, -0.2517803870847679, 0.49801964807882115, -0.42544182045661283, 0.5672263974929518, 0.30052075351811774, 0.09126911095871393, -0.11817806982738842, 0.42365918530530366, 0.4848229269997923], [-0.26426061686738317, 0.08638378117004696, 0.49966829825015024, 0.08210269456937948, 0.03568854684590726, -0.47939431163347035, -0.3820974878247259, 0.45698657266117804, 0.014849455784810919, 0.13920825166199435, -0.04509014622384388, -0.23039628823036978, 0.4082997984488146, 0.199300352807461, 0.46586716581586074, -0.36522186593132006, 0.18650502304268082, 0.3399484950372834, -0.194733065719593, 0.20396068730299347, 0.08227148003701763, 0.022129540122815722, -0.20722462945141285, 0.1945421526217629, -0.002078336335500523, 0.17502794684382045, -0.24295652428967374, -0.006604456237819588, 0.18668059885344407, 0.2291844690082727, 0.4340394663909121, 0.0340608625143461, -0.015746950214836818, 0.11867105939433635, 0.2627059399519866, -0.49730759727232765, 0.09098720047719672, 0.31329543500559004, 0.3724602703230892, 0.3719023672669255, 0.18165666099636657, 0.37537569304322915, 0.209147529358012, 0.03297762497692958, 0.016280052767159322, -0.483907313403288, 0.15505566377831057, 0.3870079378446368, 0.04963372198647434, -0.3857819046016696, 0.16411275083530705, -0.005301710878601104, 0.28093240552449783, -0.10752546524444404, 0.0257608622972761, 0.28750391862968844, 0.18997774570224968, -0.2534166754032413, -0.4259182402272441, 0.10608114333018455, -0.12274917871307832, -0.12957206940416896, -0.45114191851899926, -0.004116497170432896, 0.06820755822262091, -0.03736315185035439, -0.1715277545520029, -0.20185591365684757, -0.011381708239994296, 0.012299477883513859, 0.5694172877124976, 0.33036176473536216, -0.06902576363178294, 0.2664227296090239, -0.07927223844596187, -0.4478135049318356, 0.12382430308238183, -0.11192487458404753, -0.14321509952166678, -0.5232935919331555, 0.06677130811205824, -0.11364892992744194, -0.24754605251879203, 0.052992119709508255, 0.42565107493098725, 0.29512462945060236, 0.1993122634269165, -0.1045856894585315, 0.15109781129754954, 0.3672697445603039, 0.3777695704589082, -0.2759723512064877, -0.08253328209924143, -0.3404828332506367, -0.3611405573122629, -0.49120084387305507, -0.10934406537379815, 0.33361035487595275, 0.39683898993624284, -0.27372858183662124, -0.4220211024677226, -0.3497120010459794, -0.1345836520960256, 0.0326534469464489, -0.17334826304593878, -0.1412977765992579, -0.06494006347747486, -0.28301810593619314, -0.07248428572527409, 0.4211988218797159, 0.11419267124078264, 0.48231564056558807, -0.02939959901291622, 0.2685381735502695, -0.31900694983462285, -0.2955574019664719, 0.1930458076663823, 0.1269919129881267, -0.2904640753344103, 0.23327522548106633, -0.3185081815521444, 0.18878964607019894, 0.26220845259557235, -0.12545165037484216, -0.16191258982035456, 0.09626499298204044, 0.38646626867258455, -0.41644588112195513, -0.1476634242627779, -0.29161055403428765, -0.42776124079595235, -0.06339282594271091, 0.3009500176007431, 0.3070419968539391, 0.23919022775259424, 0.3162792182609987, -0.37721757495289027, 0.24672724156846365, -0.09421230936680416, 0.21359741345128555, -0.12220912505143929, 0.041859990411595, -0.4152614180156998, 0.3509406941878285, 0.23506012311441152, 0.08269611454750003, -0.41748746854621444, 0.30944163980097095, 0.518105847915137, 0.31184910762759155, 0.39880768487831764, 0.41367302945908396, 0.1588252835661516, 0.3832076668014401, -0.4785703834108195, -0.29054838171852415, -0.3406279403741671, 0.4618203805520598, -0.1292683319519478, -0.1449844857979418, 0.28885651156161285, -0.419219621485119, -0.05231033657513597, -0.4153557367542436, 0.3363029050290015, -0.023519247124598835, 0.1184212431515903, -0.3421003814378019, -0.4236072240629275, -0.24922260604625496, -0.09129147162508021, -0.019624704734543027, 0.4293476794580968, -0.22413327653653567, 0.3362829377848773, -0.1760920866888305, -0.37090735202499775, 0.4720495229279693, 0.15622866458565368, -0.3626325377175127, 0.3891563574080447, 0.41929469922598933, 0.35949116271555065, -0.05272788737215304, 0.1745015233471254, 0.41375758762780573, 0.21436979206273798, -0.21945094223090877, -0.16195880716911665, 0.38701754155181134, 0.42140646256287767, -0.2829301011520561, -0.3829987498561476, -0.3993901779875332, 0.012870109870026927, -0.4042783897887765, -0.1366807750618763, 0.1808447029863783, -0.3800411809350668, 0.4841533784677299, 0.24595140479970481, 0.01646077155370265, -0.19043673358343213, 0.39794928285459663, 0.09184171154867486, -0.3114841983822409, -0.3294898367658898, 0.18779872968666247, -0.0749151092000812, 0.16581691569319587, 0.21599316812184238, -0.3634533384202724, -0.18262230015853845, -0.0378174136240122, -0.4673679797753026, 0.1298257403765808, 0.2681594660267414, -0.39915363393555725, 0.12739349917345044, 0.3505676960337521, -0.038071986183731484, -0.27842895981221955, -0.08729981206297899, 0.489998315014609, -0.3279956802947961, 0.3629916083214519, -0.22921568188258581, 0.0010120157160731494, -0.036598382735352326, 0.46673669474475155, 0.4501809017899186, -0.5214715855096387, 0.2427408290939877, -0.25798305923660025, -0.08859637917496507, -0.465135804133729, -0.3550065248148932, 0.3270103825259744, 0.4789730430628394, 0.4305739456529834, -0.034597579892756164, -0.1565659309138069, 0.31363224234755516, -0.11512476692474398, -0.44936278403112756, -0.4197005082554782, 0.28739328992715435, 0.21160151689278314, -0.40580826534521763, 0.4167381921893685, -0.0018653424751394006, -0.14921323951390877, 0.16516119574764912, 0.18176795997494827, 0.333662974966057, -0.17365744251027668, -0.30626570257414226, 0.2684540949351628, -0.220566794439786, 0.20606044763919934, -0.45990855547204257, -0.19874566092390736, -0.12220785722810919, 0.08745554497696459, 0.1858397462844868, 0.33571982942790063, 0.3681137756713287, -0.45288459010743015, -0.4249863053346467, 0.2568173247607013, -0.05235598947438429, 0.3257777592284325, 0.4159284520663393, -0.4236245078999537, 0.34008926650423044, -0.3865565393980362, -0.3126114682199504, 0.07683294008798112, 0.060126375589098405, -0.13496395301767697, -0.23640804369855165, -0.18438218400192888, -0.15812549784288427, 0.33368256473632174, 0.2907084744266526, 0.1580201196101681, -0.2959038578317813, -0.2293746206811977, -0.07842718618070689, 0.11807215358873592, -0.39350132577047814, -0.4770061518984801, 0.3826244556132834, 0.23161034336584144, -0.184464478267982, -0.40736847293623596, -0.20114995719564588, 0.32858142930649553, 0.20029151653558738, 0.278883093069418, 0.03491657328955779, -0.06639188177207839, -0.37679351423865487, -0.026218013954613296, 0.35175094762006676, 0.41916860716969473, -0.41492712961839323, 0.40163039235679543, 0.17780917226820592, 0.2571239418259586, 0.12627301811059166, -0.3117333483789308, -0.486130165366777, 0.27271638874282966, -0.4412664376696802, 0.2738425282832031, 0.24643803811642379, 0.053775818309947, -0.3706406349666011, -0.07922753212333877, -0.2765095853384902, 0.5357488040868967, 0.3976158606493069, 0.03292476844440534, 0.12838295172087968, 0.0363826887831154, 0.06618715377067667, -0.05498201447642071, 0.10058284030067981, -0.024071993389908217, -0.15775838815782456, -0.4443852570376317, -0.13758829593841634, -0.2700492498362951, -0.0747733101525965, -0.16112893550954682, -0.24052137755579148, -0.31930596068645595, -0.3305141747711869, -0.10262598472043565, 0.1874852907344303, 0.255158618192724, -0.32092255799904734, -0.2696212365688315, 0.2831390138696955, -0.08028559418026751, -0.23724387229735913, 0.381689080631723, 0.21452921992747984, -0.24712815426515633, 0.41248534709050855, -0.24166045549741502, 0.42930614670323936, 0.3621552151691573, -0.21343832190812828, 0.1875969334616949, 0.39988919853457255, -0.18975002339967503, 0.23271420258806896, -0.04949495932146071, -0.400551021871153, 0.04661307440534205, -0.03201963275300335, -0.1185409606558896, -0.12016818374163549, 0.021577432033891016, -0.0762971438829572, -0.40071549251308936, 0.3320819154533695, -0.100346341614715, -0.3504325216276065, 0.004627456529563048, 0.3622179186398901, -0.33852379840945, 0.15827852967957287, 0.3670766130276303, -0.1458275558222639, -0.28733478765359644, -0.11631352000341529, -0.12271880604008892, 0.4334691005050907, 0.16011606387111568, -0.411499786672298, 0.125796239907743, -0.1871158839973498, -0.19611916735477178, 0.3650164258153247, -0.2058706241586517, -0.4426418372612661, -0.28490399691446266, 0.4603303902185301, -0.05729491000051597, 0.4866054546155072, -0.07995425182095509, -0.0488853282170955, -0.3226670237613853, -0.048313500582536126, 0.05969921154185591, 0.01956922705685411, 0.18697244289906595, -0.2835110890076635], [0.18219143297373075, 0.12247886800099346, 0.35689907460324277, 0.3993222824662489, 0.4564276843887126, -0.4859706577996664, 0.32855841306359024, -0.17875911734733718, -0.42254815889843345, 0.49467372221248157, 0.31047186839055096, 0.04854547789440865, 0.2615139267235082, 0.5074670018521865, -0.12781175719246576, 0.15239326217674598, 0.06466550916866026, -0.10387813680225048, 0.26700090575291424, 0.24905317085971004, -0.3870682029878855, 0.13563245480782388, -0.09632354936872276, -0.07809856595013298, -0.11068489063330961, 0.2293584123988954, -0.29727787346622864, 0.03447033050667031, -0.21749192914337834, 0.32635275174526435, 0.4856313149011026, 0.31770624272968345, -0.12918649064966226, 0.41625567338880004, 0.1123056993389541, 0.27347237708624217, -0.15137786740919615, 0.35086429623038173, -0.23163082071388205, 0.25876608012950814, 0.3063863376606105, 0.14433813360583214, 0.22404647829731758, 0.11746184322459916, -0.21024565315355614, -0.5308169575820416, -0.5053278091539166, -0.23896839621706417, -0.22203783612146832, -0.472212187137586, -0.35467030262674537, 0.25350756710254685, -0.13312464590243203, 0.3499652325915658, -0.008455653626498827, 0.37278740478095196, -0.48001155250288696, 0.19926871839293372, -0.4013460019859351, -0.12257010613520485, -0.33293369591980193, 0.50257407418757, 0.02236852303459436, -0.1200212535391036, -0.2455035728614345, -0.3691746657192562, 0.1959608109569714, -0.09712759248989733, -0.31297050311665986, 0.4014020604932293, 0.2610855603829013, 0.010580958360807993, -0.05046380175660565, -0.26897689431868244, 0.19879521972097472, 0.3942310284037213, -0.23793739715612827, -0.24600629590618994, 0.2723909553222432, 0.27934050899678053, 0.1654996751426922, -0.25073454431488124, 0.3472967682647715, 0.39782460231987693, -0.41312593070188164, -0.42641142054292064, -0.08143444638149838, 0.2643328217376647, 0.16925418614312707, 0.23369793881177428, -0.1269903767804227, 0.38394518121837945, -0.25806325702075283, 0.10819429914393623, -0.1921171675473221, 0.3550621033510822, -0.23781759292419524, -0.009740457096826926, 0.12427410628824305, -0.07674474802610362, 0.09898470210126122, 0.29291125638415066, -0.08560102604653308, 0.14309193282976784, 0.32837600563628677, -0.36831094643627926, -0.5057652310508631, -0.16083434470888433, 0.16017708360376573, -0.31036096381076717, -0.20577622221807912, 0.2841368531937828, -0.296879990933928, -0.3458594735271854, -0.3051877675377445, -0.31245975963329864, -0.4059889516569352, -0.439655666916952, -0.1243753569832193, -0.34608401843750236, -0.43148214135808255, 0.012726178426412297, -0.378158252649844, 0.015756733953529285, 0.10698800133537777, -0.3653099154524967, 0.3665584664583787, -0.01907062245370815, -0.49235579000133034, -0.31689627326805886, 0.014166240098710974, 0.414323167874055, 0.19922560854785665, -0.48794689108608863, 0.21141658454819184, -0.08576259019626392, 0.33666239261869463, 0.3848886860677836, 0.09767723910984946, -0.10756090337884858, -0.4405662522194549, -0.01994573271727119, -0.16818975358464794, -0.25785162179186366, 0.34736153763984806, 0.12390330567905716, 0.2807028340199746, -0.21526204005315513, -0.18603306488444823, 0.2445298856178855, 0.22333961475333935, 0.16136245932587118, 0.43658828417020307, 0.45006633473159546, 0.31816208232145576, -0.3504661843634102, -0.48148112172870644, 0.13662479338027353, 0.47078680875387574, -0.22358644799200073, -0.41979972493989653, 0.1813586107215222, -0.32188720360276324, -0.24600043477089142, -0.11789960652239691, -0.4135283461989197, 0.12745563946197816, -0.32282237412023457, -0.30529305685196173, -0.013225701298546149, 0.3654392329212474, -0.046228103901064944, -0.48244578911565333, 0.15924304102779296, 0.11146174935101956, 0.07027587744328886, 0.5027578572416892, 0.3875878527444148, 0.01705765429599624, -0.2629782374711697, 0.13979758962222721, 0.0995244330055331, -0.4909302861268781, 0.4476775388230148, 0.19853008626494278, 0.06133716469572395, -0.30118886484794155, -0.4185983736060684, 0.2741787972998233, 0.3741934972959753, -0.44174939657107776, -0.3269718051636493, 0.30937039844199254, 0.41470010253891987, 0.36290281761742244, 0.3676886875121485, 0.050048388636680076, -0.382133517110184, 0.3386218440430584, -0.1308870352167079, 0.4043254303984146, -0.19793709900664547, 0.38305839484283316, 0.40630513736282475, 0.49467140119061576, -0.1671974800978748, 0.3554593915578049, -0.23883958964666788, -0.019681009503478678, -0.11330117683539113, 0.13649515341329443, 0.14923888892244663, 0.07433111778410824, 0.421966101919248, 0.31775725945119054, 0.4923094062253498, 0.05728017941140131, 0.42916674989869885, 0.14502019956162676, 0.07152581533520183, 0.13014787451853005, 0.17383908378262058, -0.13216620743462737, 0.028331926251407714, -0.23811057189134027, 0.21531250741099095, 0.42019678796817284, 0.3715993152065139, 0.4376097758050887, -0.15712027608637358, 0.01564938249094836, 0.3529914191735636, 0.34822783446442035, 0.45271623356740043, -0.0230824762137576, -0.3498035389625678, 0.46119792649462527, -0.3269156416515269, -0.4658614371747576, 0.1867303235155624, 0.42462765953409426, 0.18889865294409336, -0.1988102333261263, -0.3387111956090006, 0.007675783656400697, -0.0010961933443027505, -0.06930405520673179, -0.3628052482615841, -0.30337602714855777, -0.17549299513557337, -0.4281123205652394, -0.05167316350827902, -0.4252949936401879, 0.41582584350739726, 0.44868195801059224, -0.1408356192457584, 0.03536700057447894, -0.36153807458305626, 0.25821057216286997, -0.3111128504364116, -0.37651454148073765, -0.4801182745111994, -0.22116970737342828, -0.06995625554870896, -0.4455172170243059, -0.20589413356881195, -0.23591352397894208, -0.2833855769837977, -0.06482186488842968, -0.42924973041578834, 0.4003696857999483, -0.1647461122556043, 0.06891366129314452, -0.37210478209246256, -0.3021010820173434, -0.4487201760226471, -0.08241794259868161, 0.06178050849585364, 0.47358489133782694, 0.07509080552925657, 0.3897458472139665, 0.1846708310905966, 0.033166771008033315, -0.47695137025894824, -0.26096509503940585, -0.2002888449525191, -0.3010022602930863, 0.21101241460417156, 0.47957549234234714, 0.14434564629741725, 0.0790668138114746, -0.06800702714058211, -0.49338409871507133, -0.08843460581429131, 0.16745263185814827, 0.05172846979952302, 0.3008290526076556, -0.3071114564967475, -0.044878928905412764, 0.09413099972558125, 0.2475739490499363, -0.01911592690291588, 0.10080537745857324, 0.0256745689146662, 0.32006423974679776, 0.3058772346348029, -0.35354409256529223, 0.1032467381418766, -0.28702594192208264, 0.3862986269500923, -0.279113180868309, -0.5433184134970196, 0.15817593347734932, 0.3274739519525341, -0.18665147297039736, -0.0011221578619239152, -0.009055473721191837, -0.41664394723298287, 0.076874675454807, 0.11565163294405872, -0.20837763831133893, 0.4130034210786366, 0.18171884558976897, -0.25202641299521866, -0.010255661387636898, -0.19065641348918405, -0.448199120041485, -0.4306993614210893, -0.028811898721176475, 0.20544978758589044, -0.20888662647383652, -0.12919401925591623, -0.08160769506772174, 0.01827669846575079, 0.1880474642815168, 0.4143603714058441, 0.1688880111894519, -0.05289094019845444, -0.27201428837437885, 0.3223248829142918, -0.47396647717751994, -0.003760769042547434, -0.08856937326471495, -0.2702768755849309, -0.12344688980822399, 0.07907448549103203, -0.34344700277026946, 0.3160443066535213, 0.4381299934937168, 0.06020683483960481, 0.08702087767388188, 0.01026172498630527, -0.2742303542787321, 0.07065803953270267, -0.07212141007073351, -0.014349619275917255, 0.18112657775633348, 0.3215958715705787, -0.2537316724042315, 0.25996054937833696, 0.049866314406074384, -0.10617855687419189, 0.29970836366262515, -0.2920837090484301, 0.31409530795708324, 0.05326238643552259, 0.20057625724152353, -0.3448929711051111, 0.06622725044240266, -0.3787733760806346, 0.36258118315025095, 0.14998571472872396, 0.31549106369697955, 0.2596517313775144, -0.05137144335813334, 0.14789697702831398, 0.5001497449075356, -0.44291092291160544, -0.20460455245300557, 0.4646747546972863, 0.28758084722459204, -0.39535564547790475, -0.2231934912798091, 0.271241330674787, -0.20056123868122963, -0.02604489429019008, 0.45160002543075234, -0.3778637015416984, -0.2526306215127267, -0.1622951977252811, -0.2918727309767336, -0.20006298954793963, -0.4672781011225033, -0.1971476553857705, 0.10542807791271346, -0.061290365158990716, 0.3317151190583277, -0.22191424310619007, 0.19949820358425951, 0.21672469843250108, 0.34177735565419004], [-0.2527272723224356, -0.49931746716795133, -0.5036960125959872, -0.299979792535271, 0.37025049281229344, 0.4600262262944524, 0.3659769883153524, -0.222639670942951, 0.2545742044098786, -0.16026896439895663, -0.024932108892346507, -0.15322256598443354, 0.2953940968271466, -0.3132689894845796, -0.37265036050312894, -0.2463205976422797, -0.06288344632619187, 0.42258529206139, 0.3173298474628945, -0.3485001174084865, -0.3974852329702989, -0.4217913176645707, 0.2437227843925883, 0.16970563722306853, -0.1509098010694161, -0.4050676639408147, -0.21930446238675666, -0.3419138487702513, -0.49729292340339903, 0.05962246966544197, 0.2561413942481764, -0.12234703283249396, 0.04510752969980485, -0.37363773258647204, -0.33985729113029295, 0.11109424961757401, 0.33417988829741785, -0.1468878915908026, 0.14639156665354705, -0.4379115671742541, -0.04784513623327703, 0.3913849621962779, 0.19232122207071478, -0.23063889709769939, 0.28612725083224244, 0.4704365064001245, 0.22524342908474917, -0.2788642518737612, 0.28751728382425507, -0.3146229011374185, 0.37927651638237814, -0.18727954453718745, -0.3276966770157491, 0.41550120837760063, -0.3163869050716036, 0.4590248286146656, 0.23782338179890716, 0.42985983430648095, 0.2579121816374259, -0.12261049151204415, 0.4808264104532622, 0.4585116108715251, 0.26144788996269797, 0.1930815638108959, 0.5082884267840156, -0.2082832879272116, -0.22810989354295372, 0.07637409103076734, -0.2967786216704831, 0.0940614847377046, 0.04032287366134791, -0.047464964349663914, 0.3080611837454066, -0.4024529075994002, 0.26848083605590256, -0.2374975300535958, -0.10998995028378401, 0.34574054231412077, 0.3232707933706559, -0.27827886393590245, -0.4570473957521203, -0.2674036923299233, 0.1862146966823624, 0.030089883357236957, -0.18520781545595366, 0.45329021426826904, -0.06498874525576065, -0.3974386284990403, 0.41543517517551987, 0.316609739335432, 0.3717217884190096, 0.07491535622972036, -0.42721294031278473, -0.24240451245352523, 0.009186349548840017, -0.37910658996943564, -0.373772669483616, 0.06348226147345454, -0.447232648434999, 0.36299636897329707, -0.13776532883084397, -0.46093156900554444, 0.11873277640659882, -0.12354373901436244, -0.0578988754525309, -0.10737737782566259, -0.30953657746842955, 0.21054087633094268, 0.23506830213606303, -0.17902364250522726, 0.4256398236657875, 0.16276049408749546, 0.13505965167970269, -0.36104250682115335, -0.03879326240458506, 0.1752205295290421, 0.0911988935477719, 0.28562062256263687, 0.04242823147078785, -0.4937314787327066, 0.3322085598813766, -0.021793799935165222, 0.3135203179419566, -0.3179273173740972, 0.5040297429970076, 0.06857143790799973, -0.34078161644122407, 0.09067291997579822, -0.0700788989071894, -0.02188846857163057, -0.32108369768956824, 0.4919570450475669, -0.31936449155442675, -0.20206527456902537, 0.2884167204288187, 0.44553771922614704, -0.353591010001055, 0.19751247067777924, 0.3741913729221439, 0.3372849463344375, 0.24532106935803116, 0.2298862265065484, 0.3650184609648985, -0.47746039756882575, 0.46408579303499226, -0.3181438322373288, 0.27711326911953177, -0.25619572775389743, -0.027677188862275652, -0.4577246605151673, 0.48361179694990586, 0.45379319144039243, -0.1583530040015843, -0.20800881716018638, 0.4006885316865999, -0.09920914007799732, 0.298478431685647, -0.12886378609992855, -0.14870333087946805, 0.08119626227312315, -0.4787636212601186, -0.2822251931447105, -0.19176710033416688, 0.2450133867179751, -0.3918563192441779, 0.23462547808847725, -0.10934289947345789, -0.25964864231177914, 0.016925510134991804, -0.024418118879178028, 0.12704236036471633, 0.24420251137768098, -0.23704992164808786, -0.03531672558306434, -0.17100132819827119, 0.13241420856138245, -0.026336762072945483, -0.19633338595734284, -0.39874905521250303, 0.06268052479492854, -0.4000556783789486, -0.20809028481273623, 0.4667141456574079, -0.07449538210809528, 0.034651766002284264, -0.42334681083626, -0.08990665153125164, 0.3454811632746833, -0.19365208259087718, -0.2538215342137231, -0.3378135972917676, -0.005993253506188707, -0.31663940010931496, 0.3369688838721639, 0.43369778121212454, -0.10270950010568525, -0.032951376736210375, 0.0561493335782493, 0.29694716337551125, 0.47050001399264557, -0.08052013930728642, -0.17292511344568445, 0.05786691949474332, -0.4305796852515644, -0.1448995133874774, -0.40100143771713126, 0.12618207183324176, -0.17560861804521538, 0.12463526002567554, -0.43047286380931693, -0.04875075743704469, -0.0963212968943954, 0.13269239108858435, 0.05866982496981217, 0.10901664474682762, 0.4815430386407279, 0.5094114828647709, -0.05768715294989504, -0.12984963592751797, 0.21505885164024213, -0.3970978731455189, -0.40426890088250356, -0.09955295185300178, 0.12546505787137158, 0.356643035123156, -0.3081473906424374, -0.3301405080155187, -0.46387030260707973, -0.19341438487735993, -0.1040512412534316, -0.1346782699669079, 0.4872428844679263, 0.03638268778611404, 0.0539783359004444, -0.19368662257083896, 0.028364513842377648, -0.012052624455789427, 0.530456942081538, -0.38589196808515563, -0.34101363710779015, 0.10582327500836401, -0.07363456741047199, -0.024273652560615117, -0.22691411566824388, 0.4226914049323001, -0.5197597843660975, 0.39151184250789295, 0.44007903673239035, 0.005040576134827416, -0.0454485702221323, -0.06209772440121413, -0.29056369358070944, -0.1307188908738861, 0.09938995733079138, -0.37439339313725706, 0.47082232172630156, -0.3134166902158981, 0.2235649159153004, -0.07989147897548823, 0.09297340141117376, -0.2840257835896834, -0.3876248031936742, -0.198089387672629, -0.4643717984004858, 0.2211511120075334, 0.09435861650245654, 0.2533333575788493, -0.07390312473920123, -0.16419336584790373, -0.4713223315886946, -0.3551722563536318, -0.14101353160713756, 0.4001554119250322, 0.36196453880751916, -0.10606321502168571, 0.4746106675238438, -0.39030628395191475, -0.2598592196223378, -0.3757553545829607, 0.4372610749774108, 0.03550946628024778, 0.3949324978511507, -0.4349891129844471, -0.03590912738930104, -0.3413346584840956, 0.13302124075695224, 0.47843827316427806, -0.1948121777784899, -0.4449377976349683, 0.4049164978936284, -0.054241896986734, -0.03970391510996348, 0.16706212477201246, 0.17854253690447147, 0.4756104048273522, 0.22404272445762397, 0.020657995448744627, 0.37416703938305673, 0.34630121188693996, 0.37137510683848973, -0.34797220081789615, -0.2002048211984227, 0.3375280873813461, -0.03317878374880317, 0.4292200969014552, 0.2551673890275482, -0.4942926519135421, -0.1698728198553005, 0.4601901176785205, -0.03320273378641279, 0.24551882389396368, 0.36070195617887174, -0.36397588614941967, 0.07677175530723172, 0.4453149737753908, -0.36518332375817647, -0.3527798589305175, 0.22439357364855764, -0.16472961054540605, -0.037264365556077185, -0.41291114737185347, 0.04784617471153265, -0.2946586256989157, -0.3443353579293762, 0.30722965551598197, -0.29184041035605185, -0.4360969463385916, -0.3409966696473166, -0.44086011146027004, 0.14787073160734626, -0.2973420401699491, 0.06436661911815303, 0.023847802984008504, 0.14292792035773802, 0.12640274146255814, 0.5280653467349256, 0.5535390493947948, 0.23223694697184796, -0.41398579979400957, 0.25967132175612107, -0.28672915930842163, 0.39442696153876644, -0.15597096668600974, 0.16056150478801784, 0.47118191675795706, -0.03508005894026823, 0.33676544286399834, 0.2678177218783155, -0.40845035179780537, -0.41449145746812327, -0.44993262232015113, 0.5107354220726802, 0.04475009160667318, 0.4098995689050983, 0.19326064821924918, 0.141877358917967, 0.426138570839307, -0.35434910474781794, -0.2867170497348444, 0.25489639947972953, 0.37307792847297583, -0.3270317496725016, -0.47541565825537246, -0.09095181920301221, 0.28471862617931254, 0.3113469749760719, -0.21285367848767925, -0.07394029224677727, -0.40520150945408245, 0.27068007619665324, -0.3297221324345725, -0.3376543561378847, -0.04878057730053993, 0.1838859238134847, 0.10338467715058205, 0.4712033550404494, 0.484426048595837, -0.45338511690748196, 0.3299905532700797, 0.22676698291042324, 0.31450507102010394, -0.010218530265214841, -0.038574708916256376, -0.03219164682625854, 0.0893379698425513, -0.2456335761508764, 0.45403733861751033, -0.30915904401806177, -0.45282710159250905, 0.16881908205092627, -0.03009186480453265, 0.22363724019508333, 0.14683013480982232, 0.20364243465984327, 0.17036982330174302, 0.09837273599576202, 0.15916871564976842, 0.20962865874522865, 0.34251101090814196, 0.09781520955537493, 0.09723509936206846], [0.250906614613733, 0.30340135520950196, 0.23192982106544463, 0.4650453814975211, 0.19282828373399705, -0.14635103824686702, 0.12495492354652683, 0.18747087409655927, -0.3753935663695071, 0.3168474598300055, 0.09097224180939813, -0.0605666283991749, 0.16747877939295974, 0.3407886732297348, 0.2770983898120891, -0.38613809503979135, 0.4479265088159845, -0.2547597405869884, 0.010271436892369038, -0.4249943442878535, -0.092626702380803, -0.45220549124778814, -0.3156999358289052, -0.067003633846193, -0.19827644048158802, 0.13605174133073736, -0.2053445213215309, 0.059177550299192534, -0.3630516535767292, 0.07704209236915205, 0.037248954702106526, -0.4804717248480624, -0.09280821440055646, -0.11414232580764407, -0.28434885210128447, -0.15040286444607168, -0.41134221682505184, -0.27191746186134086, 0.5420824307186277, 0.40175233468035776, 0.13892016123483877, 0.32412607721947645, 0.09753861844002305, -0.03877058899424456, -0.18100723407671315, -0.03604141453703193, 0.4455667021389239, 0.03933429867089226, 0.1585445671760886, -0.03500637028317553, -0.4580134235747948, -0.4068845471590884, 0.47995267407066494, 0.024185827989991637, -0.11665443739823537, -0.24686855203414834, 0.2909348284306042, 0.08899814604630944, 0.28333833852660417, 0.37029483007100883, 0.09609978544873088, -0.20415082625244835, 0.35322636299844345, -0.3578596603369648, -0.09376560445602083, -0.3958492670064065, -0.491411458854064, 0.4029278517684311, -0.34470224499461954, -0.23669694169496228, -0.1523179617128489, -0.14341906368407079, 0.21546361634881367, 0.33243313629037, -0.4014827326352201, -0.11001864456915951, 0.11955357409834806, -0.03835171344384887, 0.10533440286982171, -0.06639223333246913, 0.1183098935398766, 0.4752755957013322, -0.15279619514870252, -0.28964236133520216, 0.3862149559423885, 0.2566499214700464, -0.45006354589949105, 0.06685332437788274, -0.2609570720298302, 0.3980547056511855, -0.4310381353289692, 0.3661413867192564, 0.4393119804869062, -0.4466608117872273, -0.21510630583032214, 0.3711294216257945, 0.4381040780034333, -0.2883635892973109, -0.18826119739776456, 0.06957599841216008, -0.30441967295419986, -0.34802163482154097, 0.2342649255862172, 0.34836704100668153, -0.035506380892390055, 0.34162056281386016, -0.2619205711630419, -0.07215995021949388, 0.1558811456042749, 0.28209982849846155, 0.30047146504576727, 0.4942604140834095, -0.3249473787011008, -0.4851519752285035, -0.46809775552938976, -0.3502418669592949, -0.11551854326477937, -0.3254097916770808, 0.18435980739677113, 0.15694286622306078, -0.14196799058506118, -0.06114629533677202, 0.4591823315219131, 0.19354981178818018, 0.3457699563321027, 0.12508881013551612, -0.42871566514980786, 0.265409191171874, 0.1149941671115239, 0.0819013496967884, 0.011710206635371383, 0.15337746565893204, 0.3669774825983084, -0.18787887005585574, 0.33981452368933923, 0.18678788738364263, 0.22050424849282793, -0.24534070933824328, 0.4073318401818524, -0.4232757203933005, 0.005675286654917888, -0.44085204063251665, -0.019168767940824, 0.2831196974675405, 0.22631031960790537, -0.10521057965150403, -0.1008649347068984, -0.28581489481161115, -0.17376918521107704, 0.10286618680101173, 0.3572347463047182, 0.12772444464883462, -0.3146485878832463, 0.3549779285348221, 0.07438943841012288, -0.36981076905224014, 0.4931516439725718, -0.21152915086739896, -0.28159786546759363, -0.31754691091003384, 0.48865705959840244, -0.1306779766527616, 0.4743631322341363, 0.16337954245840802, -0.17794034016989094, 0.27406881861164517, 0.016837847406670315, -0.38530251252514225, -0.18031295035456707, -0.23600087491402377, 0.0014206436336626493, -0.16874783163988755, 0.38043021991521975, -0.38601539391564216, -0.257093416544166, -0.06577410450743316, -0.3123542340067408, 0.03850529217757142, 0.2188359631641884, 0.07724054157573716, 0.3374325993645933, -0.09139433051090004, -0.43628086181438624, -0.3154294548531485, -0.03829212064584611, 0.4414892355112589, 0.016768893903330855, 0.05856579184244594, -0.010505357789983733, 0.29545823077921246, -0.42650062995337573, -0.10923092008834505, 0.44373680824565154, 0.15434814046437054, -0.0673023735487982, 0.38544045592092946, -0.34975691920194824, -0.282872129492783, 0.44422024946159966, 0.13798986940715585, 0.21743922000481689, 0.08339860743117036, -0.00305038335436471, 0.40301267520616557, -0.08484898396629528, 0.45120870236888033, 0.12284797690949766, 0.46135773256766716, 0.33700185187856485, 0.07947619411018408, -0.06964462218162389, 0.291100601740889, -0.14337882891858897, -0.47311793039108024, 0.14868651634360333, -0.06449769849650228, 0.09333863071877932, -0.1683783593518667, 0.3377805580736195, -0.4718688441358954, 0.41079535865125255, -0.3888682134706462, -0.27250102656822495, -0.42096553612191256, 0.2991433089307993, 0.38028259472850984, -0.42249668431443227, 0.18601653837996668, -0.3463343731774456, 0.03333276796283722, -0.3005444182111081, 0.45749556859301815, -0.0398921378389531, 0.046073231151051476, -0.5018332124896437, 0.25584595250117903, 0.24572963532347775, -0.2926538201072063, -0.2821309571040249, 0.039098379021257845, 0.284088048770101, 0.4308479400629707, 0.3310461265486445, -0.19370286449358845, -0.2316941164353951, -0.23928135345295717, -0.22544341343363186, -0.4072452855910732, -0.13746283581951865, -0.015615987268864496, -0.2699286429982382, 0.19783718966832475, -0.08863548708022316, 0.3464020031220998, -0.2722714363669919, -0.4737468012023653, -0.056853311702855555, -0.3272581505338774, 0.48561103705740416, 0.2426257386378032, -0.05810995145970765, -0.298101419319585, 0.03334836259128069, 0.10180432425169887, 0.06794976558899371, -0.24690963301061775, -0.2544816611814218, 0.0001330670670232195, 0.2406671540655061, 0.5184470338640229, 0.11762813251240521, -7.870272039690717e-05, -0.15613604149589105, 0.3547218191835561, -0.47315659525941334, -0.24647925032068005, 0.14896198425642787, -0.11601296318398147, 0.1273892414277564, 0.2155615308849335, -0.2332206544267658, 0.08926267263575538, -0.22293354123263806, -0.13214355423791407, 0.05390684992131389, -0.32351044726093237, 0.10815539206020618, 0.32691950453398344, 0.3313460651767945, -0.23648220983549437, 0.5221911180615787, -0.12300146008987344, 0.033120640095360636, -0.2510624855044621, 0.04775659842514742, 0.21852476642354707, -0.27768651207600675, -0.3989312050810189, -0.3694469282630076, -0.29718576959466164, 0.5208892422617963, 0.1702903198837298, -0.19184121654436107, -0.4154952147090681, -0.46979352735909996, -0.45908140709735107, -0.01578487995644261, 0.16034112227540345, 0.25664160371145944, -0.04263742409650439, 0.4492879705804061, -0.3738907363266077, -0.11099055675031176, -0.270293529095128, -0.46987125319456235, -0.2650483732965583, -0.1072036422385484, 0.481448546588162, -0.3246068503003665, 0.2518419519601259, -0.4392071392704143, -0.4473655363906086, -0.3304287674920562, 0.29588915113572056, -0.11300046872385978, 0.1650516807680812, -0.41931908008991814, 0.1583456907149024, 0.4036811989341325, 0.4904261674931924, -0.2024960820581295, -0.14917387345172653, -0.008265725158977976, 0.04826403919585554, 0.39263930993719404, -0.4570564499434489, -0.4384567282349022, 0.00965217376889949, 0.3446045245221366, 0.04338515612508514, 0.3443829054684589, -0.3565273044875559, -0.06633005538417855, -0.3630052715950011, 0.4172136505422813, 0.18725729103396382, -0.10000399795589081, -0.11568470528205585, 0.08606482539035588, -0.4292951555340756, -0.14589221386387582, -0.008939010440173705, -0.35550390321115927, 0.13030100798128566, -0.4320236948312554, 0.2275040156273086, -0.1170617746014552, -0.42017159513378083, 0.010955148059419014, 0.4754941330740823, 0.3945501798254755, -0.11333133641711092, -0.45645553783815745, -0.2602351390472136, 0.12395297000924717, 0.31801127728966627, 0.47390841231649034, 0.24202396246945027, 0.31529904148309795, -0.4747272114067321, 0.0835533206298469, 0.05604832503634525, 0.4109727624512511, 0.31522189418492613, -0.04744900698032754, -0.22994585215268667, -0.03657682989341982, -0.3470097009190449, 0.41869740736575517, 0.21019137576057548, -0.2799758996244838, -0.43176299043339694, -0.06195197782702377, -0.5266324607488612, 0.042228441688649976, 0.2748602892038834, -0.35180885922176286, 0.5005778089366892, 0.43341680468581545, 0.3649720099167764, -0.3636287847057783, -0.40250130251478655, 0.0012468741462770576, -0.3882510313914897, 0.05358562023536356, -0.4837523774810864, -0.26232176486290454, -0.20381046155514884, 0.34224710568828437, 0.3450049554980573, -0.3225299265679796], [-0.14544938195392404, 0.07962849552501744, 0.39566392954159757, -0.13545590450485753, 0.35704587536655846, 0.21806994838145913, 0.20840371590835302, 0.14940164064944014, 0.4160462040923559, 0.36387721805424855, -0.4183227858197221, -0.17516165137758324, 0.42034377871035244, 0.1569986541472501, -0.17909766386227685, 0.40601901096439164, -0.09521278506597312, -0.1981442188273548, 0.20909145229156456, -0.14445750204284408, -0.09905959244088434, 0.23420122754751357, -0.31774681780903435, 0.25084426697456963, -0.29610386980815273, 0.13537524870048553, 0.4738714123292468, 0.4917239110106324, -0.2687249028565582, -0.3730762853022851, -0.2949077435944515, -0.3199603501698529, 0.39509000191869487, 0.02686395197409372, -0.4701080120308579, -0.0522491090621186, -0.17158060337713543, 0.3620183452681842, -0.4130939272087647, -0.08575848573229126, 0.4291502261811504, -0.055701187710384785, -0.1776167455320703, 0.23798150571083362, -0.4049978275045421, -0.41679965997333535, 0.00872651781183163, 0.17650747186531912, -0.08600847559951912, 0.33226541922472036, 0.04417328506351531, 0.15241194056036822, -0.015928307084864136, 0.12088314209454057, 0.4281531726643704, -0.0032472176532747413, 0.2397844299651179, -0.2178251873975476, -0.23244054307619377, 0.19849242169273534, -0.4689848405510987, -0.2216825783919792, -0.21594333679512218, -0.4107711789074332, -0.1349214007450542, 0.3422858892244726, 0.4269161254627797, -0.3839365365211698, 0.23782836855299166, -0.3129327092321097, -0.26405677155301027, -0.009848529538992533, -0.23068018143889565, 0.3328064398537206, -0.3531818042326449, -0.5092320269584102, -0.4292826879977243, -0.020922542002357148, -0.08368767131121653, 0.06648640649926756, 0.3560835066935706, -0.2499977172701036, 0.15447031230288358, 0.02306192757946709, -0.053658088017397805, 0.15979968508819153, -0.0015616603709819566, 0.21406001906275737, -0.4179698680447193, -0.24009257607598677, -0.01003868997082379, -0.5141153454718701, 0.3702759658565235, -0.26786100787699224, -0.1046528575302752, 0.39391157778295793, -0.13789662706501937, 0.35126354618352756, 0.4509644816744785, 0.06407836271381347, 0.33693366722492, -0.055407512205431456, 0.47594625017023584, 0.0958604657078031, -0.1262651200346327, 0.03313189469464472, 0.11369320876621508, 0.18424839034479076, 0.2727010158232113, 0.2315097768718809, 0.3622176274822341, -0.001358495713116903, -0.1471614648033879, 0.012666201912666658, 0.3477994476742757, -0.21559742141357421, 0.13813846209707717, -0.39600472093067324, 0.5024602929841498, 0.28758163175221746, 0.15071438162068365, -0.25200481619849124, -0.10349968195970882, -0.436369031355483, 0.010307999307399946, 0.30165500010353336, -0.279382645777266, -0.057451105046264814, 0.04084567730168291, -0.19806295515590405, -0.36800002167635876, -0.40184273479124405, -0.2918140830696152, -0.24810549361197412, -0.23259216279902428, -0.4310638637512587, -0.40337249975885103, 0.17537248612013304, -0.3281659257149593, 0.1405854928231477, 0.39082448743592757, 0.08521042200421752, 0.39937080287186427, -0.12246297068448857, -0.3722349428422454, -0.2896793199262501, 0.38244408752734965, -0.16372717730277325, 0.44084485459753653, 0.2843415284475082, -0.400063126184826, 0.14960763604323735, -0.11373579846061489, 0.10067020857270174, 0.04407595643721507, 0.3352333772088812, 0.22371143442033936, 0.08580334671372708, 0.3812035926957555, 0.09401204746848148, -0.011993635703074351, 0.2002829609644468, 0.05854893539209931, 0.18766257496938477, -0.25973318745782786, 0.25519504692369177, 0.2145271775015698, -0.5012709217530992, -0.08462097537081713, 0.3286628943558005, 0.23181754743309396, 0.09287794058820156, -0.44200153102990275, 0.09083906005207658, -0.48125431197906715, 0.3856914107137507, -0.2706630735034625, -0.1404557885258077, 0.16370434394705385, 0.06444355432534836, 0.3925370760698988, 0.5062600323426976, 0.5381611532155959, 0.2972472813419087, -0.20365224730208548, -0.03242844444831986, -0.09659925305807496, 0.06346562625574605, 0.13767776304818827, -0.27389573957245156, 0.15849376662964, -0.5437479680087751, -0.4613009298181046, 0.12675716578709617, -0.3153222799303523, -0.11431373672100355, -0.04264511440274327, 0.4104475955207574, -0.0855227021334314, -0.16780720639541605, -0.45605380423023584, 0.04148224926601295, -0.006128309237479227, -0.23407462782873265, 0.17318394521208552, 0.4383087528139341, 0.12244860172942423, 0.20454870652773668, -0.36203763071605993, -0.35829930607047134, -0.07909940029622631, -0.29964858773667663, -0.4646422766342068, 0.09137425381572285, -0.25249208177057125, -0.46335407918063365, 0.27888400411749875, -0.15602702089780118, 0.4985689792236928, 0.49894352585179946, -0.35969093842307415, -0.3899929988200908, -0.238174520045142, 0.2569910441030391, 0.4915158500370392, 0.13343043513858543, 0.06537352015256358, 0.31739824028487446, 0.17836780165499744, -0.060618091388011074, -0.21473416809901733, 0.051771825576274216, -0.052639989223716065, -0.3422661363241083, 0.29900204307196215, -0.21858423988092945, -0.39445308054548484, -0.09409284575796147, 0.3824388848066346, -0.332792475206405, 0.2183514736024945, 0.36677699008954506, -0.331604971208349, 0.4261266073903622, 0.47057859923033535, -0.07048484263678323, -0.3878890340845552, -0.15245952853808142, 0.0784815328503252, -0.2603778605033561, 0.40642862220229886, -0.47053164854039364, -0.1753080635423394, -0.2121888973218654, 0.043869691633591015, 0.17419896880373303, -0.17090234460536002, 0.32631483373141223, -0.07751820501002357, -0.20992770686485338, 0.25001299690539486, 0.07121738309275276, 0.31765010789310794, -0.35113564882163834, 0.4145828531278354, -0.4596688144154564, -0.47284197664630473, 0.4633629537135167, -0.2148684295324204, 0.3530448313110169, -0.41852089405984716, -0.4437855858291498, 0.09507077559020477, -0.3783016142093025, 0.06004568953171146, -0.3958817652511782, -0.19505211741415465, 0.34266167656964985, 0.44223481992839797, -0.08409278257578195, -0.34703253179646804, 0.3195263168340373, 0.03881494221835774, 0.17349344135349087, 0.24573705730081077, 0.40729895687572015, -0.29624452657054656, 0.0774483665555075, 0.11892704674051713, -0.26691167367913066, -0.45502529962245497, -0.40564949460584454, -0.17849450131651123, -0.10013396843349914, -0.1799087618265634, -0.530400210585163, -0.07174839200533516, -0.36823616737365056, 0.35499525996156656, -0.2171037861359513, -0.392827893618886, -0.44219881446273795, 0.48689767734035333, -0.27738327532001916, 0.4645472181836361, 0.18146117825026356, 0.32495638466515125, 0.45441530227647203, 0.23795936680031732, -0.21547363080784193, 0.5175968819599004, 0.019688104476037502, -0.2505465058049942, 0.16488244747377334, 0.38638623960889085, -0.03678475296564685, 0.15929616612189634, -0.5016540233366451, -0.14609916254729133, -0.3282267009989741, 0.05570383044470047, -0.3976384246407156, 0.15227904972608886, 0.19901386210847152, 0.03942767805134159, -0.2348259137639583, 0.29805791084459987, 0.3534159061549331, 0.07973303137578122, 0.3162652026410817, 0.2671467527340646, 0.05925524380635389, 0.17498638364403157, 0.2485558305226928, 0.17826236392765957, -0.06951037709032162, -0.5070170605961808, -0.2253275192843317, -0.2907649209471598, -0.32983025067357524, -0.2544933423826893, 0.47155960560764376, 0.09330180355201757, -0.03273463399093762, 0.13469869694429085, -0.34300849341291434, -0.27361890294583163, -0.02825031098070368, 0.2108662569435911, -0.08504302201140385, 0.1429011405941654, 0.03957237177009474, 0.40562012956695276, -0.5298661150275586, -0.06823101427013485, -0.22139093157222178, 0.11916995829826854, 0.30859090694853275, -0.303741400338751, 0.24580736877903403, -0.4836095735922642, 0.2835719796484737, -0.05939957600820561, -0.05647379671551889, 0.46786226248136176, -0.2787252919996164, 0.335784570780122, 0.2890781825659349, 0.1866061607924772, 0.5023436852609787, -0.028798520183876956, 0.34678537705443, -0.28854558644791534, -0.5464367843878005, 0.29823346088312036, -0.29694211919850505, 0.028776308826417348, 0.11821886174815872, -0.1409152217307362, -0.15735179329127275, -0.18738160741982726, 0.031702133484548645, 0.4481708129232856, 0.054829713100522606, -0.048027472706888424, -0.11585938965004872, 0.3675952283740434, 0.33273964737684225, -0.39731858337571563, -0.371027826562435, -0.33074328480414084, -0.3997956053908826, -0.4760582119727093, 0.3666496962264171, -0.2031271159092813, 0.40566541880766455, -0.273380900744201, -0.13089206763092054, -0.32427115443654403, -0.06360751861988916, -0.1009339434778676], [0.11009449518352499, -0.4658260560062382, 0.24910815043207735, -0.09013160754219375, -0.459089156633472, 0.3763194786097427, 0.04631489644614967, 0.37022783258750575, -0.339387001735228, -0.028912242755354013, 0.4298732553104649, -0.47748804394731764, 0.3298755455958832, -0.029924367200059712, -0.1860098325342624, -0.35092501302444434, 0.16112714482194457, -0.08853911554472785, -0.4292877314991248, -0.25385655901858956, 0.2176858275310217, -0.33359156043721006, -0.049123917059855325, -0.13948321800862076, -0.350436878007879, 0.42398634400529844, -0.29559758008576764, 0.47219771862405546, 0.1034421606787493, 0.386203219935388, -0.04247153115254312, 0.43272763974878237, -0.10778536763388577, -0.30474436768108637, -0.024097041561101554, -0.17379879121252403, -0.012528066677999794, -0.07027433487262486, -5.2165957836627524e-05, -0.2537358657015268, 0.43102086342021023, -0.2868709473517013, 0.26010093298041853, 0.01617619316829644, -0.1816430878378581, -0.2483551369464763, -0.26855300540331306, 0.4291681336465888, 0.4426806558044417, 0.2747807203658375, -0.4435381748521549, -0.13311049564110505, -0.03689044201658643, 0.04990405931938289, -0.18493790666857143, 0.4496955409501946, 0.18172294265722136, -0.3218491543531621, 0.04015510936741185, -0.30423300642275286, -0.052272655548079305, -0.35593930028654325, -0.20506093954660845, -0.36963189100968874, 0.41403406547848526, 0.2272661686177149, 0.06760438537459203, 0.3829088283332123, 0.10366286971164376, 0.09461377993780469, 0.1431125231860096, 0.12349381583562237, -0.22122683794202672, 0.28272203886156383, 0.22299877348801683, 0.2384298620261608, 0.19251032448702557, 0.5149150816910094, -0.43218750432036274, -0.3636435036641673, -0.05388024103097806, -0.12812051612659406, 0.4249663107141019, -0.46116893873919446, 0.2903528839433703, -0.0029606133820511272, -0.18514196901867705, 0.3106121861026513, -0.45954580389066335, 0.5095134507541538, -0.008493909868844423, -0.2881361905921602, 0.3498411808409177, 0.2556132238846414, 0.48284618639195204, 0.26244658903740586, 0.234584856954742, -0.013821756534555559, -0.33033411496698, 0.17681557585863927, -0.27006064314553835, -0.3063201977937452, 0.4575717262436097, 0.3343325193045252, 0.3408036062544098, 0.3721045137624392, -0.032329050196056135, 0.4809869371370249, -0.03395769304769651, 0.13858227342779886, 0.2269022620633832, -0.19381995001549235, -0.03579351159379698, -0.012538873494164195, 0.05926018274434597, 0.026379240026781627, 0.00952063492619484, -0.04683751110905565, 0.4883472076781706, -0.34185618866291956, -0.21133511449890557, 0.48523114290107844, -0.2822117270315699, 0.11752057653709384, 0.2098988964315438, 0.16630429887127435, 0.3021858882873778, 0.05155835848150896, -0.30852990020498716, -0.2580274547180943, -0.16979419445429725, -0.24739811647189167, -0.36358177006653203, 0.36070299858674787, -0.45137332142812436, 0.42261823212164895, -0.06626240260233626, -0.2648342825241261, 0.11923237902116056, 0.2476603739497837, 0.40044384173318565, -0.027237956615697695, -0.1929377685876312, 0.08076858428998084, 0.2356372087723572, -0.13637871368940316, -0.47012361930824403, 0.11784239682738486, 0.3329457385420606, -0.16571241227664563, -0.18814310776811832, 0.17589145829933575, -0.4200663866814098, 0.43101918459979804, 0.10906655139904864, 0.2522256444355569, 0.07356313101069703, 0.47914200691576886, -0.044004701535921856, -0.022640774045844584, 0.21192050766368545, -0.3340932442505323, -0.34100227178819303, -0.05203467968726865, -0.3559333250061049, -0.038436706861712876, 0.002015846726588231, -0.3631468541466383, -0.42556165060079687, -0.16658740362585459, -0.15365612191032793, 0.42121137202690234, 0.16202945287166556, 0.08364842397855538, -0.2571030238854293, -0.3811386375932108, -0.45288510205041294, 0.3310739196311834, 0.2947681293176844, 0.15113895594376128, -0.33149232659293526, -0.43359271089365725, 0.45024049803071003, 0.32666879264339177, 0.12186727009666545, -0.07960965705197898, 0.4292860321832169, 0.40206431109458485, 0.053908930661040404, -0.03892600325844628, 0.32284696839917815, 0.19874465935575797, 0.21919980636108805, -0.4335302088464001, -0.30534091371553174, -0.23734394859572366, 0.3531499073480762, 0.2509127839673206, -0.2212567717239867, -0.053891961386300744, 0.3430176341578529, 0.15529547787353257, 0.43608137348116094, 0.22345661605835637, 0.2245485913561329, 0.0994419275504698, -0.3693782963379541, -0.4973767879496302, 0.3041322092898442, 0.2899636910665521, 0.17284816093478708, -0.30264111501831925, -0.17967583409999516, 0.042948797214757035, 0.22738704207980093, 0.34255123089368167, 0.259537969267966, -0.4810803350335302, -0.011467571376268306, 0.19340045832925043, -0.18052288006054942, 0.12441637384227659, -0.1531990553979493, -0.3523690792136345, -0.07249652973548135, -0.4502752049142952, 0.06439316482799422, -0.05580853920684104, 0.05184972228784007, 0.25353310316148786, -0.2539054886949453, -0.44280236590533684, 0.33984948573017687, 0.09572984722364263, -0.21655660483909697, 0.15834164078297408, 0.4447124531230013, -0.021216735002296323, 0.08205756064416371, 0.07648261426409106, 0.46819337957775864, -0.49906730984952624, 0.16239261944773695, -0.28113016915075417, -0.08301804946703209, 0.03233508451268588, -0.0971034988670987, -0.3422041798014931, -0.33876836493465173, -0.32779915712810637, -0.008246183811641352, -0.4718162793212688, 0.4964996464544673, -0.4524029036152566, 0.33140478718790417, 0.2847495520241491, -0.47019740386628633, -0.1322505859755107, -0.2658360576270654, 0.023707266798594553, -0.4492112125579704, -0.37521503487044977, -0.3877757384439375, -0.16050054001891384, 0.3477076312053763, -0.019015506213098655, 0.49186884171532536, 0.2615763563936797, 0.2917246010986709, 0.31564830326548465, -0.3779098147976795, -0.26452234915927764, 0.10952821954244632, 0.16303827917405075, -0.29422008230701374, -0.42874273699113735, -0.4923925292167593, -0.38613633060210756, 0.0470640650297138, -0.3533151752137101, -0.19794759358278152, -0.3151567166153855, 0.19033724895372658, -0.22817070196203745, -0.3224267631537738, -0.3078958992578384, -0.3880064358450816, 0.20106884807126973, -0.09746728884243315, 0.05981320168702246, 0.2330857667792004, 0.08923449987440862, 0.01484023779368719, -0.414069405228708, 0.12381813585143438, 0.05807056758365673, -0.218426349960504, 0.1401791576591405, -0.38378793556712837, 0.3375238275547573, 0.20540874544999757, -0.021046693485833344, 0.29574237795312275, 0.1492905253570741, -0.11200351421748772, -0.09393409133369822, -0.12539846050804024, -0.3691721369386891, -0.010678777430988438, -0.348328296253499, 0.20558115508616406, 0.4739563502533502, -0.160240427620536, -0.1121224133800826, 0.26204182584402413, -0.2571478866590496, 