HiddenWeights
[-0.49121723956163754, 0.09431068977510315, 0.08611138281316733, 0.12091255917378818, -0.20304196761401272, -0.3782121001272759, -0.29423774197083996, 0.3258986707521577, 0.36206941380511315, -0.33713215582695166, 0.2935984070826542, 0.2655439559591874, -0.04501329901711815, -0.047787708679167394, -0.4491675496320453, 0.09447732392365515, 0.04213965324130009, -0.17165465894511606, 0.6939508878148267, -0.32986729483157234, 0.3652042127279707, 0.11685503342759436, 0.048600046916038336, -0.13693844261387567, -0.10386951889994933, -0.1613829004251553, 0.6042836119542665, 0.27623946349268025, 0.2568333237930444, -0.37407112519497576, -0.01587758398486095, -0.03339509040404587, 0.3400798701207106, -0.199624071020788, 0.14686482016531865, 0.26853610235323666, 0.03925572185782337, 0.10963798602379382, -0.06770154275439108, 0.06695264664474954, 0.15602181145140592, 0.012026446496008019, 0.0771113125104093, 0.172418492112096, -0.008255297115671476, -0.1598133329688861, -0.4921106619343224, 0.1484784086593154, -0.0016884952602743697, 0.3924905009364942, 0.6132867056485091, 0.12313119715350453, -0.25729787953428734, 0.3362345861178396, 0.528424309927043, 0.017681060656031304, -0.4123870180603937, -0.21954668666053678, 0.10413701480985615, 0.4577954377889635, -0.18664286950857523, -0.2940128630028145, 0.19526139181962576, 0.22204694914562484, 0.5234312788992037]
[-0.17636513627079609, 0.44612588966633016, 0.40155808604138166, 0.18863823744425068, 0.06588179281441187, 0.34958928298209335, -0.15197676267872195, 0.23533620852202874, -0.3236330361400953, -0.16375643329672313, -0.36343409573871194, -0.4597874205467764, -0.18982274210457048, -0.4527491226773247, 1.0935056231202893, -0.3801725790094417, 0.10031669862768389, 0.32919874941220273, 0.5179306804252491, 0.4578658792993568, 0.08284200511306608, -1.5972203201878967, 0.17013901733763484, 0.313001883698363, 0.026146000397959668, 0.060300667889734434, 1.6459074875841782, 0.2627214163448014, 0.6793073344778211, 0.4027058121450045, -0.20905227482057162, 0.06541718867215174, 0.38252491937594435, 0.2583444695331475, -1.1225154632591758, -0.44493799738952516, 0.5235821329243097, 0.42097821369014476, 0.5769711555102672, 0.02812505478721916, 0.43708121738337846, -0.16203069074681378, 0.9928869548218466, -1.2417646671899794, -0.9249376023598199, -0.05582394381490199, 0.6410675377541952, -0.3242090325527619, -0.35584719904127715, -0.6375545879485871, -0.14423238031938895, 0.7652002888778113, 1.390376675679818, 0.4518227408673104, -0.4464718535745687, -0.7377017358554775, 0.11075417843022939, -0.49162466176631703, 0.4729132737384458, -0.3889486707182901, -0.40346694197885014, 0.3779497479284065, 0.4945898882199308, -0.45647198128571165, -0.28704552464986066]
[-0.34224044528816344, 0.26291783359500565, -0.042475136568220995, 0.43200853646669146, 0.019094732979583418, 0.18194507217115574, -0.26276761371857893, -0.14822089762984902, 0.3783028724673193, 0.158736538982878, -0.4300436457698591, 0.3318481188128126, 0.20973197420133438, 0.12164477801405543, -0.1565308453915904, -0.3476414247667885, 0.195229459789096, 0.22057503840455556, -0.4311346792033384, 0.19459660752155097, -0.3451523411805421, 0.6680411391724566, -0.017584328277861418, 0.15478819122226817, -0.0033347668303337352, 0.27440493907392394, 0.64174427453884, -0.5928898007970645, -0.40675067757516825, 0.0841859942093378, -0.12898430617160844, -0.38815950229443963, 0.4932414390475255, 0.47614413159116953, 1.0457879543644433, -0.2631279266102663, -0.05697204210963552, 0.7758768730851228, 0.06253260343893906, -0.4392160021359881, -0.28571563984740234, -0.08599480168062174, 0.9222384187472963, 0.5026281373005046, 0.14634287367734983, 0.30561649347299125, 0.35359500681987255, 0.14347666638487266, -0.46835844274956906, -0.43507199234539334, 0.132245790448304, 0.058615701631243584, -0.4318566555400501, -0.5155383276876303, -0.5744897684443512, 0.0337391719959635, -0.4562338961330521, -0.4816955284759056, -0.40327261412929094, 0.052935652716194825, -0.070111989079228, 0.38268429546160465, -0.4891007873231715, -0.4097043508687084, 0.22330881770677274]
[-0.25974386012559536, 0.307486398498404, 0.18134304626313225, -0.4297794053438777, 0.05256402783977587, -0.47992084060249884, 0.2069020860883688, 0.2940651785628925, 0.24316974071061148, -0.0013118021929101234, -0.5456154399504752, 0.8287239344126061, 0.9845004938033407, -0.20151170087712958, -0.5872550844682516, 0.1528656096104597, -0.33250279285301676, 0.035251521064522916, 0.018686044704685604, -0.19981938902714866, -0.4498607266621337, 1.6140776605210807, 0.08075649611920266, -0.46490056547321457, 0.22456233854755958, 0.21839103054323844, -0.839609349137524, 0.14617929684751466, 0.9872637939449075, -0.3257951402922783, 0.22502135762044298, -0.41336371650004233, 0.4792919616680398, -0.09998696780443408, 0.07059163435291227, 0.15212532210339552, -0.6838048272406716, 0.4438214588344696, 0.025378093464263004, -0.3414158350861477, 0.42422189600020155, -0.14986840866891354, -1.316801231759974, 0.8729281687113254, 0.5231712073393486, 0.8337231444509903, -0.5146122180783183, 0.3760772844333361, -0.15496204867444419, 0.024872564283446922, -0.7721502466386659, -0.026177106089056087, -0.43540687064351385, -0.6328192723988588, 0.756687584146671, 1.0543571008742032, 0.39373824402082747, 0.02108515837278835, -0.21391930658133496, 0.288520607594977, -0.47139344068352407, 0.1346449534911509, -0.1434854444390914, -0.06568605507950831, -0.5847253907214142]
[-0.28233558765729816, -0.33086156573400893, 0.4520898503847749, 0.25575040548812233, 0.2317381397990146, -0.045724477394526675, -0.14453049597774514, 0.08205011673551765, 0.2481393167577849, 0.20715150716453082, -0.35403443412694396, -0.7591550374539707, -0.5185500884355884, -0.934409757482727, 0.7245184460264342, -0.04519775572499363, -0.027366551806805917, -0.22673307755999583, 0.6924609199337057, 0.6229969262266358, -0.4711941930160268, -0.9762701561672441, 0.2567644720991535, -0.31351181579401766, -0.4219777389394853, -0.4337649299529889, 1.1788484006535103, -0.408143334733031, -0.4082447305685031, 0.2552805140458625, 0.3043701814731157, 0.11693166740223448, -0.255883319646267, 0.4902926680697235, 0.6909676624584246, 0.13533051329585022, 0.2749854165590237, -0.073271072594211, -0.054038895430141745, 0.17316716305246627, 0.06428556961621978, 0.250121314071805, 0.9490431540623872, -0.7291840848905105, -0.1151601641056736, -0.6614178903538755, 0.6711679841341965, 0.18825751389055256, -0.25878317174380827, -0.44324654934017027, 0.34084076371951705, 0.8308879192694015, 1.1958062190878818, -0.8063944143895553, -0.6772096301438549, -0.4099961379793707, 0.46272446523118826, 0.33053458800573, -0.48954966092246543, -0.19961489529262788, 0.23720594329759892, -0.1388182505253378, 0.2840038775454813, 0.07968934666076866, 0.2490113022929639]
[0.13870706312507308, -0.3084091178609134, -0.27314563073047105, 0.4385919662465704, -0.4206276621001962, 0.11806791416233664, 0.10571318750585024, -0.16972470010206442, -0.25615488980062284, -0.17840860001740272, -0.43045588120955414, 0.704286852645838, 0.39877818887497124, 0.7424509343147642, -0.6170056666589017, 0.13464263791952003, -0.051350410149542, 0.24329976128653538, 0.2346673808101376, 0.04651609169704563, 0.38059979655792975, 0.1415656457225182, 0.2720601979397104, 0.352765871731766, -0.18796807851062503, 0.15774865474026092, 0.5005796036829682, 0.14696479889371977, -0.14914483846759333, 0.6928476333307133, 0.3840444715072881, 0.06990066130754524, 0.4134708611165918, -0.4223449313060391, 0.011592298954305738, 0.20981869819201873, 0.003246857068163513, 0.412087535179813, -0.40174573915271033, 0.2551674622083565, -0.29878189289258283, 0.15883846988876707, 0.14641158957340208, -0.40801172493583937, 0.0923721144014379, 0.0889155743383893, -0.33141438815944474, 0.18450240839406296, 0.04214700941648597, 0.010251656603118636, 0.6368453561974438, -0.14003777586312197, 0.083522400458809, -0.05782697243092719, -0.28738983045736816, -0.3336113818604936, -0.030006957539235546, 0.14049567312977973, 0.006457385369404434, -0.30895242445277793, 0.44725800404921345, 0.0725659491175894, -0.2495500059704221, 0.27589284303648265, -0.27910409075787074]
[-0.05603775969962743, 0.22243854713624278, -0.41062336194534865, 0.4063968160824327, -0.43871257928410845, 0.1929036290640882, 0.05892678155979103, 0.3329325461828607, -0.3767003187970913, -0.3739859192922519, -0.6419553512217223, 0.7589361595032214, 0.0752340318170104, -1.4935594402954195, 0.2310542549195193, -0.4473924906797856, 0.2106306516714459, 0.19307639836270216, 0.19872631724232465, 0.2922532074747082, -0.34518093881996387, -0.13942141874146396, 0.34104490971445595, 0.39441876013255506, -0.2180674575318956, 0.1198963652732604, 0.6907671208721533, -0.8718984225488796, -0.2401108630267925, 0.8206097765628462, 0.078649553068849, -0.2618832486095104, 0.45122450872007214, -0.06878255511277041, 0.28530061846598576, 0.13951883549225913, 1.0802720839391016, -0.9077485346383465, 0.12765686556727313, -0.4464084730799931, 0.304127557730031, 0.029765352188885583, 0.02518028829787455, -0.1294951949195511, 0.2342124985544035, -0.7817638663335222, 0.7259949164718119, -0.13196951074437446, -0.3285690234878236, -0.3879270604159173, 0.47202569961844865, -1.1396789377948133, -1.0297046746568983, -1.858587805189365, -0.8697299186011106, 0.33302506889803213, 0.48874511545025756, -0.49769123436927587, -0.23671402801601205, 0.02816940661315903, -0.4618821041242549, -0.1952460718548411, -0.483320419542701, -0.24369481344152932, 0.5719220699533851]
[0.06530997678131256, -0.006366455957706241, 0.26610373435354173, 0.4662568923941697, 0.014585853933380744, -0.2567747986826878, 0.45705014586523485, -0.0869265061349882, -0.4331163896583121, -0.7036552952233173, 0.334467946103475, -0.9904772396880457, -1.3730968037939215, -0.21561458176683873, 0.7055629004340566, 0.42821140444113803, 0.024837532888731917, -0.23363768162251078, -0.22751078327463392, 0.016289761677029117, -0.3793101080965375, 0.5285394127910089, 0.5034685237347293, -0.05517222716111225, 0.1937733139220459, -0.7099895452702277, 1.4678018341856243, -1.7770299122487296, -1.8409294196807127, 0.10880685032181554, 0.1857504426851635, -0.2222822465766745, -0.2087416928867265, 0.055030358222565245, -1.362200873054263, -0.007993092884118027, 0.1804121223705368, 1.7924980502849237, 0.0983936132663363, -0.2233709922450846, -0.42618099427606104, -0.4780766358773697, -0.08346799387946487, -0.7868969166286209, -0.723961101363455, 0.4060527884222176, -0.14565463232587333, 0.05577587995917166, 0.3508077903524601, -0.42943510098493387, 0.35766272015098355, 0.03136507106503286, 0.40686859531901864, 0.3832766614349147, -1.246717351590957, -1.1141782472736872, 0.4447890829076213, -0.49526395087461794, 0.3202209887060795, -0.1515310489581092, 0.425656634907965, -0.4531456799350515, 0.0350767178983189, -0.44822614787399706, 0.0185059506592519]
[-0.14656882251189207, -0.3021714356491191, 0.35675426341785643, 0.3356880388744078, 0.09374238005364233, -0.08941611816733042, -0.10224938280082074, -0.47505563111809246, -0.13499828710452022, -0.4697261472564376, -0.7858964635290026, 0.9628581856023928, 0.6336690735972061, -0.21054570310374837, 0.27384484108655904, -0.3365450547643336, 0.0721102366147719, -0.3757344773951566, 0.5954592494843451, -0.46211071274715965, 0.3299072141711797, 0.08241532439670245, 0.45254095254280197, -0.3954750241101419, 0.3451585161989579, -0.015564247198825794, 0.2495137770865165, 0.13362941703266165, 0.5767011199634939, -0.00744059639670555, -0.21444243831961934, 0.26038196218659304, 0.13024182369399862, -0.09077366579947264, -0.792018647803938, 0.6774360302472038, 0.16457734844718971, 0.09330853033616165, -0.10208356719827429, -0.3143204510043719, -0.19424824414164776, 0.028445713253215866, -0.7274416642930782, 0.21753802849953574, -0.10191205860891793, -0.5618598608855995, 0.516579868083836, -0.1347752911156883, 0.3142554051514682, 0.1704541805918892, 0.4977800504370265, -0.8704489981818679, -0.9087831986655358, 0.15779644281011063, -0.13878902376849178, 0.30615879869510937, -0.3097651577402729, -0.3862519932862294, 0.329596479650509, 0.3023971940447092, -0.12166518826233974, -0.18849888071895493, -0.3639332121270389, -0.45886271415016955, -0.15412518100515823]
[-0.13257663780546036, 0.12664454623527932, 0.2450021312656031, 0.46624577271296064, -0.21779339513896012, -0.05206984445098772, -0.23519929048621524, 0.2770982513176502, -0.3680000070910817, 0.29244485298438744, 1.202697169640214, 0.03396072328591565, 0.2738544797678765, -0.20052584151055297, -0.18130023672825732, -0.40843142033043456, 0.0032051592040157617, 0.5979709352228652, 0.15631849285132712, -0.21811157504409748, -0.06171901779267458, -0.04385994791087692, -0.4777457730389194, -0.03235939924667841, -0.2689951083699569, 0.16063811534199612, -0.8361269317723421, -0.17600836194576727, -0.21834637563055187, -0.9566236839452729, -0.2980443116839119, -0.2111152016477622, -0.38628733151469774, 0.23770387612160054, -0.6507334510784732, 0.021722370898777172, 0.015813551562214007, -1.042414434753989, -0.20621663021337822, -0.0667288936140531, 0.4636188845853222, -0.016006731178692866, -1.0943499646425272, 0.042077292139891594, 0.921898097796611, 0.43420136782591634, -0.49949378368704334, 0.43281361310382194, 0.061028637745554004, 0.3730509036312538, -0.09017225802725036, 0.2497172442914521, -0.13231161988905848, -0.3591434339385062, 1.3940495069533319, 1.2748936377274904, -0.09756762526254825, 0.2541592303586001, -0.04133263747939364, 0.2415701023438127, -0.038290251002223386, -0.13400072900894, -0.389388574445354, -0.13613733093135538, 1.1248284972125688]
[0.06066648067838987, 0.1355495880234473, 0.06118050510466688, 0.2832777113213415, 0.3017980540019357, -0.4334046101108975, 0.258130562269534, -0.09949250619448602, 0.23587360715486927, -0.3859315835431211, 0.05051872137536903, -0.40123388307110264, -0.7499705747611572, 0.11881511924023357, -0.11857838012175591, 0.17048889060354033, 0.013774470266340266, 0.3383505485796093, -1.1073104935526579, -0.2172371938946909, -0.21085657970374447, -0.1796963405602863, 0.34945105698822887, -0.3426476157307953, 0.041455555483174145, -0.0439794355187155, 0.01615104021759645, 0.17304239476164204, 0.10278827015505264, 0.6131247479449835, -0.48240760044736397, 0.21830290363240423, -0.1974970076130924, 0.0831558356506618, -0.42392252657197177, -0.22300327838666403, -0.7960397016399994, 0.5710184483776546, 0.3584463090597969, 0.24286446248955573, 0.28950152402209195, -0.41643849160579144, 0.5143394765896442, -0.49818406247741404, -0.5263720157020654, 0.6453333474542221, 0.26335428912290154, -0.44011628503949696, -0.005509278281320418, 0.44891689987571254, 0.72624512028646, 1.0266676666464771, 0.9140877452821178, -1.3999835220102317, -0.5280530826976794, 0.4406993972083784, 0.20345111839796282, -0.1538972062952444, -0.49178061924786454, 0.27443086475748957, 0.1071473871177967, -0.21990033200968317, -0.1698933130618756, -0.017692631127356084, -0.04228774327462792]
[-0.24778204127844117, 0.13366533418694215, 0.013373320717462445, 0.058048246513986435, -0.04386251493852922, -0.358704043703411, -0.06992208661895438, -0.22268061299232966, 0.16127794319997435, 0.16110228192097836, -0.6784176832343193, -0.12123457585103366, 0.7449309370514509, 0.10898787002524499, 0.5642744475693625, -0.1621201669746829, -0.1393199922193633, -0.2148809278817592, 1.238942120404858, 0.06747452188512484, 0.03486066607497917, -0.8975320477292553, -0.2487811762532661, 0.4935866340973881, -0.4038463016213748, -0.4685335577497693, 0.272471435058304, -0.538859203318873, 0.09120271671081444, 0.5538270081343281, 0.09868426395389439, 0.37480275011762887, -0.43046499389182413, -0.5561080471789287, 0.2700800281515908, 0.29051271291769276, 0.5208739481455091, 0.5135882189367218, 0.13435446038005805, 0.4468391950998778, 0.38131167983736713, 0.22978164858345088, -0.3716158414294383, -0.18094525750992146, -0.3003084668581027, -0.2603029951498142, -0.2753157831923344, -0.3790832899580189, -0.4654908411973657, -0.1833559153220876, 0.021621015408489524, -0.3461299558709236, -0.16740539729388593, 0.1302473487941424, -0.4800652541359119, -0.6122090108688559, 0.3429344374096538, -0.24501324683707226, -0.22148944597158327, -0.11895960378457227, 0.20895439086340706, -0.14336773617818732, 0.24617274971600267, 0.25471907211370104, -0.05833507631614267]
[0.3410865263538345, 0.24042966231701823, -0.12709223526688873, -0.1295982793437107, 0.47526069798483705, -0.08651933325021144, 0.015690361517752383, 0.36795321215114163, -0.3972354186687702, -0.21861253578298764, -0.31046559967774745, 0.7771065504453637, 1.1549646133927747, 0.25512773115432985, -0.37686174127965477, -0.4788385374465691, 0.2204050040679303, -0.4044252659782696, 0.8577033143814585, -0.2925901535273264, 0.36320415026900754, -0.7755522630541442, -0.08702709504984284, 0.3561428918548135, 0.4436108207233198, -0.37567352457995246, 0.5561681367502092, -1.2295143483688031, -0.5501702188553825, 0.8215985182021525, -0.44161548990321065, -0.40169764107270256, -0.33430894894768504, 0.4701292443656629, 0.8601109181444825, 0.33887677190073234, 0.2521439607496621, -0.864003963149533, -0.4347497456329955, -0.11308203768987068, 0.16948963180583476, -0.2739197641365419, 0.14963459697438516, 0.5061375120215433, 0.8696744768976284, -0.6601894765109045, -0.1843621320058224, 0.3451927694926461, -0.0605562664076541, 0.15820610898147927, -0.40004270498094263, -1.2354318561217328, -0.805471182064322, 0.3458741211116294, 0.24893021650198482, -0.24542232864258134, 0.029395633278176292, -0.2333204216471162, -0.3235214831628458, 0.2707630711070542, -0.026652903640874914, 0.2243976510683232, 0.23038156889144057, -0.27879295816770355, 0.7127550568453357]
[-0.2025119664335493, 0.24332943254508765, 0.3575299919782128, 0.3313835365698511, -0.08120950608330557, -0.4248173288674001, -0.3053123778462298, 0.3133088545636872, -0.1673410461391126, -0.1610147915909037, -0.4355309522799004, -0.29762532419407095, 0.2203640130896685, 0.6323320361939885, -0.26857373533224843, 0.1262510741549837, 0.3402005744867641, 0.2917104012041481, 0.539598194707861, 0.26637273795995386, 0.25789168630133247, -0.16131134040853679, 0.2252922333965629, 0.16980208621413406, 0.4777823987312022, 0.4633684891709215, 1.1383013324751392, 0.3785843075157039, 0.26228415558437923, 0.13413361777316288, 0.17957020737411522, 0.4411192183273641, -0.05540137378704302, 0.2969014177054267, -0.5466203662442954, 0.36994020737474853, 0.1059700048668278, 0.8944991279656335, -0.05626660794043089, -0.40624811223190327, 0.3109047477802015, -0.05607341560311441, -0.017775990880687202, -0.5222473709680022, 0.33532160359450447, -0.20776314092276302, 0.41920507827967846, -0.35619706849707167, -0.08846586149067548, 0.28091070462709905, 0.001410584686978853, -0.5490550508552882, 0.27532802587704286, 0.3999052249750766, -0.6705377557258781, -0.6406736634093775, 0.13950114387225632, -0.08761513268845467, 0.09573212079514071, -0.1879002874140281, 0.1622269925114167, 0.22810567096796097, 0.4579459981562226, -0.41107639024758746, 0.3827753117446861]
[0.3530046801226271, -0.009818593833671119, -0.2730976672440395, -0.4696290691603433, 0.3861085857222183, -0.007637713451642991, 0.22056825036728234, 0.103777256661712, -0.27411062732953506, -0.1560422932353516, 0.43843684420405565, 0.6683607953255634, 0.6872458439272379, 0.3660208642282899, 0.38379448197775445, -0.26717112652681196, 0.15996347681608236, -0.5083215953883743, 0.6863616462792526, -0.37623069866881564, -0.29433897560562766, -0.48066259523366406, -0.3538964791214347, -0.061712965552232046, -0.2312873465130061, -0.05645099101864055, -0.015605589806465597, -0.25418507263571094, 0.2900622658425064, -0.4311764202770404, -0.18069327558968512, -0.28283324103202256, 0.1487769387209863, 0.0066756292870397155, 0.1537463551280759, 0.13563252490974095, 0.24902392038229818, 0.5423487848970477, 0.45442466466189374, 0.4257357758108169, -0.36990812082270985, 0.3630035756389076, 0.325363378111174, 0.2436572093806461, 0.05694423797337237, 0.024822165068054042, 0.39232262629184406, 0.025302840386203007, -0.1654419044877633, 0.4217163987340122, 0.30579355871754016, 0.13894109435267926, 0.1467838322686436, 0.21001011639353767, -0.39221061923082384, 0.1764347570496634, 0.3064522626513345, 0.060251197050974814, 0.3635676672833479, 0.2607903756876381, -0.43388616077756925, -0.17180092843565953, -0.38912642018248156, -0.21767876611488646, 0.32468652288214567]
[-0.2902687667910364, -0.024408226907341346, 0.013161988112046163, -0.3569042700424978, 0.2774553317041908, 0.31334685639382986, 0.36715482760996376, -0.29900203476172316, 0.0019957527286404986, -0.4041911288414087, -0.12920955913719162, 0.3029370543292153, 0.8543928844436547, -0.31832541968550593, -0.6994847545628661, 0.08165087468922894, 0.02260082588501211, 0.01108107772670598, 0.8765052645525448, -0.03037865223035663, -0.6845430895151674, 1.040969645555794, 0.1290785713316852, -0.2204394157495907, -0.03328279309315507, -0.3894542831501968, -0.9076513023991729, -0.0908396411309162, -0.318577777321918, -0.7107053161370139, 0.045118510898441835, -0.4552181871257641, -0.4886765156579779, 0.1031637275663112, 0.41051855541877724, -0.14817809689981817, -0.346809828637207, -0.37899520558039024, 0.43771934132740126, -0.008614283686889324, -0.06864011629392563, 0.022452797940937037, -0.5911951506016653, 0.6784108298238871, 0.15191656675386792, 0.44891871747615597, 0.022974128941062256, -0.3268896751481102, 0.38953879947716374, 0.3646682919152185, 0.08719094885809267, 0.33130221816552197, 0.2678067444524487, -0.9431949358412544, 0.25523107881204743, 0.8174277432212403, 0.4345940764781504, -0.46015644163571945, 0.3651914024804649, 0.09348822833126558, -0.005586784247994858, 0.4338615883309904, -0.21655802735717178, 0.21048247801686004, 0.5767669048980033]
[0.014154572362298112, 0.30301157338134577, 0.38431730001250264, 0.48278029581474735, -0.24108643895115967, 0.16002715293727565, -0.27637474839427356, -0.20669726068280103, 0.019798251930577826, 0.48859351042914495, 0.436696727709572, 1.4098518832932576, 1.1980925699434997, -0.7555500835198945, -0.2533416465069675, 0.030819697049095263, 0.4850785870684079, 0.1738379742375885, 1.3863790311845003, -0.2568736695680886, 0.465370823716034, -0.3873335134411047, -0.47344601251743296, -0.2295117240794705, 0.32330265342551556, 0.04741463775568667, -0.0062182624783393235, -1.4942136377795177, -0.19488277261880269, -0.23969740177269497, -0.6339415376024304, -0.3417408830228068, 0.16038987514716474, 0.03526405244781481, 0.7698518720709301, 0.30621092855100834, 0.8039036858636418, -0.23748283340024456, -0.7056112793487506, 0.3931180522863126, -0.4192979128134571, 0.1660584419511471, -0.24526340198790914, 0.9268413364425714, 0.8831215474782311, -0.6493638755552088, -0.38443041757942215, -0.25541261881309874, 0.12199309677425507, 0.07262896381230907, -0.14034371913710614, -0.6677781764179846, -1.2399053789664622, 0.38015015715873074, 0.38745984058076827, 0.10231120070655113, 0.1924961660921387, 0.009390548011689925, -0.3474962684679366, -0.17423506923299426, 0.09647010075150853, 0.46499198511987794, 0.15209744536512615, 0.37570535436611663, 0.26549975987278235]
[0.12462164314326918, 0.03496777911822502, -0.4801673139475332, -0.28431526143000574, 0.14454759167622644, -0.24257820149909537, 0.1488238172643923, -0.2535159368291424, -0.18400277781848018, 0.48844420647604825, 0.2695212358117727, -0.4795758633678505, -0.6835318955738927, 0.05759493873555434, -0.02580722666650342, 0.3514951491313346, -0.07012217834168066, 0.17796910156896023, 0.20044079965352388, -0.22819264336342787, 0.12446001336172507, 0.4988782201105918, -0.47221075766402876, 0.1979489015045799, 0.12648778738588817, 0.2398274356394861, 0.7503656127806456, -0.7733579855783332, -0.3721125943829424, 0.6397909607542254, -0.26273228190295617, -0.40735642054980703, 0.3844161482276498, -0.18022397440194898, -0.4907468203698947, -0.25158874584020186, -0.6226377977354411, 0.2347395010953232, -0.24579763207516714, -0.1574678979241122, -0.1330227524365526, -0.36207648497237505, 0.419185745444973, 0.4297899721218522, -0.12917343312936533, 0.314594603704316, -0.5006235060569972, -0.23331738860067264, 0.4571841800939126, -0.22917019899718272, 0.24073309390718456, 0.19060362420476598, -0.6057865267869835, -0.19547194323100378, -0.05811146690008042, 0.47253531162294016, 0.16688802726632723, 0.14547047407978764, -0.10476818007901878, 0.047517545164619146, -0.11229216505161077, 0.03715050074888315, 0.32295524544603393, -0.15789088004463125, -0.04533598898299182]
[0.35522358902755125, 0.493150765913672, 0.05999155702900383, -0.02646154015539348, 0.43181844076859977, -0.2642149920335598, -0.07466509306907321, 0.024027306062130105, 0.3441472689089864, -0.48718714721404344, -0.16740061241906115, 0.0805659444156836, -0.20950076832364423, 0.11699406824519389, -0.31669234526705, 0.3994858287955867, 0.1942348848113603, -0.08054137512756873, 0.7537523710887721, 0.4558306269837626, 0.30216311874609625, -0.3256098777583431, -0.08181142998000561, 0.0662446542234727, -0.13124845952075137, -0.20454018068204866, 0.35239571591558044, -0.32635509619086706, -0.7752605564617775, 0.28614789102981675, -0.2895191982678561, 0.38914944126167783, 0.10406810365048735, -0.46798810719227824, 1.0262274439469607, 0.22767538514999766, 0.09251507702879558, 0.12449700850784676, -0.5379030765163761, 0.04178365384789473, -0.13901658618811086, -0.5573889677279308, -0.45237863129385597, -0.1522081932584044, 0.07053336475024302, 0.16278156666181873, 0.11765765797706626, -0.3050465009627893, -0.19485139124454665, 0.04855733839955913, -0.08790387101020246, 0.21598877555779936, 0.08178705523812863, -0.5417872269830397, -0.37159073335268505, -0.24501944456217345, -0.1578191242354947, -0.31588637741113224, -0.21608549679870492, -0.2937836992659446, 0.16666560606313008, 0.2301020475375638, 0.3545716952505885, 0.35781391556700004, 0.034292871209914554]
[-0.007622265747720736, 0.4884230192695824, 0.4794724428982533, 0.07166336402893336, -0.3138629052709918, 0.21314604859815356, 0.40689395449153143, 0.3852213436846855, -0.058967323310247455, -0.45507500316136623, 0.28544658413572854, 0.2310346420593935, -0.14979211903383965, 1.2432051491249987, 0.019932128282219023, 0.3327516214718196, -0.3570045891417356, -0.2825044887043366, -0.7507135366417298, -0.05478250224328359, 0.024930705553827034, -0.05202036207498666, 0.3372965794081284, -0.40198287984942127, -0.016146742966734906, 0.0491371280821212, 0.053760315849575684, -0.3065850576773026, -0.9022865379851368, -0.23404586650872797, -0.009528469664963641, -0.32799812890477975, 0.31261886800012595, 0.20500359852348204, -0.059994590597527576, -0.7065238896747318, 0.25620293624296614, -0.4599850844381796, -0.2562715480076271, -0.42980205211863776, -0.32206038308681095, 0.023394893975962915, 0.4243639666117807, 0.11588968820775308, -0.6027298016567629, 0.14222032541747062, 0.07353187894059576, -0.3187125976603513, -0.3609249690519918, 0.27038407125124814, 0.3813458396556101, -0.3710602525580792, -0.3785197020414653, 0.7330456126392736, 0.5863984821134056, -0.6854923050734645, -0.4917665579668927, 0.25444962249021386, -0.3525724731164195, 0.2984561788363539, -0.09120829089907156, 0.15004513576263268, 0.3649653564641585, 0.45081683924106286, -0.3357099348164693]
[0.46439043200125796, 0.24219835223105834, 0.0669880744134459, -0.43639756008405417, 0.2762614005248245, -0.09642108769308289, 0.021063736671260935, -0.2833157576267322, -0.25763369526350277, -0.4212296739619159, -0.056040631638417764, -0.5997981848910263, -0.3646540384892574, -1.252774294451721, 0.3567125942211875, 0.11034981765795204, -0.19575360661920094, 0.3303871034966166, -0.3843250612983742, 0.5423461124985328, -0.44130264219722437, 0.3079171597721159, 0.4811344015545013, 0.47067931214046266, 0.23988520891114307, 0.19827083816577235, -0.14998143522421395, -0.18145224335919366, 0.5811317757455412, 1.2146178979171574, -0.4082102355253568, 0.4144356771614447, -0.21882516345969327, 0.2026807334752831, 0.22744939108243126, 0.47270104891619086, -0.515144157831618, 1.0803057604325002, 0.3428664302079189, 0.42678900049293256, -0.10446661359590936, -0.27604997434216094, 0.3825851719277634, 0.29471721012116586, 0.3539798259527372, -0.2243772084939755, -0.16932977224972337, 0.01276455269285015, 0.14253457984658946, -0.13276710896952673, -0.1323708046582688, 0.43789248677756765, 0.5279506047666109, 0.32952003638197036, -0.5032673820013792, 0.27678282969410073, -0.09651147196806231, -0.36140784121676195, 0.41423875091291806, -0.4650590664866415, -0.4894631809027158, 0.2930220606448999, -0.1519988549920206, -0.187876633399926, 0.3816335170576578]
[0.12267613258204657, 0.07791205678216684, -0.34095552718493216, -0.16419164554432952, 0.047672217645221227, -0.22312393958678944, 0.4356774642384923, 0.00575856221902582, -0.02653271684911418, -0.37574934889128697, 0.17017653642861288, 0.1073727384582566, 0.32217599598122776, 0.6261957504690914, 0.30802640188173597, 0.3860849708328721, -0.4716367088598973, 0.015524663801531492, 0.31001146935831075, 0.019449050085428278, 0.3408353311560411, -0.13988524552665685, -0.3597781702696827, -0.4836152822880826, -0.4398871767435538, -0.11806418045542785, -0.1646038371061721, -0.42877701465949786, 0.055001080917433824, 0.5487359041135997, -0.36574406127405584, 0.21488110135413896, -0.3380328505609239, 0.11029744010585292, 0.36323581487378304, 0.1088504009681931, -0.12439025052135878, -0.4005293908890991, -0.29254497673717933, -0.24094575265111895, 0.09086485052117543, 0.18557749779023214, -0.0298451346279348, -0.27467708453651496, 0.5167073235025381, -0.0765723861251552, -0.01202841423899693, 0.29015263376307343, -0.40982134757502586, -0.17379055770380775, -0.26993840435999567, 0.17235747786963881, -0.12878831111643957, 0.6125366028917327, -0.3402730869583783, 0.10679905709593929, -0.18633634048480707, -0.3901156931978119, -0.17765564082482155, -0.23086795683967543, 0.004369425100202662, 0.03551246560221377, 0.3857445865514536, 0.38405249781283124, 0.25793692704376037]
[-0.4772861502974415, 0.3028907985685223, 0.2598058570729075, -0.16558600499785725, 0.291857011726652, 0.29466845447545476, -0.03437626719218767, 0.4766344113417861, -0.42853644406357605, -0.31565960310306596, -0.3325174648903395, 0.6864383177242189, 0.508467222864668, 0.24688831511258402, 0.19603900434908403, 0.4585708015285562, 0.0033010462820293185, -0.21084164544315143, -0.004977850387891194, 0.17896152003410146, 0.27913051336384265, 0.32251500228836416, 0.5998054104580746, 0.4367319645964707, 0.24417690679914217, -0.10999546562488889, 0.17438739530094755, 1.1379413029750878, 1.0185057902439276, 0.23159132748152464, 0.6781086222345822, 0.489225308310116, -0.41131447496833984, 0.47712153536457125, -0.35052923124528046, 0.15908406224705687, 0.36728630974466064, 0.5227379924442793, -0.08202856810434721, 0.2155210299344893, -0.1499775858267579, -0.38117436858032194, 0.257416574011965, -0.4107177069844309, -0.47628726192811366, 0.2972829570959975, 0.41020691531453435, 0.4626067511150228, -0.4622743998124499, -0.40928088147927677, -0.0984484366626809, -0.0017578843911881406, 0.07603770130184119, 0.2761746092906176, -0.3324683287330829, -0.9982855957249922, 0.4948460531260992, -0.07934814208974195, 0.2538332430715471, 0.2908719891938176, 0.29428247476086034, -0.4013631037220915, -0.457930595102372, -0.25838630852548417, -0.17547761877358584]
[0.02757648145774605, -0.04622448179115868, 0.37102709659688016, -0.21906299833815746, 0.3709118439812511, -0.09593639025856948, 0.11725315423278049, 0.37000210235191866, 0.4508620349349234, 0.32443232663382915, 0.11976845248847993, -0.6930322565933609, 0.05981774110457618, -0.31472115397876327, 0.40609874562997705, -0.3255819799609678, -0.19650541511324549, 0.061210039145905705, 0.10983599648335772, 0.63383917434248, 0.20006424915678092, 0.17275282367386113, 0.5071965126156437, 0.08814156519706073, 0.21636787290304416, -0.35105630306852376, 0.008249521558195678, -0.2601476985231393, -0.8686978079418913, -0.40956044856355833, 0.37910310136629255, -0.022492481400980147, -0.3292119125843882, 0.16338496060747162, 0.3385595984312173, -0.2894475922467848, -0.40686211219082, 0.007484874691701094, -0.2627414655827879, -0.4677980054613222, -0.1653837215397388, 0.48604763721096167, 0.4562141778603962, -0.1949178572327839, -0.5666189033851118, 0.4439427611727962, 0.5182318057460638, -0.24483326936568228, 0.3494036707541367, -0.1535235698368228, 0.5940453468054362, 0.7246493897201988, 1.1847162855221982, -0.5221968310388694, -0.5649780845378127, -0.5277558173205547, 0.1514033538261118, -0.4344568004769156, -0.4006559044906257, 0.4106235272402917, -0.48464096246240707, -0.36614042726871254, 0.42315258015363166, 0.29519351132244964, -0.32158653623203065]
[-0.1745173165728673, -0.16012452733307914, 0.1661246802302372, -0.30631470307619724, 0.4751996683002757, 0.1929940675447397, 0.09963036347019028, 0.21734223417230436, -0.2555674093296908, 0.13054127942047675, 0.26187054037387497, 0.65867729117206, 0.4637894207468557, 0.8207564211235674, 0.17607020812423435, -0.06291086073991459, 0.12574029552263055, -0.43449041692784324, -0.03583976005969433, 0.31463067569679554, -0.11284132362629655, -0.18857444196573636, -0.3816482052490531, -0.4525374771536158, -0.287309146915512, -0.49765508042585754, 0.12611668817347188, -0.040259780719395774, -0.5060079331983167, 0.202879980664365, -0.16899726578121882, 0.14686496890392775, -0.35558621172618676, -0.5406371453157635, -0.15903050630029028, 0.06860994868504301, -0.6742858480617154, 0.7944143098378561, 0.11468764537839436, 0.4804367153957766, 0.304671003355686, 0.4332684875358029, 1.1410658906317355, -0.5073966693286628, -0.10377118214966588, 0.5338619209707608, -0.5457731389051709, 0.48781727178828704, -0.30038018037136416, 0.3192268988085143, 0.5244243718565677, 0.06950632248029565, -0.6699569580014082, 0.028583936795923123, 0.06925783402815824, 0.4133196839516117, -0.47637204899495134, -0.38206858499989516, -0.02275983397396575, -0.08656245025699161, 0.07389624439027642, 0.2804147765408661, -0.30366306655874764, -0.28609886839369425, -0.17385620102836113]
[0.41650835716871404, 0.05546165957829163, -0.2790923997248037, 0.34173902748872553, -0.016512876399375154, 0.17210478251114425, -0.13172053776807302, 0.006299546514698662, 0.3387066336475564, -0.4181451472239652, 0.7294558648550256, -0.07947106584426637, 0.3732100696762181, 0.6218465028913785, 0.12129375855382626, -0.4597321543632844, -0.3623275269072125, -0.23157107489023956, 0.22214652772666169, 0.34935507148939793, 0.037387531093148865, -0.0183328326800233, -0.4882371178079098, 0.08095646709689697, 0.2661618116202571, -0.21498199649023722, -0.01866371204904088, 0.12485636844526427, 0.25901164628921164, -0.045595436527001, -0.4363946148196298, 0.07186523569792358, -0.431847418104398, -0.16517225393318954, -0.6240729475882193, -0.49561237747817544, -0.35001938967077845, -0.29906763931658553, 0.1256646300549609, 0.01059656928548458, -0.4770571252066038, -0.09407201032396433, 0.7635419008293601, -0.1857799962139607, -0.473796667352536, 0.02787396647397534, -0.1314989497592806, 0.007569350736807756, 0.11778672031170645, -0.18642060339336577, -0.31882045195768766, 0.7338527101129648, 0.15973229087975144, -0.05380618313454015, 0.6268644593755237, 0.32304559730512405, -0.4439531491048756, 0.41730092831598764, 0.322511186502342, 0.2721562503370738, -0.03735156726161337, -0.3274543097178839, 0.29281795999228666, -0.2550015003751568, 0.26937501289720706]
[-0.48719571560820096, 0.2658537545865851, 0.42323587549748143, -0.29665709790772643, 0.12437401006874471, 0.4532566350729156, -0.26235245790172756, 0.07899034882053146, 0.34736527642587134, 0.3572726029970318, 0.5307292832936742, 0.2738467277879371, 0.5957954113609711, 0.7034969328839505, -0.3375064688311018, -0.026461920258532223, 0.4272876897223553, 0.007624834304868461, 0.2702554207985202, -0.21461070755434944, 0.7347908182423549, -0.6470274513898544, 0.24811036313215462, 0.4658025448829134, 0.2442960250073195, -0.5752614594925541, -0.37148177042519054, 0.27103503931632783, -0.06400472618907783, -0.8683935748657107, 0.15419425492865121, -0.19795612007896712, -0.12282712224927939, 0.27647907761232754, -1.7362511782580607, 0.1547875365542934, 0.029305530116195626, -1.4023024079526145, 0.0012433034888318165, -0.08408158186605574, -0.001954248250225832, -0.6868470212681691, 0.02504945532594941, -0.3510935162668833, -0.3636537089358999, -0.6328277449011738, -0.4729436095508284, 0.047767361658248464, -0.30364361116531846, -0.001809552048508617, 0.120240197058776, 0.052390478017468683, -0.8770893199972376, 1.3260638386150256, 0.934595980741463, -0.382591095900213, -0.2341992791865516, 0.06721020170794689, 0.2188618323391085, -0.250742875977058, 0.02722764493248442, 0.1739608867118515, 0.14223569213637433, -0.12531493674583083, 0.5972218480346868]
[0.10935077147514105, 0.11852534832019224, 0.03888449286739892, -0.1812707979442455, 0.18155263248256237, 0.196591007372522, -0.05210876856600233, 0.16917356868695876, 0.20682519566161706, -0.5757995537109941, -0.40494780930202207, -0.033295698453936456, -0.2273559736988063, -0.7180971752485372, 0.1312305636625015, 0.07461306360640985, -0.24243539047269436, 0.037925697503553964, -0.5523186452869046, 0.29083704366228913, -0.11350094513282637, -0.4006582299772511, -0.1827681844670995, 0.01724652976403296, -0.33418733807931245, -0.4447133171725313, 0.6402959436104019, 0.05217554943769653, 0.8305964617981209, 1.1397070699213634, 0.18246544997619715, -0.1589180915701519, -0.26644432307045396, -0.14802103042780548, -0.9101884860220342, 0.07328820812474614, 0.15400765773777866, 0.5151372575040377, 0.43332988187187654, -0.13223647369043756, -0.41599595080696017, -0.30079302479996356, 0.758642919949436, -0.30960115506238983, -0.22294526327568703, 0.4982873006158282, -0.3801769464534928, 0.05087970303704725, -0.2700616692735508, 0.2259764709431666, 0.1944572940554124, -0.010844244281280842, 0.7359929927347555, 0.8777105936889987, -0.5571832408609115, -0.024543705263661612, -0.07474963740774254, -0.33778951678256575, 0.2991324941314325, -0.2723254301595678, -0.07397913275419665, 0.48524572283269773, -0.30632685921690095, 0.11765321198481793, -0.28163832966122765]
[-0.32525969133329924, 0.06706390419414932, -0.015395007516496695, -0.00022969524364069294, 0.42202026348947086, -0.14317924234598833, 0.12116523533768275, 0.303872570811605, 0.2316442058734477, -0.3455750746488012, -0.24034933701666256, 0.3081357228300003, 0.09493654715472342, 0.12638852393873712, 0.17699063752894179, 0.06857505502084216, 0.24221347366885304, -0.28535498890988165, -0.8403679817267227, 0.7541205601441834, 0.5158529562483833, -1.221121052431242, 0.34244663217485793, -0.35214029968541316, 0.19353420813352518, -0.4319312315801218, 0.18853434874996597, 0.6374837215455246, 0.33682692399829556, 0.30237144508076036, 0.40860849321517273, -0.3959258879723683, 0.1645278369938159, -0.6316107915593608, -0.5622422757423313, 0.1514905588918409, 0.1076783680295439, 0.4260681868766138, -0.2029521999826384, -0.19348247498116466, -0.20470448550822118, 0.2470628079743161, 0.9290334660493212, -0.8976967502005752, -0.689722236055894, 0.7510119275548076, 0.6369428977269633, -0.2296301570574394, -0.2836573657001702, 0.12382152770876435, 0.25387929453932484, 0.267975542350175, 0.6093581656203767, 1.1767556004361694, 0.0015912859908805788, -0.9698139520260808, -0.23296673128551393, 0.009375960630647384, 0.15714622628087616, 0.17957607601966663, -0.20332361669153676, -0.2456686205382531, 0.3498671806364414, 0.27330949180579844, 0.09981534610092996]
[0.3315826988808135, -0.23758558838586818, -0.47877366409027666, 0.34157630338051104, -0.37626473696198215, -0.03058458805698505, -0.08020267264679848, -0.1415110882117837, -0.10363717633449654, 0.07063195979452383, -0.24263145523760943, 0.09024642369642925, 0.3526862111455941, 0.13944315455249184, 0.5866120063122484, -0.3213688266961843, 0.34010590666308993, 0.24217974944666118, 0.14987146391803516, 0.2216313323258933, -0.5610113941478134, -0.10527152531241757, 0.4171451946608469, 0.14240835069541813, 0.4897346913202164, -0.2684128143116865, -0.36666122280004526, -0.48074152469109416, 0.35533756216245194, 0.16908944148026728, 0.017939933843839222, 0.48195671366097237, -0.4994535491516182, 0.4848921917906126, 0.041612709311410215, -0.12650923206413292, -0.3664184890659965, 0.05640934389445952, 0.23098987655376788, -0.07336219854252979, -0.41215800139059744, 0.005885355451776262, 0.8198959381226752, -0.38831082772664516, 0.16379612031692498, 0.2288346950761396, 0.3984950222118724, 0.006406934568914724, 0.4604313492659675, -0.26324499827895576, 0.24275158791874432, -0.06552005896723574, 0.2984503040939638, 0.9434254759965479, -0.33834721458502337, -0.09590102483544016, -0.2024659171583627, 0.2735888620373558, -0.005993485690156453, 0.4801879851492593, -0.07422756053657875, 0.09381088606381371, 0.14880778249208415, 0.13482471587100586, 0.3874436645542711]
[0.37788777776666105, 0.17562135165450288, -0.3032656061458845, 0.0939213727712217, 0.2788818060399707, -0.1511622138124047, -0.06750287972669411, -0.3693142719605659, -0.35750581054657715, -0.1306324002317544, 0.027752215203034267, 0.8991635059170074, 1.092629067655583, -0.48089941719863843, -0.1752594996691062, 0.07551617649723741, 0.4031319554768894, 0.0002428879915635031, -0.47649255480329167, 0.060093237755524394, 0.5618090887157394, 0.524848572984975, -0.3964859653687863, -0.3619433914169027, 0.12031355454149928, -0.2885059778616023, -0.16745002855384064, -1.2331953097900832, 0.7331043173474485, 0.6961346120749541, -0.39790722943557105, 0.31183003672585785, -0.3165526693407048, 0.6065823108785232, -0.001619850856498023, -0.4212121050574832, -0.62854846451423, -0.21636466131227378, 0.0749753765561473, -0.3393169568635114, 0.4736021237342296, -0.02846105325458615, -0.5836924412780677, 0.614972905781491, 0.021186517602184707, -0.4204415370921294, -0.5889953720805905, 0.44690968410354404, 0.05888050617028129, 0.6244462522826246, -0.871219283075978, 0.49133326344263045, 0.07826831699218736, 1.2234606639124264, 0.5441896001168811, 0.10046746835023536, -0.04960924229053654, -0.19265293925736315, 0.38177829442913314, -0.38940671715890995, 0.4974760029839398, 0.10961312361316122, -0.009088106527127549, -0.19587027550656, 0.2359259028408634]
[-0.2927360062803319, 0.11183945699824027, -0.19429248284674216, 0.3364817362667435, -0.11664586854554981, 0.28983552142190505, -0.2480490424284939, -0.17610344209046558, -0.4584875681177789, -0.44037405162404836, 0.35567348533926774, 0.2997626759491008, 0.300058740165009, -0.010109734480446293, -0.20868050836921986, -0.2719446643946397, 0.4943551529505883, -0.37076082868536236, -0.5130114946110487, -0.31047151947130414, -0.7399420830708506, 0.6712536335005914, -0.4669127963787805, 0.49089294054788113, 0.10522410938213889, 0.06096392933913761, 0.5263228003211561, 0.2553878858820636, -0.04593149803709903, 0.4269617784432811, -0.10558247609847911, -0.46385895008730105, 0.12153719107978089, 0.5154769928556564, -0.2063353942502355, -0.39078138085357267, 0.10845334080590101, 0.25428697319286725, 0.44095115705719956, -0.35847103765339783, 0.43466768931168576, 0.3093825177097564, 0.5704319879029627, -0.28615099785800824, 0.30920729962896926, -0.2133444256734227, 0.43528143731392355, 0.39061750308083965, -0.06415307386906122, 0.25583264545047707, 0.5727333158078135, -0.3960740700203919, 0.20946927122839729, 0.2547091638920079, -0.7216342556972836, -0.05802609278478978, 0.24949023407590576, -0.18553580852089369, 0.2983359348570068, -0.3311429954067323, -0.0731631681878504, -0.18971179995781773, -0.06611440399239343, 0.4488409796450342, 0.3480054278657942]
[-0.20570019421017405, 0.3102971972945525, 0.19174587968818657, 0.007848891341967312, -0.15403954252571772, -0.31854578712783466, 0.11822527711869268, -0.4102627882947584, -0.4632201551355247, -0.5027557181673372, 0.3636999604213975, 0.4753182710155391, 0.6632293429225703, 0.09395641500671638, 0.19059478788479525, 0.15991139520954356, 0.3374949395201169, -0.42274506405811485, -0.4936644127892823, -0.16478631595735427, -0.2918468643499038, 0.9457762924546599, -0.12619520311319438, 0.29904723929617893, -0.07475679107985622, 0.010939277744527397, 0.5950756681177928, 0.1503240648793578, -0.3832423500205985, 0.7524914770358271, 0.3826083584197846, 0.212818504422706, -0.1928924481388843, 0.15268843578749267, 0.028762147070982375, -0.08290435602365866, -0.5798178839669021, 1.2060851785654894, 0.10238366177167976, -0.11806714397201523, 0.3471719256453769, -0.3162415671973896, 0.16246051025315458, 0.20959444472949626, 0.557743012521543, 0.46717765578226667, 0.44512643568784516, 0.42940178389631334, -0.32659903830917714, -0.17957069982328733, 0.07394933623010495, -0.933667772757888, -0.23452520110315114, -0.6885363828847983, -0.7913675978359608, 0.08731923532836748, 0.46573182425119364, -0.05485277739999006, 0.030903666646453276, 0.05974074262473117, 0.05799688344754694, 0.11949118871679798, -0.3672001905307558, -0.23399074579821133, 0.2030356724938651]
[0.40341154350831465, 0.0046863787861052275, 0.42840317656542815, 0.24378606577534112, -0.22335845111194297, -0.3674649471545075, -0.38398951237444323, -0.22382988166604245, 0.3079927892605996, 0.5167681029535918, 0.32131743495206777, 1.348845101406358, 0.7740097328302803, -0.29123347932078225, 0.1726904600267998, 0.11508674150640474, -0.29865713414010087, 0.23996867729531648, 0.9049147309412877, 0.35590192907736135, 0.11439928533093503, -0.5090233862104601, -0.44398297492659955, -0.11987595388741767, -0.0583668426224313, 0.3129119901417525, -0.5145140236028231, -0.8219626982119868, 0.23980117159560585, -0.03284777243752471, -0.1612236825084619, -0.3312429329118043, -0.44105499193772124, 0.06712701609663271, 0.1207800292312386, -0.1991386804815584, -0.02316859791841219, -0.3158251531277342, -0.40176849894501454, -0.3222522839881288, -0.3084231477813034, 0.2256809132580954, 0.19872602172812942, -0.13576727973158081, 0.20040278028475944, 0.3316907869262097, 0.26432836477262844, -0.43027431052999787, 0.10663180847530307, -0.20392947256788863, -0.01569340668882068, 0.07071594732089673, -0.2882962314552266, 0.18476725372579925, -0.10977343221474563, 0.70149569624265, 0.4344996346829646, 0.49063262407604136, -0.2227155804496691, -0.36296083235703935, 0.2415663317263257, -0.2194355062189366, 0.38603171915334056, 0.06459611914257946, -0.18942002468035124]
[0.17097642679633018, 0.11571915262546906, 0.019215037472922192, -0.3727927010551847, -0.30632759329363424, 0.39625885255564997, -0.3156882737816541, 0.31193630148461327, -0.1153102297481704, 0.45233338261658385, -0.38815751206855653, 0.8046114447857489, 1.327490947354854, -0.53687666844117, -0.17360242682982624, 0.21966099051979582, -0.21950681770834013, 0.4137133822043837, 1.1421155580703966, -0.5209120325950064, -0.23753292474243273, 0.04903992719320624, -0.5204815572223465, -0.18973030446220307, -0.42692509750127705, 0.29783604541208586, -0.7778216218693808, -0.4187911120446834, 0.24362524157275633, 0.4782870692736159, 0.2692426930606345, -0.30651357831301806, 0.37628425002638655, -0.05971546985913492, 0.0010718727345815247, 0.4715007401484058, 0.18879540633574335, 0.1011010613763642, -0.14532962315135386, 0.255023347054512, 0.09595730276251524, 0.36844167545440043, -0.687192065991928, 0.6976532748015029, 0.38523597324543135, 0.9413212105268136, -0.610078234919339, -0.0717144610753977, 0.1405856399479144, -0.2226542760731782, -0.15024152743118693, 0.442785508937557, -0.14144659300005885, -0.36650757448086557, -0.07559596724889432, 0.8411407110181358, 0.32404557232132625, -0.13355340142085548, -0.27250068233412383, -0.35449118247571043, -0.29447402340462847, -0.33864019793742917, -0.12907935103567159, -0.07109950709230017, -0.6501513669493713]
[-0.2747620682911245, -0.3910662106651772, 0.10215595491043572, 0.19384300111061348, -0.35747378324811563, -0.28425608539523606, 0.4231069743931458, 0.3595580445618146, 0.01542978989088939, 0.3643929826990069, -0.8402018811878177, -0.3485412383985077, -0.06404870464538277, 0.6254823964583267, 0.12347568760142645, 0.09686024378452585, 0.3114904890503557, 0.3798417939700744, -0.3549902398204463, -0.04015569377263229, -0.5572261814260911, 0.15477289140902448, -0.012139572366600616, -0.11937720371412441, -0.4263144486936039, 0.3612871932898735, -0.838586107714126, 0.9037100610596107, 0.11991795005132853, 0.20283788324400764, 0.4457998143046085, 0.3725825739444336, 0.14755403289231617, 0.4482079600022249, 0.058009928934527735, 0.22352157070767212, -0.14078007148965743, -0.5934814316243109, 0.11972284539237911, -0.25665048520377265, 0.43304150599249913, -0.10339931601492915, 0.8337319682468561, -0.6760371150230843, -0.8390160177700745, 0.0785775445140057, 0.5894052652171285, 0.3428939173660299, 0.20802083061272614, -0.1402124480073854, 0.34579278102235295, 0.6902682652736848, 0.6726484473652318, -0.8884131840476047, -0.8211495450736355, -0.3652931883828599, -0.39158772718781, -0.026629303585938735, -0.002401270033372871, -0.12561277064322773, 0.4452191606489858, 0.17119308659098764, 0.04008009722006445, 0.07061931673553878, 0.16130804486319394]
[-0.23014473035325023, -0.09074334098712811, -0.40641150381796864, 0.02454956954379328, 0.1638161618017866, -0.48356206543923896, 0.04793425434224985, -0.005215175836239316, 0.04432805773044346, -0.2770384348162117, 0.1447510424870957, 0.20905163741291413, -0.028904123753448432, 0.11485715479217552, -0.2944678136201718, -0.3772936165214803, 0.06177882228989218, 0.11694731626303793, 0.1852566693339728, 0.11458525000332316, -0.5221002375553988, 2.062047557711171e-05, -0.5045345934207456, -0.45721674898908216, -0.1689493574900317, 0.030107144120948684, -0.09771498474531184, 0.1454561064751352, -0.13990166997907974, 0.5946447165515044, -0.3994546315972209, 0.4933591380603466, -0.2659370781054794, 0.47827000872372266, 0.4195162621293723, 0.4869262050778131, 0.03947863582845408, -0.07365903078003445, 0.24382206511895085, -0.07322063311154203, -0.3327449910222201, -0.056659714524802306, -0.07800945113826512, -0.04285911735967857, -0.27684037912314996, -0.04068242247665944, -0.0801372782292425, -0.1672548152938933, 0.2827874829489312, -0.2045898348167203, 0.16134129428221236, -0.21678698239322566, 0.2547793373846529, 0.6691730512666133, -0.5233987640771403, 0.01749729949901698, -0.02964561959590284, 0.3954401267194607, 0.4391554290523071, -0.044561624899191354, -0.2654825106051706, -0.3252416760257085, 0.4438238002803009, -0.4758834016998753, 0.1313474622746248]
[0.17625763528769745, 0.09242824736079402, -0.3988995188117249, 0.4371894556674265, -0.15561896904835604, 0.09786526161614084, -0.04197033570958986, -0.31713032975640476, -0.1076040682563234, 0.16147716292365594, 0.005607279701916936, 0.03676441108185489, 0.5476987651169064, -0.2262586099987082, -0.8039379048163728, 0.3132328206044268, 0.4106441883641204, 0.5968032744120477, -0.028545840578035504, 0.12182839539512216, -0.6492129672043985, 0.948232097184716, -0.08164833620721679, 0.004322063256892883, -0.36212358303266734, -0.3817747956644003, -0.11762966009770558, 0.4192440048269958, 0.023632953985309818, 0.5134649693542396, -0.49054322885644147, 0.33829252474094107, 0.23240231512209764, 0.380281857348327, 1.2768909160312585, 0.23560033450058365, -1.0425541488661603, -0.557752122425905, 0.30372696500220636, -0.15961461215555917, 0.10545237829014964, -0.007355187476831645, 0.2731778348576396, -0.18422941750462826, -0.09162872345123158, -0.27955187938078396, -0.6127049735027872, -0.46969761232188756, -0.07103579599106258, 0.24196974018990863, 0.014432629578638273, -0.5034190579850908, 0.0166604969028419, -0.3180906812869871, -0.24994874793310298, 0.7177178135854375, -0.2560536225697245, -0.25589819125418556, 0.1461223161390659, -0.4717570066227402, -0.19284959990983142, -0.15709871395166475, -0.47726793977810744, -0.2629397398571751, 0.18571740514259807]
[-0.3668196545076794, -0.12297561733485518, 0.3627875374531513, -0.45029988535546994, 0.08584757125290399, 0.39839821277789045, -0.43579381891448166, -0.05222125878679151, -0.21093867514271325, 0.13418843427163835, -0.08468774080988095, 0.7464968460239679, 0.48344702104603765, -0.06385582808533471, 0.5063827104923528, -0.4807690801478073, -0.2640958107349356, 0.21059726753001437, -0.19572360852328105, 0.694721220414882, -0.36862528052637245, -1.8424202838995676, 0.16660612366708943, 0.3901206703850083, 0.1091102139504434, 0.4734119112503297, -0.5162392220987868, 0.6339240777878249, 0.8908519843122507, 0.35704033415078046, 0.12013111867999361, 0.130298587154012, -0.14605317209494895, 0.47032113263700565, -1.142447040127674, -0.08083126040333052, -0.2844122818462157, 0.5565523560511094, 0.4353813106125695, 0.4824333500188408, -0.09269670024285193, 0.25220014028398774, -0.03413991877699617, -0.7421814234169137, 0.26676344504944766, 0.15439122767911564, 0.2378556263698977, -0.2979907086359208, 0.42040329603640536, -0.27868975848555966, -0.2702666404571618, -0.2947187964802019, 0.11381660883564654, -0.8902862462451367, 0.10412429183275894, 0.42234700272807935, -0.1557353164937616, 0.14137177152570835, 0.4789580014728674, -0.34047720787502767, 0.03812156887620255, 0.3741474728091745, -0.29295552974771, -0.08509759721574817, 0.44626060960222147]
[-0.13454964490417032, -0.320804654865659, 0.053356060747854595, 0.43550169346144163, 0.14842155696400638, 0.42641748854936845, 0.019566628755106397, -0.1769501000140632, 0.2226062746421691, 0.24522134260954923, -0.46803565871526037, 0.7739871756539097, 1.5201087214087579, -0.08273075312036435, 0.05608451578779026, 0.07945445613105628, -0.3502400011324507, 0.1492680605540962, 0.12134457653389111, 0.5406739119560172, 0.7844754752898243, -0.890272132045285, -0.19172192621047524, 0.2543593320369777, 0.1972959780830339, -0.4728156798354563, -0.31748531051826845, -1.9102904651072492, -0.6964780960482697, -0.17757700331860718, 0.06653789074035224, -0.18130694820076987, -0.010867201209513233, 0.29806520162959954, 0.07650142648651419, 0.3023629778607937, 0.7571696378901597, 0.06289556228406333, -0.6250140788945541, 0.27256006319050674, 0.4422852862118678, 0.006212894197708877, 0.3817304607757205, -0.3668460251239519, 0.1921142899958732, 0.34806339260339475, -0.6914096390043123, -0.4585840002209106, -0.1093621373041036, 0.2712369832065507, -0.09700530182550782, -0.9103461366563552, -0.9518931137270631, 2.4223977751405066, 0.41226130007408546, -0.7457533202798304, -0.4808421971541731, 0.4076819882461271, -0.36839961999678683, 0.1845605922637239, -0.0035399846244175137, -0.158986966669042, 0.020981115272451945, 0.22561512001489314, -0.029456471263630702]
[-0.28060455309280496, -0.31721777577481225, -0.12082871973941467, 0.4074808421253938, 0.2375022796171652, 0.1975809506308881, -0.07293803979123692, 0.2587065336874178, 0.23422433057575176, -0.2365861669517903, 0.28446022794015996, 0.4915200211340253, 0.972931865721889, 0.5982756540890584, -0.8992764906423666, 0.11365197495037893, 0.31779484944284, -0.25909414708858114, 0.08172612111819709, -0.5325417124749637, 0.23987519258475556, -0.02825446326160081, -0.0704411838310495, 0.4019622248567627, -0.07223200785065642, 0.1644931302463132, 0.381873908702254, 0.12401078806503639, -0.4671319620377731, 0.4394934243859734, 0.29681345522456737, 0.07631870771434224, -0.2840775827070149, -0.18602051470335443, 0.5472525460572005, -0.06705776878891068, -0.20736296401674548, 0.5539424176411439, -0.48937747645571283, -0.4599916417727349, 0.23646953369398005, -0.18118456485893472, 0.11911581664481191, 0.38939408501713374, 0.08088229297150863, 0.6150408158360522, 0.24082768650036088, -0.29084308090901545, -0.03210871727872511, 0.24661931261064376, 0.2835941020918397, -0.6710727078075609, -1.142337515502044, -0.0132170067722128, -0.6279774111203125, 0.3652615587936079, 0.109665020612018, -0.3298614041696383, -0.21535935428234443, 0.38932979850998106, 0.4866917057183897, 0.16758260459615704, 0.37525355518335335, -0.04542552241409503, -0.21025233685035918]
[-0.4032081265096028, 0.4408857063013525, 0.2672531539890358, -0.45582182788020953, 0.4977703653904192, 0.4299855158060758, 0.4393215161515337, -0.43140341590956754, -0.42204849196395555, -0.2264980093216015, -0.07317064126680425, 1.1448472725477137, 1.0141994379412926, 0.340403780615059, 0.06131346899514177, 0.32407487887747144, 0.1799839074842352, -0.4289541704957436, 0.014662906747002992, 0.06009457572028848, 0.3841916434440322, 0.4442459093740554, -0.46788096864070877, 0.4225760135845342, 0.47916549831147826, 0.07652283271652935, -0.5394681108883705, 0.27925005600848485, 0.3039646682334052, 0.4179254259503979, -0.07420637976221635, -0.11000535607401662, -0.471674080218484, 0.12541633434091687, -1.7364438680981338, 0.06281144018747736, 0.23612780108995224, 0.5538644227689375, 0.3265906026164243, -0.04629332485719129, -0.013932360647375908, -0.09314171548449937, -0.877189308719082, 0.2845953894209895, -0.1849483974987116, 0.28723199526909376, 0.20255925252014692, -0.3186006480237811, 0.04072363574549365, 0.01943509518007628, -0.43783085836436575, -0.8231971605064553, -0.9154969102966897, -0.55938674131655, 0.8095306300683257, 0.6153260265373747, -0.07224363715967697, -0.29732494196584425, -0.407637060847138, 0.24939105763335578, 0.17412991389727528, -0.05695440691486309, 0.3093289648343448, -0.45223457006181145, 0.1970350612994884]
[-0.3353519137200218, -0.1104206133152753, -0.18440866624761865, 0.375045673611202, 0.19575604751969344, 0.27500031867546193, 0.25036553123280836, -0.2031299609165873, -0.04026884473295944, 0.454237421074928, -0.02202079278751921, 1.3548091371631947, 0.727911532127098, 0.7001031627226499, -0.21758534883058464, -0.25104211644022956, -0.026927211524501615, 0.33453776890154213, 0.5789802178214096, -0.7533277401921965, 0.490770035477965, 0.6352333634194725, -0.19222692010761572, 0.11914255711440047, 0.4475661352061686, 0.05326385979197954, -0.5537273605348859, 0.6014596263834008, 0.38740906437873446, -0.6957687620233977, -0.3961299095021065, -0.13458379419262778, 0.47858551458948884, -0.4403917610805336, -1.5542247610339341, 0.17675285010450273, -0.696773493143334, 0.10533490775583447, -0.5376919657704634, -0.06966934650124124, -0.25773806567400026, 0.09593565881647646, -1.1880598101552378, -0.17884412191864618, 0.4838064561878774, 0.33472799954710186, -0.02273958224623187, -0.2607200381069251, 0.39804187520153156, -0.22207723241876426, 0.26344554703954537, -1.1914782964941402, -0.968969388498022, -0.6226569756741445, 0.1898069349918697, -0.28381510061056653, 0.3070093213298464, 0.0009349714099833317, 0.4242993740865345, 0.37074050349581467, -0.47325486641869363, 0.3564041284200977, 0.1436862666514347, 0.08840776533010641, 0.34646392020563216]
[0.3530112168244707, 0.472912848373236, 0.1612371796915939, -0.11438612029634454, -0.06530915340878796, 0.27403863533646955, -0.210251808461412, 0.2614822689541004, -0.16304585783650072, -0.7575981492799829, -0.13012617524378436, 0.8301477847694048, 1.6985904516668906, 0.49746051781224615, -0.9789167369903332, 0.011787385806869333, 0.26521404626852163, 0.38653481958541397, 0.046389068933885454, -0.5142782410243073, -0.6973325705164496, 0.2859883017983144, 0.018186958771436973, -0.30408936014163446, -0.34558619997989115, -0.1696887398074086, -0.3785154181866277, -0.033147557757758954, 0.47121210381612444, 0.950915270623556, -0.42238496896941785, -0.41846373213327404, 0.2016835352583507, 0.41742550443537235, 1.902884145377791, 0.2646903397379578, -0.7486525249263671, -0.26346651947907135, -0.1509963122702345, 0.47168635130241787, -0.37560541534855285, 0.21366763758667204, 1.6339808546235655, 0.8690755393508237, -0.00991876651870396, -0.33751425979122024, -0.015670694384201503, -0.3352860355258793, 0.45812198185579167, 0.11802646178538159, -0.2805473300247281, -0.8058154921940804, -1.6431585065025376, -1.5525673377735683, 0.20928472094037512, 0.28697912330777503, -0.051663023425059684, -0.4976603122240556, 0.12385103161613797, -0.39081505749114753, 0.28349548943404246, 0.38397118000188746, -0.4679817029166359, 0.01957297560318505, -0.07407471175609495]
[-0.16910882827821339, 0.006267678011952493, 0.22298044535464534, 0.44683384398500314, 0.47794826343210306, 0.03505389160046957, 0.3309382462005245, -0.2528840136988538, 0.018608082687992744, -0.37769871430659463, -0.18677625393124347, 0.25420551353036175, 0.9951988882144363, 0.13892283611239237, -0.7175008387615108, -0.4414085140227607, 0.47229499590281887, 0.09316617705804028, 1.2248920891503714, -0.36154537060781283, 0.3003726312009482, -0.16244996482061297, -0.3169186911535494, 0.40515468445969927, 0.10065250907348322, -0.06487250222337108, 0.15743311925335848, -1.13256785425852, -0.8501835024841687, -0.19228072768971496, -0.5059703126034777, 0.12476125943209204, -0.12618100844804758, 0.06295315185836808, 0.5547289342669804, 0.18885936586372432, -0.18983059276597353, 1.1333439523595126, 0.08987992405319127, -0.39602141063634644, 0.0008463354000488588, 0.44302585654660975, 0.45721006571685097, 0.5142545596019938, 0.4702784069711686, 1.0121132673891562, 0.08312299885207906, -0.482687488860141, -0.26534181471558904, -0.523125426788607, -0.09047546065491316, -0.28926729307960863, -0.03310230921267287, -0.8700859709455298, 0.10398258982343629, -0.20623073273610618, 0.1663563890121863, 0.3196963970009361, 0.01619976121792921, 0.2603926681569947, 0.06997291914699444, -0.49627452551344353, -0.15135930839635403, -0.16403336015681347, 0.46643924551070853]
[0.2081659361829511, 0.1518147595986038, 0.2813584528532831, -0.10543634921058986, 0.19947717022298483, -0.1583092292833591, -0.05283332094539983, 0.43484204629102285, 0.1063592759018549, -0.305974955479893, 0.1856724489796345, -0.09103013590436401, -0.41544848075152074, 0.3858049958866015, -0.08444009700794379, 0.15941748071797213, 0.024742802891124738, -0.4251752960045462, 0.04034769876476341, -0.37983476196499727, 0.12952449978548833, 0.43616341708198686, -0.3872724766291237, -0.07901319630978709, 0.26622985762815976, 0.07665220006225697, 0.07957960748975858, -0.5865671298239354, -0.05925234018303008, 0.2572434816677133, 0.4726317094292507, -0.14909918963650648, -0.49381877232360327, 0.20255221386987465, 0.3387401458879106, 0.04879357598822474, -0.3015306952697791, 0.2336805757692076, 0.3492745336998674, -0.34623487062700675, 0.0779347652629242, 0.2478164942445652, -0.24722826410208568, 0.23568577664822685, -0.16892131005290525, 0.3986933642418666, 0.12454874685950401, -0.4259428170031203, -0.15572216126926453, 0.07784872457368718, 0.18087742853303634, 0.68037640478101, 0.01291127453977144, 1.4955165789840053, 0.35135358270361183, 0.26965456060932813, -0.3627701722078217, -0.4283362089325352, 0.1545443084958774, 0.07829320155953212, 0.14077144470913128, 0.3688632124128053, -0.22964172513391334, 0.3102155953468535, -0.6151624707608427]
[0.059433222258626905, -0.26766385253272396, 0.030970599104882646, 0.21543638013680932, 0.43857566274159476, 0.1309337427771431, -0.48666128652835394, 0.25936709814988057, 0.17739824596376375, -0.24251200884482182, 0.1359034777096258, 0.4647127282108783, -0.13112392194948205, -0.06675922172184623, 0.3260619362777623, -0.16302452531755918, -0.18528229293912302, 0.3999206326956348, -0.28430235244007135, 0.6213164353803595, -0.12750878789023262, -0.030610246932903016, 0.5308590405751826, -0.24183498796755176, 0.03498337448375943, 0.32333991038658416, 0.44237545072530926, 0.2815246864090904, 0.6212666105097555, -0.004902857973717427, 0.19747566844758643, -0.301430196400164, -0.03197581750455236, 0.3986418048058792, -0.28730857286576467, -0.02727122669239821, -0.47542856020640556, -0.5558802865675617, 0.23558564259810885, 0.3453765449561128, -0.29136580926587463, -0.2121775492170292, 0.15157020769311524, -0.8165349129512101, -1.0198745444853499, 0.4891894205580307, 0.08732414827696237, -0.3774983878782039, 0.09925225152303685, -0.10422819147224742, 0.27207102279913764, 0.7274246131302697, 0.46122206106604524, 0.710123368954748, -1.2433773840823166, -0.6539248480876176, 0.10593187057695297, -0.4254266232349705, 0.045686844202639465, -0.43724780087085224, 0.18607467185342164, 0.14993358778498556, -0.39489448295788987, 0.35326362445783466, 0.5261052389705418]
[-0.3435743615214981, 0.041817010545794675, 0.4380630009579296, -0.10072694229776613, 0.29686906015315573, -0.42282472024766105, 0.009551648776201738, -0.4492685091823244, -0.31813633228404914, 0.2888480256906966, -0.26216083731032397, -0.3674445606865784, -0.357180942283326, -0.03443900567142649, 0.5081726242006224, -0.17567031449818116, -0.20755688468922806, 0.4753896297390778, -0.0681037643045522, 0.22402389089375635, 0.695225400381714, -0.23472891864996226, 0.2588685544244185, 0.01029535545364002, 0.05864151016480723, 0.1756415422249051, -0.2551682420977086, 0.6675772059454973, 0.1996047712375135, 0.7435434736963351, -0.19278793935049868, 0.034223873743493005, 0.16261294925439496, 0.0759403431192907, -0.6981039301427271, -0.3606452443427986, 0.23220920073526277, 1.171380495271223, 0.2114440982010277, 0.49798556263988025, 0.3808991703206287, -0.12095083587305132, 0.7848591901455028, -0.04500798501862371, 0.4548054819948093, 0.9347831373310955, -0.1824005073836882, -0.14761136097471883, 0.0926425407241448, 0.3035643584062921, -0.21146791686887328, 0.25880350337032865, 0.9931150584148741, 1.7660366181202076, 0.555979189941696, -0.24730219553946708, 0.08609474445366738, 0.29541993566102687, -0.19374182669133322, 0.36264058923902, -0.4702446892300486, -0.19581772656872987, -0.28385526216057777, -0.16590921499318712, -0.6418370854611596]
[0.4242299526044714, 0.1849060335492545, 0.28105168781087086, -0.17027050746506978, -0.1841505198219482, 0.2120788257379288, 0.35739670511912647, -0.48812363938746783, -0.2984988964222358, 0.1299021363645387, 0.2631159204242785, 1.018495889793283, 1.1003159388279977, -0.06650072451711056, 0.1523091738888803, -0.20541988939300604, 0.37281333546653395, -0.31859211153582984, -0.030523251722217076, 0.36581658903975134, 0.3394703998873681, 0.04217815455004667, -0.0726896813903421, -0.14159230922360677, 0.394334520547147, -0.3017264340578579, -0.12204071741428489, 0.5597007463110183, 0.15041041332589225, -0.29137119084716295, -0.03982167297837175, -0.33835844901794265, 0.3703435179599861, -0.5249829011283466, 0.34246410323973986, -0.35754282700127704, -0.7724348108584462, -0.886691610403691, -0.33156305728970026, -0.4216303016701808, 0.3006963177998594, -0.1316985730586655, -0.2621404639957887, 0.519039866891956, 0.16259064239256488, -0.8660617113449784, -0.5381442092256361, 0.1461708128256196, -0.22466006686752304, -0.4520273444537816, 0.40561607109487835, -0.0004291749980602126, 0.09357952671501607, -0.30561338305742275, 0.621708228158801, 0.4831879976835276, -0.06466109633584372, -0.3600661860944615, 0.14905694264393077, 0.24664184975862624, -0.37652646817637814, 0.13135738136618968, 0.03542205816275601, 0.4762636821068875, 0.24230696865882842]
[-0.24434707126318433, -0.16266729816596215, 0.36999216051436146, -0.17055086938196484, 0.03864667437670133, 0.2859195767585906, 0.33650778010601345, 0.3642984815930581, 0.3212680506058522, -0.040866286366549355, 0.5541972056284047, 0.45426693427846315, 0.3842963239333626, 1.0443368305173195, 0.32880309063359575, 0.28775524642869643, -0.0034820290232930873, 0.5081897668343108, -0.2862592988562752, 0.315466345078394, 0.24607765325461486, 0.47080731142804816, 0.15017932582636587, 0.12460737660047105, -0.20393734044915968, 0.46078227416008694, -0.564838899609116, -0.32978720101921183, 0.5875084748804816, -0.0368799771398958, 0.23404875819110307, -0.49526690517531247, 0.21169415319884255, -0.44023327741832335, 0.6476334790202158, -0.7059579263337156, -0.32118636293961444, 0.48854524968502333, -0.02499426481851059, 0.08198169967287705, 0.16352828348245863, -0.3781006591229587, 0.6036938816124806, -0.4785262201840661, -0.49921016669557233, 0.07048412432868988, -0.3908854747870919, -0.16293586933588444, 0.3705652066577272, 0.3631245698263155, -0.10488779510361466, -0.6133944750417412, -0.5891074439336312, -0.355772629040944, -0.14987805754248637, 0.005963232191618518, 0.10089634021667238, -0.44289923744774207, -0.15001273817683602, 0.37080607778020247, 0.03221294105505634, -0.022204607128784803, 0.42365731795300055, -0.10221474577464729, 0.1842304885383343]
[0.001493302035452948, -0.3956908937434872, 0.15035713629895253, -0.4512185130971238, 0.30191502810557413, -0.03915610772259259, 0.3689221408411947, -6.0808366558307014e-05, 0.4094867930872246, 0.5072609958069946, 1.0361608467531622, -0.15310603593513405, 0.05557723163786027, 0.5005939722538298, -0.06184670442472856, 0.342589340682408, 0.46694377903978745, -0.04099911696637914, -0.00038069119247997765, 0.4296347944601613, 0.037667381040554074, 0.323507245132858, -0.111140471449023, 0.49788023148488214, 0.26841702399528133, -0.15458218998595188, -0.8617876728556357, 0.19837640046950292, 1.276125686015166, -0.5202246302798865, -0.6652646219564537, -0.4767603672469122, 0.17320127478612268, 0.28469818485575077, -0.8381740616664021, -0.3773963615211463, -0.48607662689165565, -0.7497006315090827, 0.005156409003136396, 0.32318861566443524, -0.3303962340862219, -0.18189984582494848, 0.26555965768588996, 0.29418919911115676, 0.2752051488635389, -0.32150272914961925, -0.29178298674743447, -0.15365249899760836, 0.004057456590965236, 0.23845532178489545, -0.18535360616252414, -0.5385069502338661, -0.1376550840107152, 1.1744411502962684, 0.600353350582725, 0.9016700543130661, 0.17808716081054488, 0.41231947015788306, 0.4537597787931007, 0.006611949899741787, -0.3704179933722458, -0.07917576030875251, -0.19932994995466935, 0.25663154296283763, 0.5415522915555735]
[0.33816821293000665, 0.007600638777330082, -0.179670200348384, -0.4109520773535046, -0.3207349611330129, 0.29816852575728814, -0.036261684762546875, 0.3165998615234492, 0.07915725236363369, 0.19433059809722814, 1.2512313735098184, -1.3728028762844184, -0.8356153561695939, 0.5596675642719725, -0.46745426647536353, 0.3687368996543703, 0.1858382180647662, -0.06657641575407473, 0.37048890838416987, 0.1662205715143187, -0.19092813986057966, 0.986703969444283, 0.1545013294929014, 0.14382610455193068, -0.4024314971576166, -0.14444089646519961, -0.2199406215764584, 0.4329292845169858, 0.13265346503687725, -0.3373976874856401, -0.6911001333222577, -0.08862117901452216, -0.15173775166192227, -0.2872905788055296, 0.0590589663867426, -0.571578568027926, -0.6817228740832986, 1.1730849442772147, -0.5167277555477681, 0.15420056990469455, -0.28437932705877544, -0.12215977444108848, -0.04929996608371271, 0.4987487277416834, 0.019969729011347474, 1.2708659065123191, -0.45116786040722595, 0.4314242078038065, 0.24027804643998862, 0.5878568461826483, -0.710415653765408, 0.38836358010568905, 0.6265366522913165, 0.2519598394762422, 0.5994586734838049, 0.4357578195052876, 0.29815484557786076, 0.22816610602936827, 0.33214807948582115, -0.31672545173707634, -0.14257185271156392, 0.2241300223176279, -0.02248119268651516, -0.189712474608421, -0.16651312029104204]
[-0.25430508169676125, -0.3962341494500411, -0.16718878236356283, 0.20437291572202776, 0.08331431878977169, -0.35144170709498146, -0.14332884339033647, -0.32387892637262894, -0.04286269025967415, -0.11233284347471531, 0.44181156502246094, 0.2454200171257368, 1.063752298469208, 0.7443337424362948, -0.1900325387656242, 0.07563609281971406, 0.49269480917604214, 0.11071695955233483, -0.42444017194178746, 0.06214587547422892, -0.9871429705435109, 1.2349385662523655, 0.2218843032632453, 0.1809207554289669, 0.4827861115362121, 0.10906120126659313, 0.7297022611263508, 0.8372897995108066, -0.2478616094106947, 0.4248818301666205, 0.5442122147748857, -0.05402028100905154, 0.484031117623688, -0.502473874204359, 0.0414250566604704, -0.06295884573664161, -0.5069980068629694, 1.122544999271521, 0.3127827356353163, 0.36808819333735554, 0.049246729247967025, -0.25521757014953605, -0.4866675145242509, -0.08535831075245393, -0.6528018929576224, 0.9441725782963508, 0.22031418792318763, 0.4530073354055203, -0.16005826681281343, -0.05694584249520349, 0.8544072327435339, -0.6317241561774883, -1.0658603141603833, -1.063432246736234, -0.37002362404355044, -0.36173673458890643, -0.08548481749614312, -0.009825980773740084, 0.4153180038749412, -0.09785085010879957, 0.2917963946210651, 0.3695974107368405, 0.21027101968166795, -0.36767429566630183, -0.12086266130550348]
[0.3991645520217303, -0.43739097069420263, 0.08047767107745052, 0.08919931534548275, -0.02913700052033641, -0.12440060438069034, -0.23868027460131547, -0.03547210597643513, -0.42013050108609906, 0.2688544139523214, -0.18801695711344948, 0.15693996339659164, -0.07091206937284035, 0.7184948579242644, -0.4907994386277101, 0.10425931517518905, 0.35233541302463356, 0.2136683799374285, 0.8665880422874183, -0.5517773817773753, 0.03191484906794822, -0.03440113444036784, -0.06235341974178791, -0.4367572270138568, -0.1028487082285292, -0.01398312210789611, -0.21176723692893454, -0.20383928699710824, -1.2583295992632328, -1.2466432241540426, -0.6007088842596614, 0.003477890762632163, -0.30898596311730786, 0.13388683256451292, -0.24388785354996106, -0.291765345006407, 0.4086496743810877, 1.246055137238697, -0.19754740657694744, 0.23706533209166458, 0.0578218669638505, 0.04439215560959206, -0.01541293041135118, -0.17243717840043568, 0.5375315025916144, 1.3614609530227413, -0.5953716210501047, -0.14971742468112237, 0.38573085767792137, 0.034282254501383586, -0.21748291041989945, 0.5522081595766755, -0.021730131380631627, 1.530892692224272, 0.05924620987310077, 0.11771193326345343, 0.4745344659554813, -0.2529580363379895, 0.16864700874794036, 0.21977361869522638, 0.18155226155962834, -0.48813329838169617, -0.11471776691347502, -0.24097904004122295, 0.01443860222471602]
[-0.035334826120705376, 0.2875455117335912, -0.48333755781699306, 0.4735841662110727, -0.4915278675322914, 0.035336343937392156, 0.3139508015331133, -0.40873386675861545, -0.2392600692343828, -0.19720280367825344, -0.1908549616829249, -0.4286554393825526, -0.5518028992175822, -0.8977808879899893, -0.5646339387297569, 0.4490488281190229, -0.31212551671539424, 0.1824589154937231, 1.2249468007567939, -0.43791866212337716, -0.23794280397366774, 1.232258304216573, -0.15507439801579767, 0.30293215004388496, -0.4251538600937942, 0.3147468080015126, -0.48099709491235104, -0.7962005826174716, 0.2996198185854738, 0.3495121985017276, -0.5878711000875118, -0.045162619413737115, -0.4819854006830744, -0.10197012740469005, 0.49498563454550387, 0.6368319644219135, 0.3995852989955511, 0.7786993210067731, -0.5429799908489449, 0.442809110557007, -0.3784591568679334, -0.27320484712647414, -0.022151018192935374, 0.4680488270701579, 0.2883825398607961, 0.6183445197447159, -0.3634703970319341, 0.31657798975223617, -0.031156784382617486, 0.128172519369441, -0.1556167247338306, -0.20162638302081734, -0.038845615607048224, 0.7511260015125908, 0.3630065652969857, -0.08712061965283162, -0.19644815811519223, 0.04212480158042031, 0.21617486918970164, 0.16154160912020865, -0.20347812979425062, 0.16132385719398457, -0.36835670263658604, -0.07737021198443428, 0.009636551049059219]
[-0.32892991984153575, 0.16703702300016232, 0.25663606366892044, 0.15235594938603958, 0.09028400629830047, -0.37788827298769745, -0.107215895591384, 0.13739969456719192, 0.34936199810943414, -0.251091185081732, -0.1694231184991126, -0.33313266074404985, -0.25714713257632066, 0.7109515728218903, 0.5637514608295973, -0.06871407444183031, -0.003007460165067255, -0.34725645066702115, 0.11021078614763877, 0.6689185833974365, -0.11283210392111984, -0.6469431060081059, -0.03317815941200563, -0.03979637066743036, 0.11875553823243223, 0.31677378751242335, 1.4196839549993951, 0.3862898583983738, 0.0900234245725537, 0.3616499200541311, -0.11049924587566053, -0.004626350077622909, -0.04887968086948569, -0.26598582247862934, -0.3824193287433213, 0.12064987432152963, 0.409275622409323, 1.338916038930663, -0.03460785247487284, 0.34528164774288117, -0.000624046100520359, 0.07589991302185023, -0.40238440871021314, 0.3756140538220277, -0.34704588010985765, -0.31486065221271775, 0.3556599466739645, -0.058154306240906894, 0.40596654550533884, -0.3424769366146707, -0.3734752824036063, 0.937275947661741, 0.8302938736134888, -1.2962732076553685, -0.10100890423628231, 0.12453412567336752, 0.321421583665331, -0.4910854109270135, 0.3280230184300432, -0.17387943879310763, -0.47502473915039645, -0.09191737405982825, -0.45943883938745556, -0.11077560700351119, -0.5118485313426067]
[0.22477838706901632, 0.16459834690417385, 0.4437830741640061, 0.014352851166318126, -0.42972204676067016, -0.20337525955086289, 0.11436524539060233, 0.10155550814954406, -0.4022031763372145, 0.30863515466140623, -0.0011341208392230452, 1.3855989418690742, 0.8154446979317705, -0.6070356068300603, 0.0047777909782463915, 0.48966429335184836, 0.3283456078836908, -0.0351727228098068, -0.10809887339753163, -0.5250605158808673, -0.04282392684463535, -0.2569545337600376, -0.24756989608523355, 0.18611156562545528, -0.003616087288184855, -0.37214606967598807, -0.9228538107866067, -1.0677879861546626, -0.7860812128233478, -0.19834164369924268, -0.2251816813839396, -0.14731930850519137, -0.2454267057617785, 0.19426183053442173, 1.0123084170946286, 1.19534725620109, -0.02290249031671366, -1.5724949706851568, 0.49903111918341897, 0.45512825509087507, -0.48430432930364475, 0.08739261485603314, -0.11195505808762331, -0.23432669858331448, -0.5714208813917409, -0.7884223136035209, 0.2724259582528669, 0.3968331077393592, -0.42812519112825653, 0.14692857069977366, 0.6853286000044501, -0.4452435662205069, -0.6168464389159996, -1.0475078610442956, 0.20167696776413907, 0.07602483482858466, -0.24877678389433866, -0.474797346258093, 0.04802574756847244, -0.32761105422847836, 0.31421095170646063, 0.2364685669341945, 0.29689780324232407, 0.014930507733222909, 0.42531060927883774]
[-0.06477523113985806, 0.17767924775915267, -0.19886691845180782, -0.12178762151060041, -0.15104434062046468, -0.4233740671169183, -0.46112610648509966, -0.4002364038711169, 0.03132909093071978, -0.2947805203663975, -0.605210174225489, 0.2564852826736213, 1.1570876930081722, -0.48040161178109875, 0.0044964199265293495, 0.07683695655424594, -0.42511569222445955, -0.1769613165955286, 1.1399674827954298, 0.06807686548104809, -0.4488145401649981, 0.6092301129742516, 0.2021748265324621, 0.12051159958460256, 0.22420564716140523, 0.2010648034176198, -0.268745255066184, -0.42044781669217896, -1.0908246832994322, -0.5142329523946305, 0.372913471245672, 0.3180901747413559, -0.39684634397674134, 0.45762999499855606, 0.938556288123749, 0.5860833686187157, 0.32702138197489306, 0.3017280429091795, -0.0334954762891283, -0.44399047289422267, -0.46977927924531926, 0.031634566819382384, -1.1103022930206554, 0.03953847733314205, 0.2904116986076008, 1.2226451696033558, 0.3539997840185768, -0.03702856646012609, 0.11468773172856472, -0.13601129395128111, -0.2189611870322529, 0.8639946905509567, 0.8293979457431563, -1.2269572653786696, -0.23898144886420114, 0.26194399729916124, -0.19831240564877328, 0.26420483003496953, 0.10304755777589991, -0.28206672081957884, 0.4738778049623261, 0.18675481668921767, -0.35674904780263705, 0.2687907347646461, 0.4290581945401377]
[0.4104930484924836, 0.26095683014660254, 0.41100118638098293, -0.16700712009123053, -0.40809486809075146, -0.40289816484150665, 0.19458596766618408, 0.2516688653110767, -0.02832216637352558, 0.21703912514361084, -0.36724149691333163, 0.11983524191475654, 0.34161630151737576, 1.0254266629530422, 0.05325139765220801, 0.05169099751587469, -0.3673588683529734, 0.4462699026848415, -0.4284115620833363, 0.2287852268191104, 0.308808524051048, -0.14037614902512408, 0.16234890189724985, 0.21684774716360833, 0.2279112281558492, 0.04192459669880993, -0.7288528699359379, 0.6365083936719255, -0.5285761320160147, 0.14390447959736277, -0.14334987951132336, -0.27959225625626805, 0.207114387730145, -0.06784986669010305, 0.45144067243839414, 0.4124848235202047, 0.5304416928337675, -0.2396202306491263, 0.5646897480088297, 0.48463297038758546, -0.16554123645099583, 0.48317723501830184, 0.20196406499916775, -0.6549239112008801, -0.25498271142897727, 0.2659584727744549, 0.0052741945779478695, -0.3500663391871778, 0.4661971403154882, -0.1885795607954523, 0.1727122046387875, 0.3240640522784586, 0.41050020766717005, -0.7661667851710487, -0.17434815741438456, 0.1806810133581121, 0.11623398807982233, 0.1390707360747383, -0.12105715602395861, -0.4025485577583163, -0.3937905655774586, -0.29348027753026273, -0.037833944678822395, 0.21136001474230193, 0.24998625766982285]
[0.4981966293527904, -0.48726547003485665, 0.3230763643554728, 0.4023176536650106, 0.4572564707918616, 0.0541590758586703, 0.3422466427655214, 0.35420644991826966, -0.20948622904413194, 0.47358789741619445, 0.4121424441498801, 0.06079794680331175, -0.043082100317826534, -1.3932516778586872, 0.16919380522696442, -0.09892830742609837, -0.11256154504929661, -0.3271910913378286, 0.9208948208610566, -0.6097129517905125, 0.4363083103127497, 0.3385955502951062, -0.5075987713199894, 0.3018382676852359, -0.45073812440588523, -0.17582711408817814, -0.24401778316048953, 0.5435436904888857, 1.2420811992097531, 0.950849413853069, -0.14698805062720854, -0.24682818318293342, -0.19956356977106626, -0.022265113112621755, -0.7686701485047553, 0.8953495561133386, -0.7538146770746651, -0.2261696633788445, 0.19506164515115837, 0.2499588804040943, -0.21602496577486918, -0.2199932444472514, -0.10568212689861978, 0.5603268486500141, -0.000853894408486315, -0.8309040368968716, -0.2932441602619087, 0.4824629382705521, 0.03187337090659337, 0.553409362741445, 0.9799822488320681, -0.872161552120545, -0.709151325958867, 0.4994106706113542, 0.7535775677092392, 0.7311629031906881, -0.2845958131688491, -0.35298245772108605, 0.046665199504217214, -0.21502065426012362, -0.4171632988135584, 0.16242764784228458, 0.07966286137813494, 0.2844837561923661, 1.0324006603735185]
[0.09542049065667146, -0.08406471771207069, 0.17341161185756704, 0.30099938921465186, 0.4649332526393055, 0.12047446555246, -0.0714371798478558, -0.3647274528846389, 0.3583050511557757, 0.015291084308838378, 0.054077743684991186, 0.21058452093188634, 0.8899601480278231, -0.1428488565224753, 0.7393056586211101, -0.09496106531745319, 0.3588354025120928, -0.4385207688060681, 1.1410869503528882, 0.30630705154449156, -0.25056993605172195, -1.2684013782268382, 0.3849196530874043, 0.16029137311662878, -0.3441526247432065, -0.31613313322521375, 0.7017807211237774, -0.10058457367893886, -0.7963228042233491, -0.14102707755773153, 0.46204951375188086, 0.15587810166818106, 0.11541146102893851, 0.22931021588334316, -0.785616246428682, -0.025312758480315566, 1.0081167450951525, 0.0012104826684381296, -0.45502653857703024, 0.36719744222948225, 0.045623169000375885, 0.14361268344266004, -0.5910307662359372, -0.015522277581109717, -0.3590646897222126, 0.48693362051547434, -0.237754383534348, 0.4034092361792173, -0.49430166662107566, -0.31394832175274306, -0.006738679459119217, 0.0024372765155816034, 0.9409940412058387, -0.27312314812197785, 0.21105138667383572, -0.3809920953085352, -0.24039908657326747, 0.45687408953051856, 0.3378122488861509, 0.4891752560623517, 0.36363400910908505, 0.2108015404283825, -0.34695677025219995, 0.10877656411176695, -0.37429651064934494]
[-0.3519583494833183, 0.43730690456931565, 0.3152273044001115, -0.28449616981484627, -0.0026379254435044963, 0.3927763547666606, -0.25779185565893725, -0.3693020754244518, 0.06887732777004452, -0.2842609071065785, -0.32100285273315365, -0.2046541071686898, 0.07702534765377642, -0.5660210070410406, -0.45241369884230903, -0.29265272051356606, 0.062323073103051296, 0.45221957412799263, 0.39043327439925996, -0.596705809543526, -0.31203562474431307, 1.0230522079287727, -0.5747841754582622, -0.42374201534061473, 0.2329015880436076, -0.29419427518622154, -0.2521971208894294, -0.2782213439603349, -0.22333974043807703, 0.024956820419941114, 0.25904342554665083, -0.4021322807885864, -0.2043838537499436, -0.061722624020983635, 0.7004450679281079, 0.5352411667046207, 0.18689345119937917, -0.04124668533599315, -0.43163836295708713, 0.13287801396602605, -0.15403767865069562, 0.023141269080773297, -0.8150962072462742, 0.8474000871116429, 0.35206835500307815, -0.13211198191109746, -0.2580764078633468, -0.2976403365651229, -0.18959590719855512, 0.10248089856420124, -0.057585903031303946, -0.1350611584138087, -0.7775338508212194, -1.3469470246282538, 1.1971127506180996, 1.0625578931087454, -0.3547694209918726, 0.3300230287766963, 0.4606371895713146, 0.4662293376308847, -0.4332686998384351, 0.24955730952427446, -0.35982220991695346, 0.47730356252285966, 0.33687341961881795]
[0.3342137265755749, 0.45592213743845045, -0.166404952713183, -0.33917739711363804, 0.4012626533856105, -0.46896162573439226, 0.01971913605387343, -0.04336183633774482, -0.34643911564193197, 0.4370498470669698, -0.28786479044375285, 0.4789693866588307, 0.18516155446425028, 0.1962628972449003, 0.04885986376400357, -0.33341614098215344, -0.06668165258960768, 0.7228419829118911, -0.17448462681939647, 0.5149252331433796, -0.2836962614910839, 0.40674605429597904, 0.11947121928138899, 0.2501695592646799, -0.22363591269169536, 0.3237853520023329, 0.54467238489016, 1.0742308526567124, 1.4424118312084444, 1.0300524668646363, 0.6717946416443662, 0.03890189957348755, 0.06127997347749958, -0.13691005189907912, -1.33790579304664, 0.30560563165310417, 0.45593107775958586, 1.2031541809607962, -0.19628144475481468, -0.3342330800778214, -0.11506114579120041, 0.25518618695512413, 0.053566179013375854, -1.1754692730136402, -0.3115561171837058, 0.8431107342443451, -0.14582167843502747, -0.03186337232266756, -0.00444650411414238, 0.44440023380104143, -0.3581492935513163, -0.6350671233116107, -0.29258349257679467, 0.9511969616399443, -1.5023282848824056, -1.1949524457412843, 0.4649412181066592, 0.316783304736182, -0.2305454384168114, 0.48462419624586894, -0.15383963312231408, -0.27145623357045834, 0.3329195811377098, 0.11441405600060406, -0.09947114876134927]
[-0.39262620648195345, -0.15241939660834192, -0.14637918555089102, -0.3145685673934945, 0.2866933360299331, 0.34562958837080904, -0.4118719946950721, 0.4350305594685544, 0.4228409469745299, -0.39715185797874963, -0.24580051574277123, -0.12496966646062375, -0.8201186063062553, 0.7703250917415962, -0.0009241086092885583, -0.010753697077112934, 0.23832148029052413, 0.05342983125756663, -0.3761673932781728, -0.46212531094258863, 0.08790408282647993, 0.3720279552818631, 0.28658528268687167, -0.1333321102067595, -0.32633396192698716, 0.3288966338286415, -0.5663345612702176, 1.1392457951012414, 0.6292047592856829, -0.7030743598156135, 0.5298708836751247, -0.4106688805897333, 0.04095747941141248, 0.05880299826963693, 0.5249203245282043, -0.17861074817458808, -1.0137523439561398, -1.0565565435935091, 0.35730274402462103, 0.15333812663608948, -0.11376323155263479, -0.4008906440311681, -0.2916878415245839, 0.08253303371376217, -0.6690901148897161, -0.811087580293906, -0.45920396982146583, -0.3416304549182214, 0.4756496083591295, 0.432359882053474, 0.9430578293442362, 0.5041960732810618, 5.5981779624316566e-05, 0.3029275383504209, -0.24440455239955547, 0.06685285380619463, -0.11641181212074059, -0.16655192438974353, -0.06913463081259952, 0.11876956421336637, -0.13059900075755526, 0.43154204547277797, 0.4807596133017309, 0.4884889893599501, 0.22462766007417573]
[0.453145593207109, 0.03961619591216514, 0.14949447032052887, 0.3857036945621465, 0.0647627887893717, 0.013774129617627029, 0.14986545732509093, 0.44145214405977273, -0.3520112993839427, -0.2301078474223753, 0.02295700918515224, 0.8182155882422364, 0.6538142023243851, 1.0953596349919983, 0.7472703667545065, 0.3461381688565627, -0.07709243246841635, -0.5159985994946295, 0.20279316490072877, 0.31707951003147306, 0.4833328275697676, -0.4762017383819421, -0.004046925571022731, -0.18322210345773637, -0.09987264081774683, -0.31938294962404734, -0.35919883695318044, 0.5468918519776518, 0.38048779904171487, 0.01950067113556334, 0.5067977062961377, 0.03485656097537937, -0.0789160397100106, -0.1384544721451848, -0.811498018679291, -0.6840335498278032, 0.5964065159260472, -0.0503162254266831, -0.4005375133832799, 0.4335359263189992, 0.2033516420732916, 0.3765809757331485, 0.038683042241541156, -0.636232918628307, -0.2625782535457674, 0.4824887585671189, -0.23933632075928027, -0.2840276286881237, -0.3484011917175215, -0.1721714851614157, -0.40404660276790577, 0.6675237453407487, 0.886318212005006, 0.7899669929331237, 0.1733199849557808, 0.3060386076455728, 0.4232430172096917, 0.1372275607932656, -0.44681277362369964, -0.3747087993743642, -0.38077255388251785, -0.11982191289990685, -0.09973220287876605, -0.03538299773586362, 0.23569719802973116]
[0.3276576889516657, 0.4003252128378063, 0.3162049728036985, 0.3625476474683317, 0.15181307528867583, 0.3846959310498024, 0.4592821722431578, 0.141644101978047, -0.1354248071778278, -0.516482702355228, -0.39452985539868163, 0.017773603555280508, -0.20666452742777394, 0.41822909121981905, 0.2927463004905996, 0.45572767161831285, 0.1950094528137697, -0.039210098116938166, -0.6304241552769527, 0.17678048213353187, 0.0034298535763116877, 0.7680260109612219, 0.4057137880376584, -0.4257194654970138, 0.17757352348632371, 0.38942303938241507, 0.5468756520806279, 0.3817565689156076, 0.3366114390873226, 0.509364378542417, 0.21536596490216214, -0.3530524809329615, -0.2607991402678581, -0.31651674206162084, 0.6538658898085289, 0.36278197911221094, 0.06609882544612454, 0.9909684575580623, -0.16461024203166025, -0.19706481304677803, -0.24172657576103818, 0.08147492276504253, 0.6696502211110593, -0.07941989986682776, 0.2686700588657901, -0.28368377727366606, 0.40058041246510384, 0.34928460390469307, 0.15043413531650784, 0.07321788433805326, 0.14817726348883825, 0.18634991934125603, -0.288416017313468, -0.30968294596385565, -1.4552643016801754, -0.540846635394982, -0.07629345981797242, 0.14882343656601882, -0.2724661493072462, 0.04128545312458265, 0.47146103262471895, -0.12172732407788367, 0.3482421684151181, 0.07806887363069148, -0.4501225240518016]
[0.418043786425469, 0.2785052763103697, 0.27403807257101154, 0.19107781608976415, -0.32379782611562047, -0.31193383971127175, -0.2943630972034783, -0.27945342842850895, -0.02798728376325088, 0.5851416153973898, 0.27377904205445164, 0.2524381260551971, 0.1683155512547998, 0.22944172561423637, -0.1508846709674712, 0.30659508745582975, 0.31030169501934945, -0.18630687296868328, -0.5582959020072658, 0.6006258689672901, -0.13820015881085104, -0.10125062611140397, 0.0014916118293950204, 0.48725693627065025, 0.03510978674135612, 0.04012761197789133, -0.1026832129575886, 0.5811182698044312, -0.06274681018270287, 0.1492184306878617, -0.06653060629663726, -0.3330021113717119, -0.23459712301121116, -0.24773524433439612, 0.26779641380342445, -0.1337621817897055, -0.3942523751917333, -0.22085831245915127, -0.2328668156306075, 0.30721158080394917, -0.38199804308040797, 0.06702586137720419, 0.7293604689354538, 0.32642929597828163, -0.3525943811392107, 0.09042243393044122, 0.29494077742827624, -0.41256181500556066, -0.026303867916256607, -0.10475011958002735, -0.51632048400654, 0.6831697343434849, 0.5684306047180987, -0.11519536137037913, 0.45979553401121637, -0.31340360477525686, -0.1267705091029373, -0.4653915809909098, 0.09414517220041019, -0.10685974254929398, 0.25139609269931484, 0.28920589903730287, -0.40535038698578196, -0.3836346293073636, 0.28837692343173]
[0.15879544240730703, 0.19665180448984954, -0.21205961054232036, 0.28205688008565366, -0.3779474858693842, 0.27581272233366483, -0.32231843879610256, 0.1735792446065979, -0.4488496643859373, -0.07757590561620642, 0.008210166539844741, -0.07502141016950917, -0.09145354646539999, -0.26247498094876714, -0.34653356519881284, -0.07688247068778808, 0.1968743044714527, -0.08660938627788359, 0.4812900639328304, 0.10719824312875266, 0.3166906516878392, -0.4619958127504352, -0.3648395251074024, 0.47102760113778763, -0.18145318178742298, -0.25063244778815214, -0.3735984476770663, 0.07437180183333006, 0.016439538672434157, 0.2717945948323141, -0.1923925761927125, 0.29956811006534045, -0.12530547573730355, 0.1337348525219529, -0.3867013973250604, -0.3595922894792039, 0.15280914925808356, 0.3736475517116666, -0.30529905999490575, -0.11750862157666608, 0.36737438069247796, 0.1343766186967874, -0.3873484934859291, 0.08473783733047906, 0.6491943680086812, 0.6184127333740252, -0.2780233730488428, 0.14294123192439945, 0.106362319390084, 0.10425610535450278, 0.40601554502107595, 0.3103157009689004, 1.0053281242797547, -0.9613940972008791, 0.8223723481519463, 0.3081479190486347, 0.41079167805953, -0.1574927208611253, -0.16590721917637496, 0.36990612421941726, 0.478118597713578, 0.10521110944877665, -0.37740912097695867, 0.054341421216384966, 0.42976272995087805]
[0.29313909162312546, 0.43998173828380904, -0.3715686866213468, -0.091261868199906, -0.05157233311559761, 0.20247162800963137, 0.11778031073092343, 0.19188249649719324, -0.053885202046698666, 0.5032211033252147, 0.7981233127058521, -1.492234303658161, -1.7514970585229144, -0.9581358539418809, -0.44103170346931003, 0.431507932672349, -0.30262925725667755, -0.15611894757648093, 0.7604807654430061, -0.0764002243848916, 0.38542817887505926, -0.8831764717660793, -0.07333093470690964, 0.03832603159062842, 0.36500630047922944, 0.6898894461452957, 0.25304650488695096, -1.5323576722885657, -0.8936762398268273, -0.8505002843535716, -0.6221860947971497, -0.2801821294868563, -0.273470611611053, 0.4240441125409426, 0.4248144940904331, 0.6974124767792346, -0.4322648367191591, -0.867893855783224, -0.20137640899405881, -0.4528217844345741, 0.4343626514015596, 0.30019778632002003, 0.40949903716302716, 0.20519877055087235, 0.9439028551283694, -1.1746380138397003, -0.467656945104912, -0.16727113512298708, 0.24175297100532367, 0.8010090487341638, -0.41619737022241493, -0.10962901640033915, -0.09629404305088281, -0.019011735884126163, 0.07611296297188254, -0.32274877257966994, 0.04582265497288518, 0.12460840792117389, 0.07436875877990534, -0.4366251980905218, -0.23219245339574046, -0.3756477858805811, -0.3036738712206436, 0.24755815386663282, 0.6436182581253933]
[0.3937742614046157, 0.30072963194339886, 0.2071177774383668, 0.011136189433958332, -0.2849707150203843, -0.06294691539201502, -0.08419410816438788, 0.44145934803468856, 0.2065193480031069, 0.2743381464815571, -0.2045872672413324, 0.21907697353627723, -0.2669307205850164, -0.29050687645281525, -0.05002414206239898, 0.26610997170052875, 0.11424064326298045, -0.6043828903792727, 0.20332121539347184, 0.08731817899858256, 0.5211154574808476, -0.7490148806545305, 0.16780023537069136, -0.10939881973080501, 0.22579601097685775, -0.5707571216487429, 0.6395191383594963, 0.34977512004307426, -0.4125059690329859, 0.13032307085664901, 0.4875703986046099, -0.31597695580305085, 0.3614077022181037, 0.1484142329507055, -0.14354585081891555, -0.08428851059905504, 0.2558273591849666, -0.21078910585214164, -0.26658827587547623, -0.2911288427241706, -0.2733116756128122, -0.2892716583284664, 0.4377959312755662, 0.19532454061099375, 0.14991104555299023, 0.17811148399365279, 0.32085234950369323, 0.45477648274756677, -0.2609025365048725, -0.1670407782472291, 0.6330094142525478, -0.08306832376244833, 0.1770302913262766, 0.8019667168044291, -0.42265087031039167, -0.3303689539660796, -0.40426081594281993, 0.09006961600422891, -0.014521268586355163, 0.34946642958332474, -0.34658483197733136, 0.2604422333196176, 0.0729586207248174, 0.37631719827865007, 0.33940301055900524]
[-0.06356737665454237, -0.05545411064711969, 0.26360545843060434, 0.2613055042061958, -0.1706756121328058, -0.464675067328146, -0.270695139023293, -0.35231413593221106, -0.4559191794582561, 0.09084018652409755, 0.29458763475655175, -0.14947581177488348, -1.055675324539848, -1.0438902541867432, 0.11400428999146484, -0.2533986256507904, -0.25498967534067873, 0.5236150173671785, -0.47870456524371474, -0.04028849681894425, 0.06528994253536366, -0.7583825650562339, 0.45646187103725, -0.2573092680824809, -0.3060985623873361, 0.3962856980322919, 0.17103637513442063, 0.007868237020748356, 0.9279579307426429, 0.5959647904720681, 0.19349842643584136, -0.044224484858953694, 0.3645424503501373, -0.1356172061667982, -1.3952094566267697, -0.24131030848961219, -0.19402946178285457, -0.569767201316161, -0.26317272071457654, 0.4389708803155865, 0.33656923730757193, 0.028086474527822657, -0.6437855952081265, -0.4002914998845542, 0.1322664607231548, -1.1007551007693424, -0.08409486012688754, 0.2643521194056022, -0.211757507844192, 0.28826250334889475, 0.5449065759122458, 0.9160106429781005, 0.9371752833242979, 0.08413449828928238, -0.18913007609994256, -0.1047541091115555, 0.22014120770950263, -0.4109958207360961, -0.35130934551070736, 0.4921003169343747, -0.372546888130439, -0.13451216466878613, -0.323290807000736, 0.1018884189485939, 0.6760133298802958]
[-0.36103763241358167, 0.16881246188481847, 0.05296390440985921, 0.17317478601051006, -0.18613841142001408, -0.12140334783844153, -0.10785329805159394, 0.20680288407343728, 0.18498261414089912, 0.44730844165972994, -0.21127835588403734, -0.025140103682536757, -0.12980812685780402, -0.9120819141883457, -0.1882945105622506, -0.4032353534382258, 0.3780161139295747, 0.6549496880456562, -0.9428930210311935, 0.38526125003058553, -0.5939022565850212, -0.44401067677965267, -0.20713378176675423, 0.36866824819058075, 0.44057637266095795, 0.3871367880133776, 0.09354224256754202, 1.1043001565552684, 0.7721725283707241, -0.20722350989368135, 0.14562206279584003, 0.17652471232999722, 0.41578341834882426, -0.31017490553019433, -0.7557964331687382, -0.313683592860608, -0.5833678916458127, 0.20428972540032006, 0.48541824997814526, -0.31304072648857084, 0.4777363582099643, 0.30505669252267575, 0.14624643207795981, -0.23670159543369929, -0.33273196625416135, 0.38470100942082097, 0.3363494011265841, -0.1537923678733979, 0.45393007709470057, -0.16759929744861346, 0.5448771867196273, 0.9010795024665246, 0.6649654469395186, -0.08762042289470215, 0.19801860492789156, 0.7038774043454539, -0.3546247104470751, 0.12915767695293756, 0.254491639316474, 0.14132316592687455, 0.47153352936192694, 0.2980365931019906, -0.4349274473687421, 0.32791651234388386, 0.14073504116927077]
[0.004933961297326039, 0.00506912345110111, 0.04735949372400827, 0.33035365418662277, 0.04633845505536227, 0.29195988026635555, 0.44247793555431714, 0.3194666823582093, -0.13144277815582817, -0.6628551213273194, -0.0018175989824977382, -0.3165259877096932, 0.21229453220523728, -0.5488571144008297, -0.29216482974611907, 0.40909138380399535, 0.09391249310209182, 0.10261194643041247, 0.5434444666073873, 0.5357703478026598, 0.3486895526223492, -1.0264175444028316, 0.6486782431959253, 0.35547083373360044, -0.01615162594147812, 0.30913139810150864, 1.2083208448341702, 0.14610558123894493, 0.005884340045253174, -0.3252197350474534, 0.3390198347301661, -0.2956388506036247, 0.4936967392377748, 0.03368373222313234, 0.14720097315906594, 0.39297807225281933, 0.14735393162225544, -0.014918167001397685, 0.27183090802891535, -0.4207378285496779, -0.015115179754784935, 0.1971737582414271, -0.12230791840025565, -0.5553996833718923, 0.11167882333554194, 0.3391902204283875, 0.11564785301086027, -0.051396991149806004, -0.4185553134175478, -0.5791764596548304, 0.659006594184146, 0.6217555302567944, 0.17934141393402173, 0.07618843501577542, -0.07880864758764747, 0.1567225064044818, 0.37873101254938657, 0.43644039891658903, -0.4186835269206005, 0.11054413083917913, -0.4514795835990746, 0.2770139627452446, 0.2246995266577435, 0.051049492625615644, -0.339179771112445]
